"[-0.20315535 -0.08757169 -0.14882374 -0.05438663 -0.14494737 -0.10327593
 -0.14532157  0.02973847  0.01495987 -0.02863044 -0.1792547   0.00494598
  0.07286898  0.08375276 -0.10053814 -0.1689868   0.06029061  0.11652017
  0.14384133 -0.13682418 -0.06930082 -0.15025051  0.08661431  0.11737232
  0.09661448 -0.17030839 -0.00614059 -0.165557    0.01078231  0.08939727
  0.16903685 -0.17979484  0.15479504 -0.01334155  0.15395998 -0.12261992
 -0.15832234  0.13991741  0.19739777 -0.16252775 -0.04666455 -0.16375506
 -0.19466738 -0.151742   -0.05991324 -0.0911464  -0.11503544  0.07515421
  0.19799079 -0.15790822  0.10264978 -0.09252753 -0.13819632 -0.1446148
 -0.16424524  0.16930078  0.1167171   0.199623    0.14657475  0.01622443
 -0.08723808  0.13448532  0.07359642 -0.13461686  0.18545897  0.10253657
  0.18177456  0.10825451 -0.05762594  0.01844967  0.01515305 -0.16634674
 -0.00680632 -0.04006487 -0.059445    0.10359419 -0.00550329  0.00265481
 -0.07830077  0.13535135 -0.1368116   0.16056152  0.00325508 -0.09143916
 -0.19799241 -0.12765793  0.15168273 -0.04321512 -0.02893705  0.0834918
 -0.12297181  0.17174834 -0.1164679  -0.17095841 -0.06328835  0.19462546
  0.03449365 -0.12984655  0.15140353 -0.12528502  0.16198694 -0.12709797
 -0.02439341  0.08507121  0.02378258 -0.12920295 -0.05033954 -0.05808532
  0.07375479  0.17896648 -0.13483947  0.11449206  0.04771307  0.18318342
 -0.13297986 -0.01827737  0.12873928 -0.1598748   0.02319003 -0.14377549
 -0.19298919  0.11070776 -0.14817892  0.12326886  0.00188213 -0.14052391
 -0.15894904  0.08403207]","[-0.14166136  0.07552569 -0.05472853 -0.14040224 -0.19945373  0.0389906
  0.10906803  0.18822916 -0.06239461 -0.06734786 -0.04080257 -0.00495681
 -0.18842666 -0.16661821  0.03784906  0.05721725 -0.01256521 -0.08025808
  0.01230277  0.16754676 -0.00597985 -0.12654543 -0.16663728 -0.2016458
 -0.11290497  0.13705118 -0.08585881  0.07787549  0.1930766   0.14313182
 -0.05282823  0.16168709  0.15899727 -0.02624582 -0.02757164 -0.14078632
  0.2009639   0.03554852  0.1056538  -0.16894491  0.08432805  0.15843622
 -0.01109948 -0.16457641  0.03909281 -0.11414953 -0.01531562 -0.01515271
  0.18519162  0.01434568 -0.18355112 -0.08195492 -0.00614133  0.13102337
  0.11176473  0.1471603  -0.13344917 -0.09107415 -0.14956065 -0.02085176
  0.17767412  0.06811352 -0.01199035 -0.16956625 -0.01848672  0.19058111
 -0.10936035 -0.14652049 -0.15291757  0.12551009 -0.08530919 -0.15376006
 -0.19909933 -0.13932474 -0.20075001 -0.06483278 -0.16889807  0.13384343
 -0.04932539  0.05206083  0.05302132  0.1209498   0.18087194 -0.18789061
  0.08338847 -0.08496633  0.08930336 -0.16252573 -0.20179757 -0.01277497
  0.02379598  0.04686134  0.14762307  0.19792942  0.16004933 -0.16354703
 -0.00908209 -0.1365777   0.05464957 -0.02388127 -0.06281091  0.13990712
  0.15205599  0.08874545 -0.00275553  0.15382313  0.00713158 -0.20313303
  0.04244257  0.09949388 -0.17350598 -0.03288815  0.06550257  0.11046687
  0.17833841  0.15012359  0.11744051 -0.01888855  0.09312083 -0.1369406
  0.00455718  0.17641534  0.04214999  0.18888246 -0.03468851 -0.07674134
  0.00530323  0.19559946]","[-0.27038994 -0.37375958  0.26017022 -0.04996487  0.39661886  0.04214466
 -0.07301421  0.25941038 -0.13736562  0.05557501 -0.13833117  0.21589951
  0.46194984  0.08840174  0.23003132 -0.03291764  0.16615477 -0.20229379
 -0.19138101  0.11805585  0.15079032 -0.12685641  0.02787052  0.23292269
  0.05892755 -0.06733896  0.04745364  0.25246583  0.16871692 -0.10108894
 -0.05167644  0.11635548  0.04080721 -0.21253003 -0.07514396  0.01177863
  0.0214994   0.00199191  0.14152737 -0.33090689  0.02854654 -0.07318732
 -0.07917101  0.30953997 -0.11307563  0.13835714 -0.1307279  -0.1552893
  0.18908626  0.10865275  0.3008573  -0.06432569  0.57887807  0.11579591
 -0.25270377 -0.00285393  0.37020491 -0.08408053 -0.15830603 -0.01796821
  0.29572323  0.31198902 -0.13991657 -0.14296358 -0.00173238 -0.23160782
 -0.24958744 -0.15975548 -0.48461391 -0.17312078  0.00729355  0.23495721
 -0.1351945  -0.17599193 -0.0277549   0.35822407  0.10226923 -0.09035809
  0.16279573  0.15716348 -0.21194017 -0.18458381 -0.00859329 -0.01824588
  0.08623831  0.05991304 -0.40346299  0.02714802  0.18955404  0.1852832
 -0.17877332  0.56162079  0.23477488 -0.5156074  -0.45317049 -0.13190488
 -0.09906656 -0.24545962  0.30618163  0.16459082  0.35550086 -0.09709391
  0.02447633  0.07214415  0.00812794 -0.02837111  0.02771735  0.07893404
  0.07097122  0.33803219 -0.22325503  0.10861504  0.07755196  0.18405599
 -0.19715534  0.53437684  0.03118352 -0.31863135  0.10986431 -0.24524022
  0.04732791 -0.32171632 -0.05254937 -0.25373303  0.11227813  0.15589341
 -0.4219085   0.03386012]","[ 0.28435382 -0.06156156  0.05736283  0.08685484  0.05001138  0.09811328
  0.1981253   0.1902098   0.0283647   0.44247831  0.20927674  0.32886327
 -0.01300436  0.07181928  0.23447743 -0.10652699  0.14591363 -0.28836637
 -0.02874151 -0.09251789 -0.19529523  0.01772238 -0.15373449  0.16682796
 -0.11370157  0.01643823 -0.12760099  0.1211773  -0.29121604  0.18268521
  0.17695941  0.31382155 -0.13007237  0.33458859  0.42231167  0.05961612
  0.35650401  0.25523639 -0.26966757 -0.05821939  0.16547545 -0.18341965
 -0.05043787 -0.40352202  0.0646683   0.03462575  0.18128017  0.16650881
  0.13227079  0.1140715  -0.25378773  0.13295132  0.17024451 -0.0797247
 -0.15346293  0.15540377 -0.22887044 -0.06035234  0.02396945 -0.03001883
  0.28810045 -0.55951814  0.27692633 -0.03267453  0.20748438  0.49878507
 -0.0539368  -0.14701848 -0.78260952  0.24512239  0.34693699  0.14775169
  0.15752122 -0.16320153 -0.05872807  0.0670456  -0.17020603  0.26555102
  0.27172786  0.07472891  0.05040209  0.01313534  0.14672389 -0.09318761
 -0.12936262  0.11467584 -0.2304067   0.25761227 -0.14438489  0.36105972
  0.02415839 -0.25834997  0.16431092  0.27295307  0.3516771   0.06511
 -0.29260676 -0.05129896  0.05985947  0.13877712  0.22206097  0.12470824
 -0.20753828 -0.28923929 -0.09952     0.10627825  0.17911601 -0.3433195
  0.37810073 -0.66351644 -0.37781211 -0.00653429  0.30271576 -0.24038863
 -0.20520179  0.18663825 -0.84644754  0.07483174  0.05414636  0.06416607
 -0.06359655  0.09360706  0.20908278  0.15234917 -0.09363581  0.1971246
  0.17671683 -0.13403518]","[-1.68405776e-01  5.04784993e-02  4.52091883e-01  3.07975001e-01
 -1.95741255e-02 -1.03198269e-01 -1.88362925e-01  4.73466080e-01
 -4.38749385e-01  1.85172594e-02 -2.30389697e-01 -2.79642645e-02
 -1.39664821e-01  8.75795426e-02 -8.47181862e-01 -1.37393288e-01
 -8.41870884e-02  2.57791070e-03 -4.52540490e-03 -7.06451164e-01
  2.40981973e-02 -1.78624960e-01 -1.61825579e-01  2.78917823e-01
  2.07186036e-01 -1.20366339e-02 -1.12332967e-01  3.35220205e-01
  6.18931685e-03 -3.44520424e-02 -1.80347040e-01 -1.19606452e-01
 -7.89690031e-02 -2.76455482e-02 -3.98608692e-02 -1.08511891e-01
 -1.70936338e-01  4.86856957e-01  2.01863043e-01 -1.81609240e-01
 -2.51641542e-01 -1.39756299e-01  2.77844613e-02 -4.52359243e-01
  4.88950013e-03 -1.16212039e-01 -1.63015218e-01 -3.90230297e-01
 -2.03159038e+00 -5.52323551e-01 -9.75058564e-01 -9.36473192e-02
 -5.30347976e-01 -7.62237692e-02  3.19843634e-01 -6.94435500e-01
  1.11129892e-01 -1.44863475e-01  1.17832405e-01 -1.61247242e-01
 -6.75799022e-02  9.72260023e-03 -1.71041602e-01 -1.28947044e-01
 -3.19911046e-01 -4.42826071e-01  6.63361452e-03 -1.62145079e-01
  1.67991392e-01 -1.77812791e-01  8.65793313e-02 -1.23323847e-01
 -9.29572823e-02 -2.57005314e-02 -3.82954545e-02 -1.11443934e-01
 -1.19492882e-01  3.22728100e-01  3.76136191e-02 -5.81015560e-03
 -4.66530643e-01  1.82979284e-02 -5.25828598e-01  3.46710383e-01
 -2.21848951e-01  2.17534572e-01 -1.13713875e-01 -1.30878789e-01
 -1.01945294e+00  6.16315286e-02 -1.62259334e-01 -4.62690422e-01
 -2.48823920e-01 -6.26834765e+00 -2.06083470e-01 -1.00239035e-01
 -4.04861850e-02 -3.62211261e-01 -2.88152695e-01 -7.86351832e-01
 -2.42915393e-01  5.57606671e-02 -4.09163352e-02 -8.51250908e-01
 -2.22776409e-01  4.35437343e-03 -1.35725477e-01  4.55086262e-01
  3.01052469e-02 -7.72139966e-02 -1.21087212e-03 -7.63240850e-02
  4.30950761e-01 -1.46931678e-01  1.93529718e-01 -3.12732988e-01
 -2.58342798e-02  1.63905017e-03  2.10602834e-02  3.38344638e-01
 -8.64849545e-02 -7.44871529e-03 -2.26722418e-01 -2.87521470e-01
 -1.28646475e-03  3.86589676e-01 -4.90241895e-01  4.75445833e-02]","[-1.87264330e-03  3.26114097e-01 -4.84259697e-01 -7.76944560e-01
 -2.08641934e-01  1.24232977e-02 -1.28527565e-01 -3.35876559e-01
  5.50376338e-02  1.29424286e-02  3.73530901e-02 -2.61719341e-01
 -1.42847221e-01 -1.58062541e-01  3.10318072e-01 -1.44901233e-01
 -8.26803838e-01 -6.35604169e-01 -1.40267421e-03  2.87669960e-01
 -2.15141982e-01  3.81329512e-02 -2.78300632e-01 -7.54298768e-01
 -5.27191128e-01 -2.02678022e-01 -5.66453805e-02 -1.17101599e+00
 -1.25930966e-02  3.61391295e-02 -1.47303125e-01 -3.66546549e-01
 -1.58313552e-01  7.78544706e-03 -8.22865813e-03 -3.39123222e-01
 -1.31383472e-02 -1.34137593e+00 -8.32143352e-01 -1.34272776e-01
 -1.29722786e-01  4.23877981e-02 -6.10605736e-02  2.97498123e-01
  3.53221863e-01 -7.46042742e-02  3.37846564e-02  7.59534563e-02
  3.52671695e-01  1.18750678e-01  3.27498682e-01  1.99887681e-02
 -1.98478274e-01 -3.61615135e-02 -6.88850084e-02  5.00651281e-01
 -6.50614812e+00 -1.81178303e-01  2.97393011e-01  3.80481722e-02
 -4.25272522e-02  5.39340646e-02  7.58497104e-02 -1.81931271e-02
  2.52937280e-02 -3.60188478e-01 -2.19151495e-01 -3.65196186e-02
  2.91657281e-01 -3.38601932e-01  2.36339948e-01 -5.27179671e-02
  4.46964156e-02 -3.31654920e-03 -1.78581267e-01 -7.37913299e-02
  8.66263188e-03 -2.79352915e-01 -4.29903158e-02 -8.34633537e-01
 -7.36677871e-01 -1.93443640e-01  4.66301999e-01 -1.98712788e-01
 -4.99202252e-02 -3.59537108e-01 -1.46158450e-01  4.16577293e-01
  3.97490025e-01 -1.86912448e-01  3.22607941e-02  1.78433089e-01
 -1.93774234e-01  2.46920512e-02  2.82041788e-01  4.37723619e-02
  3.04263997e-02  1.12776384e-01  1.57340193e-02  1.55260588e-01
 -4.21747549e-01 -2.26382678e-02 -3.44193010e-02  4.71080585e-03
  1.60782704e-01 -2.41433213e-01 -3.86165176e-01 -1.61964245e-01
 -2.94307190e-01  7.51869988e-02 -1.58904683e-01  3.81816644e-03
 -4.76091365e-01  4.71477758e-03  1.75125784e-01  2.47111718e-01
 -8.76110142e-01 -2.11183060e-02 -2.86463746e-01 -2.10799830e-01
  9.83361934e-03  3.33393126e-01 -2.22271351e-03 -4.34686030e-01
  1.24832096e-03 -1.28337753e-01 -7.66892518e-02 -3.50918189e-01]","[ 0.17559662  0.15251809 -0.1437386   0.20361634  0.00455857  0.08667747
 -0.17852454 -0.01894701  0.04576766  0.01476957 -0.12685074 -0.11616249
 -0.12339051  0.15127731  0.10150634 -0.14846824 -0.01072637 -0.1759095
 -0.02460731  0.07996163  0.11352526 -0.09621311 -0.01928969 -0.03157514
  0.20188843 -0.14534465  0.14261082 -0.16447411 -0.09371922 -0.10371628
 -0.15851755 -0.15342416  0.01578551 -0.02426117  0.15307269  0.18214455
 -0.0159869  -0.13709633 -0.08140153  0.01495595  0.17821585  0.08268387
  0.11607023 -0.04215146  0.01714023 -0.14683156  0.18970329 -0.19308652
 -0.14822674 -0.05757851  0.18761401  0.16652569  0.00180815  0.19401067
  0.18279773  0.16383462 -0.10621774 -0.02514807  0.03641925 -0.15260829
  0.07431445 -0.14621585  0.09994261 -0.18226062  0.07777033  0.08342949
 -0.0205192  -0.00480589  0.0790126  -0.04446586 -0.0350106  -0.12607426
 -0.06021837  0.09633939 -0.15305469 -0.10649891 -0.10634049  0.05126563
  0.20097789 -0.01742673  0.16411267  0.03145987  0.09229724  0.01417896
 -0.10643346  0.04424273  0.00533972  0.0742675  -0.13229334  0.159935
 -0.18033008  0.0847155   0.1728816   0.1258253   0.07716     0.15547031
 -0.11688537 -0.1432001   0.03343036 -0.09483552 -0.00361728 -0.18915464
 -0.15105175  0.07329961  0.12150722 -0.04538894  0.08951833  0.16960379
  0.13599638  0.14553847  0.04943361  0.17839628  0.14743225  0.07542921
  0.10444861 -0.18129383  0.1599899  -0.15479318  0.15995194 -0.03524702
 -0.19322755  0.03410479 -0.17975294  0.14556867  0.1781196  -0.17710369
  0.10188568 -0.07669521]","[-0.01953324 -0.06732326 -0.08755907 -0.05448264  0.05735745  0.12783641
  0.05502555  0.18095111  0.19193164  0.0830378   0.07343685 -0.00151929
 -0.17532722  0.035414   -0.19938593 -0.04909665  0.04580505 -0.0613247
  0.16080678  0.0268809  -0.1441728   0.0083904   0.02921653  0.01293835
 -0.08575027 -0.17903558 -0.01533633  0.06775422  0.00799025 -0.08064441
 -0.14559838  0.04321576 -0.16649281  0.16519496  0.13298254  0.1876911
  0.16288917 -0.14587359  0.0959599  -0.14816101  0.17551251  0.18137345
 -0.01748486 -0.02868411  0.02033608 -0.16674292 -0.06501868 -0.11775865
  0.1309527   0.01144686 -0.1234153   0.05078621  0.11046704  0.11278388
 -0.11800813 -0.08527715  0.11728446 -0.19219225 -0.15814782  0.18956155
  0.08542396  0.20212132  0.13029359  0.11316207  0.0676823   0.09734288
 -0.18307052  0.1199314   0.13266802 -0.15641369 -0.18008356 -0.07476041
  0.16755973 -0.0932263   0.18498656 -0.03448577 -0.2039675  -0.19767469
  0.13009461  0.14977883 -0.09857402 -0.12253686 -0.15443243 -0.0512202
 -0.12084988  0.09907347 -0.13370128 -0.1601767  -0.0460991   0.03892123
  0.13036225  0.18154004  0.07724666  0.08013161 -0.0911532   0.12810989
 -0.00232995 -0.07167551 -0.14337098 -0.1197394  -0.0583741  -0.05624709
 -0.17058351  0.17432535 -0.05534412 -0.12857353  0.20120523 -0.04778219
  0.16624964 -0.12022131  0.04923725  0.15898844  0.10873063  0.01878902
 -0.11448927  0.06943399 -0.15988257 -0.17143506 -0.07049363 -0.0869501
  0.00660578  0.07281032 -0.06588085  0.05664208  0.01583543 -0.08716361
 -0.10570271 -0.00392955]","[-0.01463747 -0.05088759  0.11400549 -0.19586652 -0.20193838  0.07909762
 -0.06255522  0.12226742  0.13666051 -0.20191664 -0.01204137 -0.17944458
  0.18421764 -0.01903439 -0.00664949 -0.18138962  0.01338355 -0.10920127
  0.04448681  0.0577225  -0.00823253  0.05347578 -0.03892454  0.07318044
 -0.1611811   0.14554575  0.0822343  -0.14126971  0.13200018  0.19230816
 -0.0684113  -0.1379333   0.14730121  0.0600959  -0.00972263  0.15476726
 -0.07341672 -0.03879148 -0.00163534  0.07908894 -0.01104276 -0.19835495
 -0.1273865   0.17837928 -0.10954044  0.19352813  0.16966466  0.0583522
 -0.05639198  0.0600642   0.16695013  0.04612613  0.08333595 -0.13769147
 -0.10180425 -0.05176522 -0.01007572  0.159867    0.04569751  0.16160799
  0.13970719 -0.13457722 -0.04337449 -0.07360214  0.17392174 -0.19031402
  0.12863741  0.18336529 -0.06771335  0.04876436 -0.12363342 -0.07056779
 -0.15086784 -0.04958224  0.09968754  0.16735049 -0.03750043  0.09183156
 -0.18683888  0.04517133 -0.07095484 -0.06653085 -0.16005652 -0.19831509
  0.09848864  0.15987262 -0.16918911 -0.1166203   0.09158093 -0.04242006
 -0.14399902 -0.16569527  0.03594994  0.1297655  -0.00478558 -0.10186989
 -0.20231211  0.09698749  0.0476029  -0.13542722  0.18807882  0.02336638
  0.03954575  0.1362604   0.18911261 -0.15973262  0.06089736  0.08217979
  0.03344602 -0.19384385  0.10183581  0.03308303  0.18680516  0.17923888
 -0.02235953 -0.13713454  0.07641608  0.1920476   0.05279524  0.17963083
  0.09370843  0.06060171  0.04868632  0.0280016   0.01481326  0.16030339
 -0.03118934  0.20383728]","[-0.18971904 -0.14062914 -0.0092315  -0.14238119 -0.00035427 -0.07486936
 -0.02117517 -0.18150687  0.01349206  0.01508628  0.0476397   0.07386937
  0.00122549  0.06632775  0.12320874  0.0235472   0.11525951 -0.06149589
 -0.01684666  0.19384859 -0.07695848 -0.03915724 -0.05217414  0.04922632
 -0.0033701  -0.12507821 -0.09455056  0.07212987 -0.13860727 -0.09603832
  0.07480302  0.12141099  0.06872376 -0.0372351   0.08808514  0.03407851
 -0.06922271  0.11857427 -0.04575728 -0.06993371  0.15704194  0.16482536
 -0.15266334  0.20289047  0.10776158  0.05548512  0.01300873 -0.04355463
 -0.00123842  0.14631843  0.00108223 -0.14133856 -0.03971181  0.1310294
  0.10858114 -0.18367083 -0.11141566 -0.05808012  0.07145978  0.08721105
 -0.07794381  0.00413762  0.03549149  0.1776115  -0.04971981  0.14418845
 -0.1482649  -0.15539817 -0.10354976 -0.19417499  0.00202027  0.17585281
 -0.05852572 -0.10123552  0.00718868  0.15048105 -0.14316884  0.0443819
 -0.10966902 -0.17715171 -0.16179349 -0.1472331   0.19628491  0.04278342
  0.1096334  -0.00555623  0.11646111 -0.19598874  0.02838463  0.17797007
 -0.1309509   0.14533113 -0.15158475 -0.08893233  0.07339252  0.20138367
 -0.162348   -0.14366192  0.13104017  0.09226209 -0.03517346  0.17419819
  0.04168023 -0.09441449  0.06834004 -0.19660807  0.08915788  0.13934338
 -0.07253199 -0.08487731  0.04529184  0.1150106  -0.00299763  0.17701975
  0.12293451 -0.04574248  0.15731206 -0.11207885  0.07532983  0.18211679
  0.18418451  0.03919104 -0.0648371   0.02634084 -0.06629615  0.17837059
 -0.00736752 -0.03294646]","[-0.10067174 -0.10761155  0.08148306 -0.08455688  0.01105561 -0.08435083
 -0.20043528 -0.01184258  0.08306992 -0.16245284 -0.01223981 -0.06033651
 -0.12694503 -0.02369827 -0.19071404 -0.03987993 -0.01082689  0.20132196
 -0.18969105 -0.11850568 -0.04461864  0.07303712  0.00437068 -0.06012257
  0.13610034  0.17575136  0.1226231  -0.02853861  0.13988679  0.1315226
  0.03570374 -0.19519707  0.19111653 -0.07121416  0.12244142  0.15395121
  0.14229156 -0.20407613  0.00160383 -0.13086092  0.04809276 -0.19748391
  0.09545563  0.01605095  0.17662275  0.11488409 -0.02859901 -0.15317801
  0.06111641  0.02198869 -0.08339839 -0.13807533 -0.04491984 -0.04811361
 -0.05404877 -0.2012817  -0.06885945  0.12470053 -0.16627018  0.02340125
 -0.02469804 -0.02295569  0.01291525 -0.19326193  0.1681153   0.16730131
 -0.08629622 -0.01882343 -0.19149407 -0.07978105 -0.19657082 -0.06081566
 -0.16960486  0.09808176  0.12305884  0.10170025 -0.16600826 -0.03414208
 -0.04548644  0.1015569  -0.11735213  0.07536645  0.07483941 -0.1505017
 -0.07610495 -0.14894759  0.03037342  0.15731516 -0.01584134  0.19751921
  0.06988981  0.16711131 -0.11205164 -0.10729336  0.06681191 -0.16770469
  0.17872232 -0.20396483 -0.07076054  0.15481717 -0.0197931   0.03253217
 -0.04676575 -0.0483738  -0.13213782  0.13316281 -0.12091999 -0.10588613
  0.04470888 -0.01015117 -0.01926505  0.01070765  0.18321049  0.17857321
  0.06476069  0.14380149 -0.1429496   0.12178406 -0.15375151 -0.17867498
 -0.02705643 -0.13797238  0.09071241 -0.04863615  0.01108491  0.12191117
 -0.01894466 -0.1692651 ]","[ 0.14788267  0.0533075  -0.10849552 -0.12390946  0.0123023   0.16033979
 -0.15513859 -0.00805525  0.10857819 -0.15106806  0.05385548  0.1384475
  0.1625363   0.17082559  0.01101396  0.19030357 -0.09657901 -0.04787858
 -0.03098     0.08978039  0.12943752 -0.02811953 -0.04532959  0.10081213
 -0.00848194 -0.20300112 -0.07948656  0.1387152   0.11219894 -0.18867313
  0.09404489  0.05678149  0.03602506  0.04591055  0.09190957  0.18693895
  0.09028701  0.1453587  -0.11389359 -0.19305729 -0.174022   -0.15164355
  0.14124926 -0.12594656  0.09569735  0.16321036  0.0064038   0.02734404
  0.16363785 -0.04727113  0.11180942 -0.0257807  -0.00510013  0.00654073
  0.08844975 -0.02414155  0.01241942  0.0153453   0.00364513  0.19875928
  0.05799084 -0.18307333 -0.06675651 -0.03495094 -0.10494498 -0.14848921
 -0.02435121  0.14692564 -0.03839804 -0.05926343 -0.01700626  0.19071613
 -0.01620046  0.12503449  0.01270809  0.1123419   0.05654573 -0.02801175
  0.17164518 -0.19504035  0.17237314  0.06644632  0.15305455  0.09935646
 -0.18934914 -0.12877056 -0.20406147  0.01375282 -0.06821844  0.07600762
  0.19392483 -0.17665885  0.05040062 -0.08369617 -0.13228916  0.19832847
 -0.11379339  0.14420475 -0.07843129 -0.09380576 -0.16773407  0.13923827
 -0.00788044 -0.10952357  0.16801666 -0.03002411 -0.18120006  0.18819093
 -0.18077312  0.02378362 -0.11022908  0.16258936 -0.02383355 -0.19441118
  0.03261138 -0.02724868  0.1371665   0.0865748   0.14643063 -0.06275278
  0.18523479  0.01485172 -0.05410604  0.05533626  0.17812779  0.13931133
  0.140095   -0.10217998]","[-0.10555313  0.11453399 -0.12504345 -0.07759371  0.0134014  -0.00098196
  0.07047071  0.14551777  0.1395742   0.12767978  0.18353374  0.05218006
 -0.07755625 -0.14034462 -0.09842027  0.0895599  -0.20169284  0.02209891
  0.14056256  0.00961599 -0.08963416  0.10516358  0.06086415 -0.195464
  0.10387199  0.11399743 -0.18000081 -0.13193361  0.00247785 -0.14158874
 -0.18066455 -0.10509387 -0.10257437 -0.01212583 -0.00306767 -0.01189409
  0.1942216  -0.12574502 -0.03560347 -0.11617536 -0.08734185  0.0538194
  0.0204238  -0.13089901  0.05192254  0.01193322  0.02218769  0.05859706
 -0.01357559  0.05194581 -0.01187361 -0.01948244 -0.06115015 -0.04289384
  0.1776415  -0.05998924 -0.13633612 -0.11339467  0.10975724 -0.18332631
  0.17652334 -0.09904819 -0.17346783  0.02910661 -0.14539713 -0.04208685
 -0.01678927 -0.15750459 -0.07493882  0.18494903  0.18219156  0.04124362
 -0.00887017  0.18604038 -0.11747402  0.1558934  -0.20257275  0.03137034
 -0.02408871 -0.02654418  0.10760597  0.19138308 -0.08880085 -0.19693829
 -0.05270492 -0.01592724 -0.10211584  0.03566366 -0.05714612  0.12123898
 -0.14434776  0.14462328 -0.10675137 -0.11841772  0.0545808  -0.04850063
 -0.04879316  0.01734039  0.12783323  0.0339539  -0.07801228 -0.06142087
 -0.11409778 -0.03721254 -0.16118371  0.04500625  0.02627511 -0.1843355
  0.16395324 -0.09250823  0.10433109  0.11319204 -0.1049873   0.10489345
  0.12144497  0.08827883 -0.11537293  0.16550954 -0.02848114 -0.1053187
 -0.01805645 -0.09902148  0.11331053 -0.10671429  0.07840121 -0.15065655
 -0.10522732  0.16404177]","[-8.63616702e-02 -8.80542640e-02  1.72018158e-01 -9.93645962e-02
 -7.14851693e-02 -1.72655049e-02  2.38896701e-01  6.58273080e-02
  2.33283094e-01 -1.79554576e-01 -1.50586983e-01  2.69848542e-02
 -3.84974014e-02 -2.13987348e-01  2.45066405e-01  7.39680826e-02
  1.97911752e-01  1.92024255e-01  7.97537528e-02 -1.24710817e-01
 -1.90144133e-01  3.77596337e-02 -1.47435473e-01 -1.09179918e-01
 -2.30832384e-02 -5.99246398e-02 -6.11624430e-02 -1.84341461e-01
  1.00454232e-01  5.24113423e-02  2.63831827e-01  1.58236641e-01
  1.36893304e-01 -5.86331998e-02 -1.03941247e-01  1.95762284e-01
  2.67173988e-01  1.98213387e-01 -1.39991643e-01 -8.51635397e-02
  7.58162554e-02 -1.74884274e-01 -7.03907336e-02 -1.22279201e-01
  6.34280024e-02  1.66765530e-01  2.37257324e-02  1.14838916e-01
  1.43312921e-01  2.32527086e-01  1.01431381e-01  1.56078462e-01
 -1.27546683e-01  1.24869869e-01 -7.20008450e-02  8.89706591e-02
 -5.82935865e-04 -3.89620050e-02  1.88278247e-01  4.03595676e-02
 -6.03019363e-02 -1.39324237e-01  1.29840318e-01 -7.46086093e-02
 -1.41184533e-01 -2.11922280e-01  1.64460339e-01  3.03680675e-02
  3.69211820e-02 -1.29277530e-01  2.38724658e-02  1.53441991e-01
 -1.07102408e-01 -1.67708564e-01 -1.35611406e-01  1.08967669e-02
 -5.49212936e-02  1.08928323e-01 -1.87564910e-01  2.45625950e-01
  1.22748359e-01 -1.59608339e-02  1.94426393e-01 -5.73435202e-02
 -5.97282398e-02 -1.30848563e-01 -1.46308664e-02 -2.09129230e-01
  6.95712612e-02 -9.75977606e-02  9.98524537e-03 -2.36966146e-01
 -1.95017888e-02  5.52866500e-02  2.59142966e-01  3.31447065e-02
  9.11219282e-02  1.46268321e-01  1.24726983e-01  7.97603189e-02
  1.46593817e-01  2.06906555e-01 -1.66359103e-01 -8.15050800e-05
  3.65784804e-02  3.63167326e-02  1.60672580e-01  1.34560706e-01
 -1.11976539e-01 -8.27735410e-02 -2.66837514e-02  2.29166784e-01
  5.20843664e-02  2.15192742e-01  1.79831092e-01  2.21292069e-01
  1.32845209e-01  1.56507166e-02 -2.19659659e-01 -1.69029734e-01
  8.17625128e-02 -6.03481262e-02  1.85129056e-01 -6.12152068e-02
 -1.37085008e-02 -1.03187796e-01  9.30337771e-02  3.02724189e-02]","[-0.19740658  0.05440298  0.18792305  0.07165321 -0.1869279   0.18263678
 -0.19283026 -0.19427477  0.08848385 -0.032669   -0.19381043  0.14458053
  0.04025403 -0.00428569 -0.18477869 -0.03346326 -0.14773037  0.03356601
 -0.14358688 -0.08849428  0.18388167  0.0791316  -0.12964056  0.13172074
 -0.16458987 -0.0995809  -0.09318638 -0.15177783  0.11331487 -0.05774369
  0.17113504  0.18658466 -0.06306908 -0.1948163   0.08023786  0.16328922
 -0.05710861 -0.02946394  0.16836828  0.07448872  0.07711357  0.01432694
  0.0852362   0.17039532  0.06708624  0.16409359 -0.15838912 -0.14517296
 -0.17599879 -0.11924447  0.13109721 -0.04528103  0.10074878 -0.15996829
  0.10581576 -0.13164732  0.05402637  0.15431922  0.19100465 -0.14002529
  0.09143955 -0.12191336  0.03515934  0.06270823  0.0403814  -0.19608448
  0.13597056  0.07562145  0.04987958  0.03478396  0.06200835  0.03877871
 -0.06126964 -0.09794658  0.01743029 -0.04355263  0.07389845 -0.09184663
  0.08956614 -0.10010611 -0.16430848 -0.19547514  0.10103612 -0.10526725
 -0.0909436   0.0989814   0.0947037   0.19678213  0.16181804  0.16890567
 -0.01985574  0.18080793 -0.10272589  0.16917279  0.04837193 -0.07545981
 -0.08611655 -0.07423289 -0.09285335 -0.16309492  0.09624851 -0.14239341
 -0.11293133  0.19532613  0.14264608 -0.14388045  0.16018291 -0.16874094
 -0.01609194  0.0780876  -0.00951761  0.14899006  0.08351729  0.16852336
  0.05694963 -0.07376576  0.07647181 -0.16745225 -0.13878622 -0.09596353
 -0.05623551  0.13622413  0.03873892 -0.07196548  0.16262475 -0.01347744
  0.1751865  -0.03379392]","[ 0.15260977  0.19842135  0.16099802  0.17186871  0.03205523 -0.08997039
 -0.11410643 -0.13590414  0.05151523 -0.09525308  0.12549077  0.06555229
  0.0036088  -0.0209964  -0.09248109 -0.02476036 -0.00227032 -0.00696324
 -0.19182068 -0.06121578  0.12660324  0.23015411 -0.14067437  0.0246966
 -0.0256924  -0.20381203  0.13178421  0.19324776 -0.03514257 -0.0616395
  0.09387148  0.00475383 -0.02282699 -0.2780635  -0.01524133 -0.04835205
  0.06274287 -0.10126403 -0.05805718 -0.27373857  0.09689003 -0.08845294
 -0.17195566 -0.11724602  0.01420771 -0.05310495 -0.14520009  0.03686279
 -0.0860725   0.03048383  0.03982034  0.09550094 -0.03373504 -0.07631081
 -0.17324149 -0.03011539  0.04774063 -0.19372022 -0.09771286 -0.05072735
 -0.04435341 -0.04562017  0.17613867 -0.12933475 -0.14643901  0.15974777
  0.12632632 -0.0393882  -0.09785026 -0.16962217 -0.07550072 -0.14830749
  0.19615564 -0.00885892 -0.18771731 -0.07777536 -0.18395103 -0.12330956
 -0.08863465  0.21799847  0.18161759  0.00706963  0.01228213  0.23128738
 -0.01391217 -0.16510296  0.20284505  0.19173405  0.20243527  0.06438453
 -0.1547189   0.28472124  0.06058898  0.14542116 -0.01780351  0.1191853
  0.0715136   0.04891231 -0.19419017 -0.04443873  0.02378364  0.15454322
 -0.49113784  0.20117471 -0.08575805  0.16303484 -0.00411071 -0.09120182
 -0.11103319  0.06191263  0.11609993 -0.07165599  0.11263347 -0.00082675
 -0.04995356  0.12897912  0.03060991  0.12887966 -0.21598702  0.13031871
 -0.17740439  0.21448892 -0.09399719  0.22623639 -0.07259701 -0.00446353
  0.16535186  0.20527409]"
