[ 0.01552267 -0.05326328  0.12758788  0.03976142  0.02086334],[ 6.62385963 -2.33931579 -5.31030786 -8.06275001 -6.77671488],[ 0.10561571  0.00198168 -0.07727108 -0.18082451 -0.16605886],[ 0.14662703 -0.17961639  0.0156674   0.03178982 -0.07626336],[-0.13573471 -0.08685784  0.16541987 -1.01174646  0.09543021],[-0.27912021  0.15039809  0.0086811  -0.27970954 -0.21353415],[-0.09521322  0.05809943  0.15757444  0.10897619  0.00232734],[ -0.37481562  -3.60331725 -16.5349906   13.60464682 -13.0370774 ],[ 0.06443318  0.04879272 -0.18178699 -0.13356193 -0.11950066],[-0.1021933   0.06049677  0.02189326 -0.19344246 -0.18681614],[-0.10134952  0.0278599   0.14942369  0.06187329  0.03867606],[0.12523777 0.11475173 0.1460686  0.08500371 0.02868582],[-0.91625312 -0.19681354  0.72775891 -0.97979509  0.50751802],[-0.12268236 -0.02979493 -0.02754441 -0.16369638  0.0365898 ],[-0.05422664 -0.0256806  -0.04782784  0.16669454 -0.03173793],[ 0.07089097  0.10044114  0.05497163  0.19258841 -0.20315201],[-1.94717516  2.09678373  0.49491669  0.08504677 -0.53360273],[-0.04234054  0.01504404 -0.14610435  0.11324118  0.19398989],[ 0.00614876  0.20421358  0.19724493 -0.12585402 -0.14173844],[-0.19096118 -0.11821075  0.02021773 -0.17240996  0.15848779],[ 0.15777847 -0.0727282   0.12392359  0.05962008 -0.06417835],[ 0.09654521 -0.00292699 -0.00413007 -0.08398146 -0.0980422 ],[-1.0237807  -3.2304954  -4.37826244 -2.81634122  2.56253756],[-0.0040244  -0.01413739  0.07311245 -0.10800116  0.00577722],[ 0.17107831  0.16794825 -0.01608671 -0.08446349  0.13853946],[ 0.01183805  0.18338634  0.09817282 -0.10724006  0.18750592],[ 0.1045694  -0.10054123  0.02825584  0.1930277  -0.00041685],[-0.08746288  0.20498815  0.10464691  0.03370634 -0.0777619 ],[-0.12560699 -0.18197868 -0.01599009 -0.08163916 -0.18020261],[-4.57415131  5.61779105 -1.21103506 -0.75614634  1.77306857],[-2.48508232 -0.36632748  1.76736344  1.63942167 -3.00231759],[ 0.19708722 -0.27290347 -0.2518828  -1.87660118  1.18165489],[ 0.02209421  0.17610307  0.15218035 -0.01425653 -0.19195101],[-0.11970833 -0.0952176   0.19179269 -0.17501884 -0.00442335],[ 0.58962566 -0.04327707 -0.46325329 -0.99614394 -0.97254232],[-0.68913215 -1.14495741 -1.02303934 -0.01545894  0.41927295],[ 0.03079588 -0.04000404 -0.05778099  0.00439662  0.00124951],[ 0.0194954   0.0226572  -0.16307977 -0.16438163 -0.10153369],[ 0.08640635 -0.00705626  0.1837089   0.14453853 -0.03414108],[-0.03690902  0.16780002  0.10768728  0.07912381  0.0759472 ],[ 0.34175443 -0.7301921   0.03796248 -1.63240103 -0.71233919],[ 0.06715358  0.02898117  0.05541737  0.11686768 -0.0721909 ],[-0.67903285 -2.71287576  0.78539265  0.07150986  0.07896401],[ 0.10279753 -0.96524819  0.42590578  0.77490353 -0.58609112],[-0.1955117   0.00584336 -0.19152598  0.01613358  0.17409816],[-0.0062863  -0.06707936  0.03586958  0.0599978   0.04248177],[ 0.18020513  0.61556749  0.16618133  2.19713739 -2.17620933],[ 0.12509232 -0.04446143  0.03755419  0.12490722 -0.01060184],[ 0.19222797 -0.00670752  0.08419188  0.15506766 -0.01472695],[ 0.15475031  0.07640321  0.1729154  -0.03486137 -0.03654009],[ 0.07530626 -0.06447754  0.18399137 -0.10978288 -0.19894592],[-0.02346887 -0.41948347  0.21885417 -0.24031681 -0.16027805],[ 0.00738991 -0.07321141  0.11902855  0.13116972  0.03464122],[-0.02140864 -0.18916374 -0.0756331  -0.02281972  0.09627743],[-1.43399908  1.63826885 -1.85035248  0.25720795 -0.19585796],[ 0.18213627  0.40185127 -0.90896465 -6.08622365  1.74029931],[-0.3295426  -0.19518364 -0.06170458  0.48553272 -0.16597725],[-0.11773465  0.00386969 -0.00030211 -0.17856587  0.10898014],[ 0.01426218 -0.59100685 -0.19513722  0.20767502  0.15427246],[0.01131618 0.13836729 0.0420514  0.06638809 0.02063591],[ 0.01421466  0.13188004 -0.08839916  0.21659031 -0.16941639],[ 0.14049263 -0.14269666  0.11746657 -0.1774745   0.12154141],[ 0.19025042  0.11879102  0.16448221 -0.14231895 -0.05643979],[-2.10579684  1.83984933 -2.89219151  2.99862736 -3.48871254],[-0.21678607  0.15702886  0.13092588  0.13643011 -0.2089098 ],[ 0.10417316  0.17255492  0.16388667  0.07507044 -0.03715086],[ 0.21037013 -0.13641621  0.05554736 -0.04288247  0.21061862],[-0.01210056  1.26887972 -0.89248464 -1.66781372  0.8586299 ],[ 0.08729818 -0.13863421 -0.26692382  0.10312251 -0.16886991],[ 0.14826636 -0.17061636  0.06918773  0.02479415  0.02381207],[0.17149693 0.01575156 0.20443836 0.09556027 0.06272952],[-0.17040109  0.17538517  0.00249195  0.15007475 -0.05651981],[-0.18800896 -0.15891938 -0.17092234 -0.1035188  -0.18110337],[ 0.1203101  -0.03473222  0.17725814  0.17614141 -0.19004806],[-0.00354321 -0.19936024  0.00584235 -0.01375201 -0.19343973],[-0.1666123  -0.03059625  0.09361222  0.03973028  0.17002435],[-1.88167223 -3.23581366 -2.34800158 -0.56367303  1.25308362],[-0.10404251  0.05304757 -0.07122468  0.12092228 -0.04495816],[-0.20540541  0.06790173  0.03316522 -0.10575195  0.1063651 ],[-0.26622217  0.6899207  -0.03642608 -2.50408844 -1.65248999],[ 0.61443014 -0.29718909 -2.14815395 -1.03508031  0.42300783],[-0.10726923  0.07730177 -0.00424845 -0.20460786  0.11132134],[-0.05731086  0.01034913  0.01781835  0.03050815  0.02785421],[ 0.02414806  0.09612964  0.11196922 -0.21516895  0.08111912],[ 0.17695043  0.02655498  0.18386574 -0.04065394  0.0307681 ],[-0.0284338  -0.08185562 -0.03341809  0.20954217  0.16446821],[-0.08219068 -0.0879129   0.02638932 -0.19196958  0.0768638 ],[-0.13289366  0.06547152  0.05326635 -0.15725584  0.19380047],[ 0.22540429 -0.45650146 -0.12668236 -0.09542801 -0.03362608],[-0.02363027  0.07987783  0.04646303  0.1913157   0.13550979],[-0.10833796 -0.20400952  0.14193946  0.55091175 -0.07344443],[ 0.03736841 -0.14393594 -0.17052635 -0.13174571 -0.12831543],[ 0.10947837 -0.19853068 -0.00264227 -0.11255102  0.08400347],[ 0.12434938  0.05074347 -0.04490906  0.16661225  0.14699312],[-0.1951234  -0.11340411  0.02487295 -0.21046842 -0.04770766],[ 1.03574338 -0.9462405  -0.59057068 -0.29348891 -0.90520915],[ 0.16958455 -0.07750187  0.13833597 -0.0478205   0.01082827],[-0.02236312 -0.20478451  0.16447776  0.17742293  0.07431134],[ 0.06265169  0.03369692 -0.03208372  0.10056559  0.16331929],[-0.01705     0.19741265  0.14528459 -0.10745712  0.01329186],[-0.10968043 -0.10730349 -0.09756759 -0.17730998  0.04319747],[ 1.51681365 -0.34270126 -0.05457872 -6.46421358 -4.27633628],[-0.15573055  0.14194793 -0.16377579 -0.18639228  0.07204304],[-0.00647923 -2.42417946  0.28346258 -2.00523624  0.90001667],[ 0.03349127 -0.1552954   0.02761934  0.20083273  0.12518944],[-5.13952172 -3.70035766 -7.09757294 -5.25953735  6.49532238],[-0.25496452  0.52992704 -0.11821525 -0.16604371 -0.24897138],[-0.20744844 -0.0761774  -0.17381646  0.05114772 -0.15724599],[ 0.43766676 -0.93227889 -0.86246146 -0.78495357  0.06432601],[-0.66009075 -1.21051388  0.82080177  0.61767087  0.29360874],[ 0.08837981  0.0884809   0.151054    0.01850047 -0.08577918],[-0.02743417 -0.50385818 -0.02998487 -0.56823827  0.31497371],[-0.12846162 -0.17949312 -0.2106604  -0.08605886 -0.15658675],[-0.19031565  0.01280003  0.14111582  0.03869247  0.06487611],[-0.0036261   0.00293563 -0.20853691 -0.14743607 -0.18074053],[-0.13461483  0.51317139 -0.34707278  0.14926047 -0.27052569],[-0.10560604 -0.03446474  0.19187788  0.13418493 -0.05752889],[-0.10558173  0.13303935  0.1177344   0.02941649  0.07796292],[-4.80824751 -4.77608774  4.88650259 -2.20896596 -0.75220732],[ 0.00531741  0.0883888   0.06744492  0.06073125 -0.07403293],[-0.39714913  0.0548467   0.21295015  0.54039806 -0.43529043],[ 0.70745859  0.98997982 -1.10491934  0.64046291 -0.71870116],[ -7.31108651  12.21843386  -8.18032738 -15.52885402  -4.18129937],[ 0.117184    0.10660458 -0.16395652  0.15645474  0.11963619],[ 0.12623458  0.16328383  0.07809862 -0.16508626 -0.02162474],[-0.03730041 -0.17954688  0.08754923 -0.16615418 -0.16377538],[-0.12630145  0.11931789 -0.08702991 -0.00491002  0.01942503],[-0.10061508 -0.00800511 -0.1673261   0.1910609  -0.11699547]
