"[ 0.14505288 -0.00285721 -0.04966408  0.00456708 -0.02685198  0.13347887
 -0.19192551  0.12055709 -0.08162045 -0.17573766  0.09711164  0.06876577
 -0.11349129 -0.20063007  0.15131188 -0.08941925  0.13812531 -0.02337209
 -0.02324166 -0.16997059 -0.09093766 -0.08473284  0.05753871  0.1908975
 -0.05158358 -0.19654479 -0.17114198  0.01383212 -0.19339327  0.20396657
  0.06666083  0.11933405  0.11484476 -0.12463528 -0.06115627 -0.19068267
 -0.1851387  -0.03151595  0.10136147 -0.08296834  0.0187531   0.13675022
  0.15016124  0.13030386 -0.14925623 -0.03939146 -0.0294305   0.17979866
 -0.1567272  -0.03094734 -0.06699923  0.10205264 -0.03526273 -0.14706102
 -0.15153358 -0.0362956   0.09438283 -0.09097749  0.0765044  -0.15881047
 -0.09541803  0.00541021  0.02891598  0.09074293 -0.06421021  0.05518387
  0.19482719  0.20102266 -0.1575721   0.12566611  0.18717644  0.05384613
 -0.02107538  0.03306789  0.14026799 -0.10609188 -0.06881321  0.13423359
 -0.03087782  0.09725581 -0.116907    0.15081594  0.04043755  0.1815662
  0.19212385 -0.04661012 -0.10100694  0.08984405 -0.01441829 -0.05504748
  0.08759947 -0.18336657  0.10764931 -0.07589641 -0.05525889  0.00167302
  0.12467759  0.00307393  0.08148084 -0.12790117  0.16772484 -0.0582066
  0.02764952  0.03727093  0.02694357  0.10193542  0.08245819  0.08578565
  0.02506351  0.02473317 -0.10278439 -0.01446659 -0.10139566 -0.18430303
  0.00591173 -0.15645144  0.1300813  -0.14054703 -0.19422811 -0.05624955
 -0.08833165 -0.17884139  0.02079428 -0.15528453  0.02655595 -0.2006644
 -0.08014527 -0.01840708]","[ 0.12574425 -0.10244748 -0.06802611 -0.07339133  0.14532198  0.01786774
  0.00977518 -0.12339389 -0.18033001  0.07723053 -0.10260918 -0.19863699
 -0.16799971  0.07846373 -0.15550086 -0.03822922  0.06169857  0.15706312
  0.12703972  0.02653183  0.14272162  0.18638982 -0.16730119  0.03186679
 -0.07453783  0.0875949   0.14490094  0.10265908  0.09552491  0.15057227
 -0.01788677  0.04727278 -0.02913549  0.14968451  0.06715564  0.10473182
 -0.19833462 -0.0389718  -0.02680999 -0.06326285  0.18340712 -0.04864499
 -0.17300004 -0.02381484 -0.16134106 -0.09590408 -0.19843613  0.13870724
 -0.08247405 -0.15719967  0.11819573  0.11805872  0.14165025  0.08961634
 -0.07336738  0.06450628 -0.15943174 -0.09588131 -0.18669243  0.05405811
  0.03694555 -0.13404442  0.19366489  0.08420845  0.19566978 -0.20368445
 -0.18263851  0.12436091  0.02811828  0.00541236 -0.02322759 -0.07549308
 -0.03408814  0.00024132  0.00570862 -0.06195027  0.18537932  0.08248774
 -0.14308329  0.03250878 -0.12338779  0.10311856 -0.13046921  0.03176076
 -0.06986014  0.08452311  0.16343417 -0.18614521  0.07046294 -0.00381443
 -0.14761188 -0.06625283  0.00267201  0.12791366 -0.16057956  0.0063484
  0.00726192 -0.02839968 -0.09625326  0.12805789 -0.04671137  0.1259487
 -0.16310079 -0.17718711  0.1492797  -0.11688753  0.18226466  0.03407716
  0.13855092  0.02124449 -0.10297899  0.16066786 -0.01309081  0.09892625
 -0.10065616  0.0723919   0.15071981 -0.02566005  0.02131522  0.14623881
 -0.17070801  0.12185341 -0.19195842 -0.05214847 -0.20210014 -0.03819934
 -0.14711895  0.09013177]","[-1.13466564e-01 -1.31609567e-01 -1.71434097e-01  1.64229229e-01
 -6.89871203e-02  1.36297564e-01  1.48595911e-02  1.21135123e-01
  1.65669663e-04  9.60386314e-02 -4.42614367e-03 -1.42344543e-01
  3.04576122e-02 -1.00596288e-01  2.26068426e-02 -2.03541545e-02
  8.03760993e-02  3.74886806e-02  8.49633142e-03  1.50541805e-01
 -1.91202658e-01 -1.17232853e-01  3.53210037e-02  1.35445792e-01
  5.23248229e-02 -9.91595842e-02 -1.53160403e-02  1.13676782e-01
 -7.32865526e-02 -1.88196267e-01  2.24682518e-02  1.69680286e-01
 -2.01841180e-01 -1.36182283e-01 -8.80970752e-02  1.27662169e-01
  1.47379032e-01 -1.09959749e-01 -1.06142288e-01  4.67189724e-02
 -5.08838226e-04 -5.51965941e-02  1.52462338e-01 -1.73604960e-01
  2.59730505e-02 -6.81610885e-03 -6.92328750e-02 -2.54218486e-02
  3.79431242e-02  3.20921932e-02  2.00440930e-01  1.98628472e-01
  1.93630055e-01 -8.33293627e-02 -6.18402502e-03  1.65013102e-01
 -3.24043398e-02 -1.29130779e-01 -1.47192071e-01 -1.49884619e-01
 -1.06745209e-01  8.33545395e-02 -1.67789390e-01 -9.42533388e-02
  1.70122445e-01 -1.27510956e-01  1.12269852e-01 -1.87243149e-03
  1.62020714e-01  8.79945640e-02 -3.55236542e-02 -1.52492677e-01
 -2.65955003e-02 -1.91862914e-01 -2.03114150e-01 -8.47234715e-02
 -1.45995870e-01  7.74219015e-02  7.98991273e-02  1.63700578e-01
 -6.93305853e-02 -3.45497452e-02  8.49656905e-02  7.92722054e-02
 -2.14717720e-02 -2.02227893e-01  1.52489792e-02 -2.02653723e-01
  9.50107956e-02  1.24515783e-01 -1.53637299e-01  2.41134869e-02
 -7.02780609e-02  1.23935372e-01  8.64407383e-03  7.51921709e-02
  1.77875173e-01  1.09094913e-01 -1.77437881e-01 -9.10248677e-02
  6.64157104e-02 -1.67344282e-01 -4.39997332e-02  1.88536762e-01
  1.37930983e-01 -1.21964847e-01  1.46593944e-01 -1.78524955e-01
  1.45391649e-01 -3.07970161e-02  1.04062576e-01 -7.80199714e-02
  3.59290361e-02  1.24908540e-02 -1.31105421e-01  1.37724668e-01
  1.16205383e-01 -9.77774375e-02 -1.60471516e-01  1.33553178e-01
 -8.40493543e-02 -1.74458021e-01 -9.18798035e-02 -3.34850310e-03
 -1.39378349e-01 -1.29891831e-02  2.74209001e-02 -3.12671901e-02]","[ 9.89516656e-01  3.35373417e-01 -1.04872835e-01 -2.01065027e-01
 -2.30786982e-02 -2.90612079e-01  2.68021074e-01 -3.81605680e-02
 -1.40758600e-01 -2.46659769e-02  2.90797641e-01 -2.76534815e-01
 -4.67718603e-01 -1.00703667e+00 -3.95863489e+00  4.02190663e-02
 -1.60796359e-01  8.33748714e-01 -1.84708905e-02 -1.94726560e-01
  7.49395731e-03 -9.71088344e-03  1.18835416e-01  7.59186335e-02
 -7.09861060e-02 -9.70532505e-02 -3.06152193e-01  6.33696270e-01
  4.63389518e-01 -5.30395187e-01  3.68341000e-01 -5.91564480e-01
  5.53836647e-01 -1.11619916e-01 -1.30901372e-01  5.67863206e-01
 -1.29673260e-01 -9.57338324e-02 -2.11645612e+00 -2.03074135e-01
  1.88726331e-01  1.21898149e-01  1.56885544e-01 -2.38514642e-01
 -1.26749344e+00 -1.88312440e-01  2.63382094e-02 -6.81200062e-02
 -3.55235747e-01  8.00120262e-01  1.62547713e-01 -1.86459488e-01
 -1.15993972e-01  7.02586841e-02  1.23662188e-01 -3.25486263e-01
  6.86029071e-02  1.01262099e+00  2.62916532e-01  3.40080015e-02
 -6.56544945e-02 -1.18313177e+00  4.68388078e-01  4.86948125e-01
  2.01165195e-01  4.54136906e-01 -3.58518824e-01  3.39810445e-01
 -1.26611977e-01 -8.47598311e-02 -6.74095602e-01  2.50729697e-01
 -6.80456310e-02  2.30812814e-01  1.65772913e-01 -9.58472106e-02
 -2.40032378e-01  1.61961928e-02 -2.11237275e-01 -1.91883441e-01
  2.03329428e-01  3.57598427e-01 -1.95755056e-01 -2.15616041e-01
  2.08466496e-01 -7.66900161e-02 -1.63375350e-02 -5.55073060e-01
  6.05874644e-01 -5.30162022e-01  8.78864724e-01  3.98856929e-01
 -8.68788981e-02 -1.56119252e-01  3.84078227e-01 -1.72286009e-01
  6.12630497e-01  2.95398580e-01 -1.28598650e-01  4.87434159e-04
 -1.34654791e-02  3.44838730e-01  6.76916618e-01 -5.57130591e-02
 -2.41682331e-01  5.23200977e-01  5.80197423e-01  6.99731240e-01
 -1.75426198e-02 -8.34762659e-02  3.81239405e-01  2.99317925e-01
 -2.29399662e-01 -1.52455598e-01  2.57234375e-01 -5.62112702e-01
 -3.22708665e-02  7.38225822e-01  2.44544676e-01 -1.11486463e-01
 -4.01914311e-01  5.73094770e-01  3.26694116e-01  4.31547626e-01
 -2.40866829e-01 -1.73660367e-02  6.33189371e-02 -6.43744327e-02]","[ 0.10750846 -0.03606818  0.20316838 -0.19974144  0.01518317  0.11420049
 -0.03897794 -0.08357615 -0.10532856 -0.1317068   0.12367975 -0.08585064
 -0.09288005 -0.17542368 -0.08815382  0.00090671  0.1419526   0.02138561
 -0.08645526  0.10083847  0.16345149  0.02272001  0.00875849 -0.04238249
  0.03230989  0.09857966  0.00539075 -0.18061167 -0.08340117  0.13733895
 -0.08871905  0.14571432  0.12012099 -0.07860966 -0.10433074  0.05766586
 -0.01046785 -0.17403867 -0.05488213  0.18604314  0.203406    0.12763093
  0.01459404  0.13391922  0.01650763 -0.158752   -0.00910113 -0.16003289
  0.13941232  0.03525196 -0.06571873  0.13987633  0.04012885  0.00256496
 -0.14078626 -0.01372977  0.13845225  0.0095229  -0.03416479  0.20176156
  0.06865884  0.0583434  -0.01026411 -0.1534108  -0.04961972 -0.07471153
  0.07697756 -0.20351939 -0.18434258  0.1464779  -0.04966059  0.12750065
 -0.16911713  0.13675835  0.03256779 -0.18254002 -0.11793968  0.00077712
 -0.17439673 -0.08940315  0.12057148  0.12125563 -0.14910551 -0.17668851
 -0.17803317  0.11966486  0.1661931  -0.00285504  0.06973945  0.17100098
 -0.16698206  0.2002389   0.10825055  0.13273179 -0.20247446 -0.17116981
 -0.06662921  0.1766996   0.11360263 -0.18634149 -0.09557385 -0.18480562
  0.00287905  0.07890416 -0.15221607  0.19317493  0.01978997 -0.02857928
  0.07810771 -0.02676512 -0.01271782 -0.0144053   0.19818225  0.16205446
  0.03995066 -0.17538545  0.04218139  0.17614105 -0.04385751 -0.19319525
 -0.0708453   0.05922488 -0.09642386 -0.01445294 -0.17434183  0.07095003
  0.00759843  0.09569188]","[-1.00878663e+00 -1.69949191e-01  4.57715511e-03  9.81101889e-03
 -3.09091104e-01  3.83176916e-02 -1.24648935e+00 -6.01220912e-01
 -3.71214043e-01 -6.16064994e-01  3.70491360e-02 -2.73651539e-02
 -1.88444966e-01 -2.92094823e-02  3.63296033e-01 -2.25458484e-01
 -1.64485762e-01 -6.15643260e-01 -1.64680290e-01 -4.35297849e-03
 -2.38501713e-01 -1.76463450e-01 -1.40770161e+00 -1.85812928e-01
 -5.78809942e-03 -1.15309827e-02  4.75294154e-01 -2.92012580e-01
 -5.50592482e-01  4.50411612e-02 -7.99055099e-03  2.89442449e-01
 -1.20345343e-01 -2.28120574e-02 -1.72125608e-01  2.47328684e-01
 -1.73228985e-01  1.41774880e-01  2.40171279e-01 -1.17109834e-01
  2.00759054e-01 -5.14739157e-01  5.37594672e-02 -6.82756374e-02
 -1.31219214e-02 -6.09215138e-02  3.41509203e-01  2.60397856e-01
  2.18544113e-01  4.53691365e-01 -2.07220601e-01 -1.78090976e-01
  2.43465875e-01  1.38234459e-01  8.09575250e-02  1.42450836e-02
  1.17468253e-01 -2.43597153e+00  2.73598968e-01  6.02527569e-02
 -6.98919275e-02  2.17797560e-01  6.52092762e-01 -4.09896372e-01
  3.67897074e-01 -2.15824420e-01 -8.35921406e-02 -1.42468501e-01
 -1.85541469e-01 -4.31726729e-02 -1.61900904e-01  7.60182715e-02
 -4.27286937e-01 -2.45192618e-01 -2.32090925e-01 -7.96352378e-02
 -2.96165519e-01 -1.67171203e-01  2.85312422e-02 -5.85264090e-03
  4.04512891e-02 -6.27425399e-04 -1.97785351e-01 -2.05734631e-02
  3.03069892e-01 -2.71018790e-01 -1.86269555e-01 -1.23431274e+00
 -3.41846898e-01 -7.74707619e-01 -1.35154697e-01  2.46339677e-01
  6.12843228e-01 -1.87089519e-01 -4.08078669e-01 -1.08489738e-01
  1.91268747e-01  6.36427158e-02  4.54858379e-02 -1.71262921e-02
 -1.12636010e-01 -2.08764691e-02  1.16720374e-01 -1.25145280e-01
  1.67404482e-01  1.52579195e-01 -1.07180829e+00  3.14004267e-01
  6.79951416e-01 -1.76258651e-01 -1.28921205e-02  1.38124166e-01
 -1.90016793e-01 -1.04894250e-01 -1.42494683e-01  4.03995963e-02
 -6.77556955e-02 -3.79793980e-01  2.78723092e-02 -2.10104045e-01
 -4.16876310e-01  3.66246804e-01 -3.29127369e-02  2.15343907e-02
 -2.25332410e-01  1.13093540e-02  9.64647071e-02 -1.72661634e-01]","[ 0.13270407  0.16951696 -0.18983007 -0.19964973 -0.03440104  0.01183113
  0.05340531  0.05056101  0.08969455  0.16751137  0.14979328  0.03941823
 -0.1793558  -0.07662736  0.15446332  0.16192084  0.06694924  0.16215613
  0.10033475  0.16273248  0.02467189  0.0065253   0.11101731 -0.1081291
  0.08275588  0.00298052  0.10322211 -0.04929144  0.1519597   0.09855877
  0.08666992 -0.09870135 -0.13589648 -0.11686621 -0.12341532 -0.10700048
 -0.13047376  0.03872236  0.00550452 -0.09551579  0.09334138  0.03142006
 -0.15667423  0.11298647 -0.14778983  0.0680369  -0.01829887 -0.12538877
  0.14442036  0.1744088  -0.17112612  0.17037009  0.04396774  0.0323972
  0.03325926  0.08906939 -0.01019695  0.06208006  0.1515824   0.02915383
  0.13906851 -0.01253106  0.04443975  0.10411199 -0.06686494  0.16239638
 -0.06267171 -0.02767945  0.00367704 -0.16801132  0.04742944  0.15965809
 -0.14812829 -0.18069204 -0.16309165  0.15869526  0.00862077 -0.1841444
 -0.11752978 -0.1774683  -0.16620714  0.15772717 -0.18156115 -0.19402908
  0.03161457 -0.1962841  -0.08312683 -0.05728784 -0.196426   -0.01579409
 -0.09314684  0.11186814  0.05547115 -0.01562699  0.03872213 -0.139103
  0.16178358  0.02594306  0.13712836 -0.10118248  0.11276702 -0.17856325
  0.07518749  0.14069441  0.05253553  0.05856215 -0.17789236 -0.13732863
  0.20902582  0.19036472 -0.20683395 -0.14282561 -0.11442093  0.00178864
  0.10344914 -0.17632086  0.16336505  0.12933681  0.06610153 -0.08847899
 -0.08320156 -0.09167996  0.12148288  0.14276994  0.13803669  0.02110256
  0.12450085  0.02375968]","[ 1.26001654e-01 -1.24877747e-01 -1.87523557e-01  1.93699606e-02
 -7.49675952e-02  6.86710428e-03  7.61214841e-03 -6.33336920e-03
  2.43516549e-02 -1.12246111e-01  1.47813325e-01  7.76131633e-02
  1.26130855e-02  6.32288879e-02 -1.81325616e-01  1.54665303e-01
  1.50260324e-01  1.46687930e-01 -8.28842910e-02 -1.28047934e-04
  1.21824876e-01  6.52416338e-02 -2.32030026e-02  9.57721884e-02
  1.88864304e-01 -2.48338622e-02 -1.66702845e-02 -1.21087010e-01
  5.02930154e-02  2.08433489e-01 -1.86164605e-01 -1.79405152e-01
  1.72611392e-01 -1.52076143e-01 -3.39324838e-02 -1.97416490e-01
 -4.26895772e-02  1.73352402e-01  1.23724795e-01  1.80167834e-01
  1.24002976e-01 -1.66419396e-01  9.63712732e-02  4.19606766e-02
 -8.40649635e-02 -1.70627943e-01 -2.08825304e-01  4.47239637e-02
 -9.54200508e-02 -1.65339234e-01  9.25743360e-02  1.33211411e-02
  5.41359424e-02 -1.90256830e-01  7.11388212e-02  1.66451395e-01
 -1.50574766e-01 -1.19815813e-01  1.44174727e-01  9.82960748e-02
  1.05864244e-01  1.85323845e-01 -1.50498999e-02 -1.85893512e-01
 -9.24036219e-02 -9.54066457e-02 -8.34891548e-02 -9.56608728e-02
 -6.61094570e-02  1.22339618e-01  2.17148569e-02 -2.71051119e-02
 -1.55554855e-02 -1.84966866e-01  1.30982140e-01 -1.09398537e-03
 -1.26393096e-01 -1.46675667e-01  9.31627319e-02 -3.67258923e-02
 -1.18533233e-01  1.07110072e-01 -1.70700470e-02  1.36160350e-01
  1.62803267e-01  1.70850400e-02  3.81403400e-03 -6.29194886e-02
 -1.21947286e-01 -5.07833447e-03 -1.20647086e-01 -1.63366356e-01
  1.01504795e-01  1.28023070e-01 -1.39798909e-01  1.16564796e-01
  6.97458787e-02 -1.66103312e-01  1.53698707e-01  1.74786894e-01
 -5.63661277e-03 -2.05606813e-01 -1.49222025e-02  1.64989262e-02
 -1.53730686e-01 -2.10878656e-01  4.03525691e-02  5.58276065e-02
  2.03152149e-01 -1.37569292e-01  1.41297561e-01  1.40921571e-01
 -1.37740492e-01 -7.28562792e-02 -4.96946100e-02  1.42927174e-01
  1.39642631e-01 -7.66585557e-02  7.47069950e-02  3.80414410e-02
 -1.11126907e-01 -1.53415561e-01  2.74774252e-02  1.63762780e-01
  3.28270579e-02 -5.70738817e-02 -8.57008468e-02  1.61582017e-02]","[ 0.07578968  0.04236745 -0.15393755 -0.00756342 -0.14029557  0.02736419
  0.05372013  0.16607839  0.18604743  0.08070687  0.15184434 -0.06276816
 -0.08407955 -0.10778749 -0.14945643  0.09263228 -0.1011782   0.07113385
 -0.14195175  0.04495456  0.14165405 -0.07265525 -0.20064891  0.00725347
 -0.17496278  0.05498474  0.09825826 -0.11968097  0.10871438  0.14420137
  0.08829542  0.01105946 -0.07912275 -0.19663071 -0.00947447 -0.00152256
 -0.17034369  0.00131396 -0.03126265 -0.14939852  0.00719748  0.12904997
 -0.09526532 -0.19145162 -0.13997784  0.11544179  0.08405971 -0.03725559
 -0.12035396 -0.09097117  0.00399831 -0.15443165  0.01477882  0.19842947
 -0.08821008  0.13897511 -0.14826628 -0.14795088 -0.05890381  0.09456001
  0.09562448  0.07770744 -0.12017658 -0.11934282 -0.02472427  0.07122713
 -0.15167443 -0.00864946 -0.06620803  0.07579661  0.13971496 -0.00812
  0.10832346 -0.16486862 -0.15950467 -0.18619622  0.00352877 -0.0112608
 -0.1284354  -0.18913195  0.18251326 -0.02219366  0.12273357  0.00671659
  0.07680504  0.03178102 -0.08480599 -0.02089579  0.02681353 -0.13498558
 -0.02140533 -0.07227952  0.07172969  0.17973786  0.03117417 -0.1030714
 -0.05364163  0.00806901  0.08718673  0.1932095  -0.17637026 -0.13614172
 -0.10446473  0.12443232  0.04691195 -0.13335608 -0.1908958   0.12123287
  0.16052711 -0.13639724  0.09423359  0.07308333  0.10684501  0.12943731
 -0.17420353  0.18762132 -0.05084111 -0.1490148   0.1805849   0.13204187
 -0.14924464 -0.05997874 -0.12719933  0.17278564  0.08654345  0.0156417
 -0.01727836 -0.16287545]","[ 8.18871442e-02  6.77729070e-02  1.60297262e-01 -1.78035307e-01
  2.53848087e-02 -1.41524328e-01 -1.80267043e-01 -1.61364161e-01
  2.23082080e-03  1.61811593e-01 -1.46532869e-01 -6.27183044e-02
  1.16468549e-01 -1.23109001e-01 -9.77002746e-02  1.88074651e-01
 -1.38803813e-01  2.94402717e-02  4.44787135e-02 -1.14921620e-01
 -1.18130098e-01  2.27321242e-02 -1.83754076e-01 -7.31484642e-02
 -5.88507010e-02  3.63864583e-02  1.25269941e-01 -1.99493979e-01
  1.59772418e-01  1.66626958e-01 -6.31238447e-02  6.43879470e-02
 -5.67037011e-02 -1.48342163e-01 -1.48086102e-01 -6.74793471e-02
 -1.67559046e-01  1.85362857e-01 -1.20977068e-02  3.88323367e-02
 -1.99530489e-01  7.62183454e-02 -1.74820542e-01  7.05572785e-02
 -1.77873980e-01  1.55314928e-01  4.32716008e-02 -1.54033806e-02
 -1.99698979e-01  1.68228746e-01  8.00309583e-02  7.76899872e-02
 -1.88516952e-01 -1.83541926e-01  1.71224689e-01 -3.46101212e-02
 -1.84242686e-01  1.99905916e-01 -8.51872809e-03 -1.50502498e-01
  9.29263449e-02  2.44383948e-02 -3.32781973e-02 -1.25126104e-01
 -9.76024381e-02  1.44762250e-01  8.92967746e-02  9.34790401e-02
 -1.63130592e-01 -1.78632591e-01 -4.35741684e-02  1.43900600e-01
 -7.51743550e-02  6.93562785e-02  9.26438048e-02  1.73239133e-01
 -4.11291124e-02  9.27256531e-02 -1.82301392e-02  1.45340021e-01
  8.26690725e-02  9.61649497e-02 -1.57472632e-02  5.77583696e-02
  2.24210549e-02 -5.86810675e-02  1.73888996e-01 -1.82537800e-01
  9.51082692e-02 -7.96427514e-02 -4.32042929e-02 -7.68756224e-02
 -3.97056478e-02 -6.51830033e-02 -7.83498621e-02 -1.05712852e-01
  1.76192785e-01 -4.03480329e-02  1.23949602e-01  6.91935805e-02
 -4.36481719e-02 -1.72907997e-01 -1.62218597e-01  7.94270055e-02
 -1.74468867e-04  1.21828457e-01 -1.78671818e-01 -1.36231914e-01
 -1.80019712e-01 -1.25767844e-02  4.22704029e-02  2.94029636e-02
  1.82638932e-01 -5.37982334e-02  5.30246810e-02 -9.15822086e-02
  5.18522822e-02 -1.26529810e-01 -8.79354918e-03  1.57160513e-01
  1.72168578e-02  8.43690314e-02 -9.92230208e-04  3.80162870e-02
  9.90475908e-02  1.27111260e-01  9.68134669e-02 -1.03926065e-01]","[ 0.17529527 -0.02690138 -0.01758188  0.08104238 -0.02919578  0.0066336
 -0.02862335  0.17883902 -0.11267594  0.07968859  0.12651642 -0.08121095
 -0.18218861  0.05252703 -0.00709941 -0.07363467  0.0076083   0.11973555
 -0.19556904  0.15576874 -0.14588222 -0.12806422  0.12569782  0.17142438
  0.1213697  -0.0301784   0.06745145  0.04332029  0.09438298 -0.13053784
 -0.03440236 -0.11152044  0.13507806  0.01716919 -0.17016982 -0.09898897
  0.09888375 -0.01841613  0.17866946  0.08776901 -0.16906501  0.15017684
 -0.01700406 -0.14583085 -0.07427586 -0.14233968 -0.13996689  0.04067596
  0.10618349 -0.08251434  0.07546658 -0.07311766 -0.18399882  0.00862579
 -0.14252486 -0.1358238   0.19549596 -0.20115722  0.06386634 -0.0736751
 -0.18849513 -0.18088348 -0.03931146 -0.07696566  0.07796982  0.15793989
  0.00206028 -0.09992491  0.03319146  0.13036944 -0.16370001 -0.05421941
 -0.20096048 -0.07773396  0.15609805  0.18162592  0.14874463 -0.11634122
  0.1796196  -0.03177511  0.01160966  0.02584518  0.11041457  0.16865417
  0.01707254  0.18705179  0.08355773 -0.09218825 -0.06877852 -0.20278079
 -0.18243799 -0.16581148 -0.0198006   0.17788172  0.18735226 -0.02746705
  0.04160389 -0.19546119 -0.13300955  0.02408492 -0.18222299  0.16307469
 -0.10562805  0.03451531  0.11747202 -0.1853336   0.14084141  0.12081434
 -0.05812513 -0.120999    0.06519956  0.03819243 -0.18521742  0.11671123
 -0.10183481 -0.14677236  0.00792028  0.19793746  0.09452588  0.14060832
  0.06589166  0.2008368   0.08614716  0.07266113 -0.02782771  0.01156748
  0.14978244  0.08694459]","[-1.87403398e-01  7.18920679e-01  8.77287348e-03 -1.47010546e-01
  4.16953426e-01 -2.53768779e-01  4.75228702e-01  5.74822949e-01
  7.58778583e-01 -4.57412274e-02  3.63267810e-02  5.28872959e-02
  1.02090249e+00  5.75578014e-01 -3.77980918e-01 -5.42054688e-02
 -1.59068527e-01  2.74601842e-01 -1.23041709e-01 -2.37219231e-02
 -1.94264597e-01 -9.79850967e-02  4.25079356e-01  2.08306887e-01
 -1.09203057e-01 -9.58370571e-03  1.23288626e-01  1.10363237e-01
  3.53664783e-01  8.26743116e-01 -1.54680037e-01  4.85909761e-01
  1.34044917e-01  3.30479804e-02  1.67682491e-02 -4.11127129e+00
 -1.24043666e-01  6.73012024e-01 -8.05458854e-01 -7.52444233e-02
  4.61374051e-01  6.71726857e-01 -2.89034415e-01  9.22921316e-02
 -1.52553300e-01 -5.78328042e-02 -1.41907391e-01 -2.21766425e-01
  9.98894186e-01 -9.29883684e-01 -2.48909278e-01 -7.03858949e-02
  3.52428128e-01  2.54022910e-01  5.38576374e-01 -4.31564241e-02
  1.30800506e-01  7.52921690e-01 -3.29853095e-01  1.14215088e-01
 -2.24577761e-03  1.93031767e-01 -7.19206636e-01  1.26387112e-01
 -3.20338349e-01  5.48986797e-01  2.51030062e-01 -6.06497366e-01
 -3.86408980e-02  4.06817284e-02  2.61509687e-01  4.03443438e-01
  1.36659867e-01  1.38227510e+00 -4.21584749e-02  2.09448505e-02
 -3.90504757e-02 -1.91906217e-01 -2.08577498e-02 -1.41982834e-01
  2.48799219e-01  4.57727713e-02 -2.02208589e-01  1.17735112e-02
 -3.24871744e-01  1.66249207e-01 -9.25721811e-02  1.09450762e+00
  5.64032521e-01  1.98724284e-02 -4.96320520e-01 -5.70731858e-01
 -4.95141768e-01  6.44114740e-03  7.04855906e-01 -4.31595125e-03
 -3.92292223e-01  1.88592970e-01 -5.99491979e-01  4.04155023e-02
 -1.59276427e-03  1.54496697e-01 -5.25830293e-01  2.00772099e+00
  1.17075715e+00  2.78366116e-02 -5.57471371e-02 -1.25253707e+00
 -2.70543592e+00 -1.04076109e-01  2.06331140e-02 -3.40251270e-01
 -5.04810880e-02 -5.73959029e-02  3.44041991e-01  5.59770218e-01
 -1.21137414e-01 -3.97506013e-01  2.51725407e-01 -2.77883820e-02
  9.40818133e-01 -1.42721255e+00 -1.68777287e-01  4.94706780e-01
  1.11868728e-02 -1.11617677e-01  2.54296620e-01 -2.13403163e-01]","[-0.19579187 -0.06400911 -0.16390907 -0.0911636   0.11079401  0.13175561
  0.07036159  0.10153727  0.1699335  -0.06313354 -0.20770446  0.09416486
 -0.13396508  0.18597511 -0.17816565 -0.10707648  0.03074453 -0.0358957
 -0.08622925  0.15910974 -0.05800843  0.01264574 -0.1705904  -0.08857281
 -0.12150148  0.07519293  0.13023841 -0.02428071  0.05372549  0.09752427
  0.07060535 -0.0897481  -0.16210532 -0.17379001 -0.13600771  0.11107855
  0.1013912   0.1668982  -0.02740676 -0.06599526  0.02117249 -0.20200511
 -0.2020322   0.19496203  0.08860295  0.05660025  0.06654027  0.03248542
  0.05320788 -0.09866122  0.19786463 -0.08698664 -0.04345964 -0.15653725
  0.09946613  0.06471353  0.02690318  0.1864459  -0.18302691 -0.06728208
  0.16980561  0.18604962 -0.06623485  0.0182483  -0.00168965 -0.039303
 -0.10093844 -0.06568411 -0.07247878 -0.03094729  0.07894165 -0.19674507
 -0.15066049 -0.01235     0.03523114 -0.07140015 -0.08144086  0.04447316
  0.02153666  0.0029904  -0.01673018 -0.11274628  0.02692239  0.13229489
  0.03986149 -0.02642607  0.15219388  0.03300175  0.05466091 -0.20575864
 -0.028943    0.133524    0.13123121 -0.07057842 -0.10410228  0.02076247
 -0.18182355 -0.13032496 -0.09191543  0.17985418 -0.01742106  0.02133724
 -0.17757867  0.10194833  0.05396004  0.10481475  0.04878597  0.13371196
 -0.13572126  0.07576125 -0.04998095  0.05114992 -0.02400677 -0.0396343
  0.14967571  0.09693344  0.18035633  0.19164198 -0.05403268 -0.00895125
 -0.1382801  -0.00906727 -0.20324892  0.01534783  0.04601368  0.1724833
  0.05820985 -0.04788908]","[ 0.16166939 -0.09534042  0.16246241 -0.10570773  0.18820614 -0.11875861
 -0.11805739 -0.07837052 -0.04680497 -0.17815585  0.04182875 -0.17672932
 -0.18701527 -0.18813938 -0.0769052  -0.18010712  0.04024366  0.18241749
  0.18172259  0.16021012  0.12180095 -0.1837078  -0.1591291  -0.18729729
 -0.19258933  0.10219444  0.03697981  0.06314458  0.18410625 -0.02045636
 -0.03709157  0.0193034  -0.01643861  0.11204252  0.05745792 -0.13714539
  0.05917618 -0.14840303 -0.02403534 -0.10591903 -0.08317749 -0.12123958
  0.12803144  0.06893401 -0.03187239  0.16269304  0.02661508  0.00443494
  0.18578248 -0.09007762  0.17462197 -0.03037625  0.08045642 -0.1615154
 -0.12683814  0.18634899 -0.15483431  0.1015819   0.1788604  -0.17335289
  0.0907223   0.15554688 -0.16486163  0.15362611 -0.17131842 -0.10058726
 -0.15592491 -0.15191092  0.03627731  0.16761208 -0.1972812   0.06215004
  0.12380674  0.14384313  0.19751033 -0.05999989  0.05421743 -0.00899822
  0.15918064 -0.14254337 -0.0050011  -0.10118038  0.09627435  0.06308745
  0.08014733  0.10612721  0.01844254 -0.20045125 -0.03648909  0.16282114
  0.16882787 -0.13615118  0.10929205  0.11370474  0.17391118  0.03117897
  0.09112019 -0.06225505  0.02496352  0.01850863  0.04870618 -0.06136601
  0.11706295 -0.05982321  0.06853643  0.15925577 -0.06706762  0.15824258
  0.01232738  0.06306705  0.00144153  0.11963984  0.20166049  0.15727454
 -0.11384639  0.16217119  0.04682443  0.01596008 -0.11057878  0.09388716
 -0.14896775 -0.0192944   0.087998    0.0882196  -0.11114047  0.0313408
 -0.18230427  0.1356387 ]","[-0.06578548 -0.16513646  0.10530361  0.15806488 -0.01594717 -0.16683088
 -0.18562549 -0.1686148   0.16926583  0.17533977  0.10976672 -0.15242869
  0.1572023  -0.09644682 -0.00328055 -0.00047007  0.08240681  0.16359192
  0.16950651  0.00089402 -0.14294947 -0.02702173  0.06089282 -0.1544199
  0.11573329  0.10201991  0.0968625   0.07054491  0.14634915 -0.06719458
  0.02533135 -0.03751491 -0.14706158 -0.07989465  0.16853042  0.00123519
  0.11267676  0.10705195  0.10449239  0.08254786 -0.06546638  0.08769445
  0.18249221 -0.18078285  0.11678021  0.19856027  0.18062576  0.17630316
 -0.02099423 -0.13783894 -0.0549759  -0.09522582 -0.15357838 -0.11140312
  0.17788493  0.04032221  0.0541162   0.1543512  -0.18185863 -0.1009138
 -0.1092965  -0.01342791  0.08849357 -0.13483947 -0.02602455 -0.1542006
 -0.05378768 -0.05601663 -0.18598705 -0.00592335  0.02187234 -0.12664323
  0.03501822 -0.07983808  0.06098621 -0.06033133 -0.00635075 -0.02163031
  0.07460713  0.16887054  0.04238033 -0.03887274 -0.07995549 -0.12550974
 -0.07958957  0.06186374  0.00597517  0.1406236   0.11598454  0.16088602
 -0.12903104 -0.00397509 -0.05223041  0.07102717 -0.14036767 -0.1222975
  0.16442759  0.03261893 -0.12345837 -0.07514474  0.06668271 -0.05361922
 -0.19067863 -0.06725605  0.04509741 -0.17135265 -0.12664179  0.18540411
  0.06995269 -0.0948075   0.02110144  0.20102409  0.20396664  0.18501789
  0.1758106  -0.01822155 -0.02185926 -0.07605992 -0.16104763 -0.052239
 -0.20091448  0.04659543  0.08006972  0.0876558   0.09981471  0.00911359
 -0.07361751  0.09729091]","[-4.14871765e-02  1.05915442e-01 -1.47548618e-01  8.57447976e-02
  1.42920868e-01 -1.21591954e-01  1.88594944e-01  1.40278019e-01
  1.90238084e-01  7.94406023e-03  1.75191726e-01  5.55208330e-02
 -1.48623098e-01  3.68223772e-02 -6.61114058e-03  1.45256117e-01
 -8.38089063e-02  9.87284110e-03  5.01660348e-02  1.84623679e-01
  6.39930836e-02  1.11896656e-01  1.85536386e-02 -1.89947928e-01
 -3.02238002e-02 -2.54747101e-02 -9.63915057e-02 -2.31714054e-02
  8.34704555e-02 -5.81101652e-02 -7.38362759e-02 -2.00787049e-01
  1.99530165e-01 -1.37599080e-02  2.02641664e-01  1.72280240e-01
 -2.20697279e-02 -1.19225666e-02 -1.34961745e-01 -3.07419051e-03
  1.61415028e-02  1.71408881e-01  5.39840910e-02 -1.14983834e-02
 -6.85622201e-03  4.21327294e-02 -1.10766791e-01 -2.90867494e-02
  1.30326355e-02 -1.16231322e-01  1.46391226e-01  3.24427526e-03
 -4.13014904e-02  1.50872230e-01 -1.59111906e-01 -1.88007982e-01
 -6.65780835e-02  1.31942671e-02  1.22994137e-01  2.27951903e-03
  1.59234102e-01 -1.02254552e-01 -4.08806223e-02 -1.39056985e-01
  1.05056762e-01 -1.78482177e-01  5.88920357e-02 -1.76629353e-01
  1.72081225e-01 -2.96895984e-02 -3.77324487e-02 -1.41312458e-01
 -1.25843827e-01  6.90109762e-02  1.25413546e-01 -1.02074647e-01
  1.62228652e-01 -1.21986213e-01 -7.10727046e-02 -5.32263026e-03
  1.10682742e-01 -8.22301002e-02  1.03766289e-01 -1.17514966e-01
  5.80358514e-02  2.20350557e-02 -2.02321581e-01  1.46692579e-01
  3.48053907e-02  5.31018243e-02  2.00730556e-01 -1.70244140e-01
 -1.04401818e-01 -3.63926917e-02  1.96255720e-01  8.21906048e-02
  8.31627354e-02 -1.71677432e-02 -2.84148893e-02 -1.76855118e-01
  1.96447297e-01 -1.42389726e-01 -1.40797241e-01  1.58382276e-01
  4.54705035e-02  8.02747139e-02 -3.10658136e-03  6.63503761e-03
  5.23753231e-05 -1.24239526e-01 -1.42214244e-01 -1.99699293e-01
  7.82684117e-02 -1.68841705e-01  6.38545640e-03 -1.69628067e-01
  2.31836497e-02  7.73222306e-02 -7.96931348e-02 -3.50982342e-02
 -1.42195844e-01 -8.87393082e-02 -1.01642989e-01  9.73237997e-02
  3.05859884e-02 -1.43009573e-02 -9.26110560e-02  9.13621059e-02]"
