"[ 0.05919212 -0.20041461 -0.15583601  0.060056    0.13716362  0.00565615
  0.15620341 -0.10104672 -0.11460103  0.15914243  0.16493654  0.11295937
 -0.04130287 -0.03288071  0.15380224  0.03636238  0.0488329  -0.08124364
  0.17837677 -0.02158705 -0.05395591 -0.10044292 -0.09188003  0.11953175
  0.05294653 -0.00169039  0.0532515   0.14210248 -0.12681378 -0.10244699
  0.05056804 -0.07912931 -0.0651202   0.1935175   0.17703459 -0.00264676
 -0.17852233  0.16965487  0.14075386  0.09054011 -0.09386938 -0.03606224
  0.09581429  0.06790967 -0.0757355  -0.13806387 -0.16043379  0.15787609
  0.16879855  0.19064055 -0.14580291  0.13069764  0.00130746  0.08222899
  0.00668915  0.13336697 -0.09550765 -0.02743552 -0.01729448 -0.19654934
 -0.0643075   0.12299671 -0.11492707  0.04047551  0.20101363  0.00760739
  0.1200812  -0.10157312  0.16697629 -0.14463637  0.16754796 -0.04665004
  0.18982266 -0.17360452 -0.13680777 -0.01542398  0.10859743 -0.04437392
  0.08443604  0.03129091  0.0897711  -0.16385362  0.08868609 -0.11110642
  0.05148961 -0.02501777 -0.17623018  0.08686636 -0.15509155 -0.12856698
 -0.13810398 -0.13388058  0.07264934  0.17566132  0.03402754  0.09622968
 -0.0002883   0.09941899 -0.05579547  0.05275153 -0.18518378  0.00080846
  0.18983852  0.14492233 -0.07340671 -0.16042244 -0.18466216 -0.13249235
 -0.2087535  -0.1738968   0.14529778 -0.10173614 -0.14959258 -0.02625618
 -0.0398859  -0.16790099 -0.03260384 -0.03122587 -0.12324486  0.02482358
 -0.18350695  0.05386222  0.0755603  -0.14829646 -0.11021886  0.1511871
 -0.17651643  0.09366567]","[ 0.0492744   0.04379915  0.18435356  0.05927908 -0.15648269 -0.03542001
  0.06383992 -0.17896117 -0.04000276  0.05990841 -0.15268355 -0.17057063
 -0.01685174 -0.14919444  0.03421764  0.08121314  0.0207088  -0.1932303
 -0.17522542 -0.14736205 -0.00128749 -0.1365184  -0.0090218   0.15485066
  0.1331525  -0.15934873  0.02944559 -0.05873255 -0.10049361  0.10414646
  0.10958494 -0.03664446  0.04721619 -0.12852596  0.11582624  0.00793393
  0.04945139  0.10440929 -0.05224822 -0.09407525  0.06295401  0.07858633
 -0.09245517  0.17522589  0.16318581 -0.11020971 -0.08313374  0.1322287
  0.1496128  -0.05637397  0.07731669 -0.16378159  0.11847977  0.02851356
 -0.055975    0.15809728  0.01477317  0.04737306  0.01023874 -0.17416638
  0.06624999  0.0955848  -0.17237704  0.1801125  -0.08936001 -0.0584575
  0.17518219  0.17519931  0.11696332 -0.05097019 -0.12909035 -0.11413288
 -0.09672672  0.09237664  0.16442306  0.0829082  -0.04385419  0.00362846
 -0.09554109  0.04693761 -0.10388861 -0.08504371 -0.03162566 -0.11259733
 -0.05982608 -0.08625974 -0.03281558 -0.20043265 -0.00919989  0.08311647
  0.10309153 -0.19085548  0.00550114  0.01149168 -0.10646109 -0.17277533
  0.152105   -0.10942348  0.17555254  0.02491587  0.16803602 -0.12383092
 -0.14530979  0.0749174  -0.0317677   0.07091486  0.08025261  0.11572089
  0.02182032 -0.10110055  0.01167346  0.11455456  0.14901568  0.00544671
  0.0271366   0.19445755 -0.02340015 -0.04805797  0.01712727 -0.06725511
  0.12690222 -0.03632965 -0.14409948  0.14330304 -0.18221997 -0.0965977
  0.05082988 -0.11016363]","[ 4.56331478e-03  9.89943497e-02 -6.07075545e-02  1.93731450e-01
 -1.97675801e-01  1.04272338e-01  1.58963190e-01 -1.13953945e-01
  5.07066051e-02 -1.99455493e-01 -1.14350442e-01 -7.75028086e-03
  1.78462004e-01  1.16323464e-01  7.95222079e-02  1.46379388e-01
  8.50802217e-02  1.17859334e-01 -5.94564165e-02  5.86041922e-02
 -1.89133678e-01  2.26357143e-02  1.63121772e-01 -1.14662935e-01
 -1.78631254e-01 -1.98710351e-02 -6.03189822e-02 -8.46711843e-02
  2.04365480e-02  1.52349439e-01  1.55753520e-03 -1.04108595e-01
  1.96604584e-01  1.37200563e-02  1.74671334e-01  1.05321279e-01
 -2.90934629e-02  1.27625168e-01  5.93576409e-02  7.83200112e-02
 -1.29791258e-01  1.50396868e-01 -4.27128159e-02  3.00938534e-02
 -1.97199009e-01  2.26079334e-02 -6.25578877e-03  1.91576987e-01
 -7.19560173e-02  2.35499368e-02 -6.61985807e-02 -1.91001142e-03
  9.58725244e-02 -2.09811732e-01  1.07579833e-01  3.99343361e-02
  7.75513412e-02  3.91387159e-02 -1.51301762e-01 -3.60297963e-02
  1.04608808e-01 -6.74609868e-02 -1.35706460e-01 -1.50908351e-01
 -1.63899963e-01  9.04772956e-02  1.07410690e-02  3.08579204e-02
 -6.54734497e-02  7.36175328e-02  4.51232877e-02  1.80480524e-01
  1.74657136e-01 -1.95739610e-01 -3.53804316e-02  7.24660070e-02
  1.79135841e-01  1.74870901e-01 -1.69839298e-01  1.92659533e-01
 -7.29484923e-02  8.17844762e-02 -1.48000371e-04  1.91445691e-01
  1.67091223e-01 -1.06604634e-01 -1.40157874e-01  1.41018749e-01
 -8.60004812e-02 -1.59113138e-01  1.71169050e-01 -1.67195183e-01
  1.71483288e-01 -5.58632967e-02  1.73973325e-01 -1.91447321e-01
  1.10848308e-01 -2.25731299e-02  8.37729854e-02 -2.01633869e-02
 -9.90654738e-03  7.78176653e-02 -1.42748954e-01 -6.86523075e-02
 -5.62751429e-02  1.32904408e-01  1.41682145e-01  1.31266656e-01
 -4.02621150e-02  1.58366990e-01 -1.33588838e-01 -4.85712207e-02
 -5.15474236e-02 -1.61775390e-01 -9.65938129e-02 -1.65820740e-02
 -3.64666224e-03  6.75689530e-02 -5.07637063e-02 -1.08274106e-01
 -1.13070647e-01 -9.71368377e-02 -1.20662372e-01 -3.55493656e-02
  1.34418945e-01  1.93479515e-01 -9.77787441e-02 -1.13609414e-01]","[-0.1221481  -0.09357682 -0.17345359  0.02488513 -0.16536663  0.10047395
  0.04068207 -0.15215683  0.038735    0.13266346 -0.0216157  -0.0072185
  0.18204533  0.08519787 -0.0627884  -0.12309245  0.10245519  0.05652523
 -0.0748357   0.10011216 -0.0562588  -0.05808392  0.17492376 -0.15799468
 -0.1787711  -0.20282938 -0.11563095  0.06416505 -0.00047973  0.09073313
 -0.07903098 -0.06507237 -0.04812296 -0.15674931 -0.17305038  0.17877672
  0.17641328 -0.10266574 -0.16420249  0.19783047 -0.08835872 -0.10359674
 -0.10235499  0.00538906 -0.02685672 -0.13832228  0.18808023 -0.07132326
 -0.09205145  0.07153372  0.13459476 -0.09127819 -0.190509    0.17802177
 -0.11322341  0.02782293 -0.16119352 -0.03801324  0.03671824  0.19361053
 -0.1898979  -0.10081717  0.12277294 -0.20279113  0.19377048  0.14864761
  0.06101358 -0.12826507 -0.04736439  0.12649429 -0.13298933  0.19931948
 -0.08729834  0.12372975  0.18594737 -0.0852283  -0.01059922  0.13483647
 -0.08132563 -0.14833841  0.10503873 -0.15179004 -0.03067173 -0.13501255
 -0.08631757  0.20431411  0.12875715 -0.14463424 -0.1824649  -0.01046231
 -0.13304553  0.0011814  -0.07965163  0.08319906  0.08123916 -0.10707159
  0.12434918  0.01422524  0.06474725  0.02018985  0.19348318  0.02513633
 -0.16843545  0.11450795  0.10621665  0.19055522 -0.03375844 -0.04804876
 -0.07202045 -0.13489316 -0.12913026  0.20105571  0.06300653  0.05884928
 -0.08150569 -0.10531855 -0.02167732 -0.00517635 -0.15631699 -0.14139731
 -0.04730196  0.10822149  0.01283638  0.03230343  0.03191682  0.11299893
  0.03915973  0.10117343]","[ 0.0183339   0.14551597 -0.0912021  -0.19198039 -0.0341989  -0.13503928
  0.17744984  0.12238941 -0.09230423 -0.05110206 -0.05132045  0.07914109
  0.1688099  -0.18835609 -0.15891909  0.19724805 -0.16032641 -0.16646394
  0.02813207  0.16245061 -0.0020098  -0.16915001  0.12816519 -0.00648217
  0.02234177  0.10765095  0.03149819  0.17653067 -0.0719754  -0.19274723
 -0.1604106   0.13013346 -0.15470389  0.13534454 -0.19457067 -0.06391141
 -0.08130321  0.08379507  0.03454491 -0.1442849   0.1454875  -0.1283394
  0.05638376 -0.16247423 -0.05952055 -0.15615421  0.10910471 -0.06456534
 -0.13808845  0.19906985  0.16796552  0.16703833 -0.059645    0.15524066
  0.05911325  0.14101972  0.18052012  0.18988524 -0.08743397 -0.02308945
 -0.08770061 -0.06642225  0.07511243 -0.17103662  0.15037125  0.09524985
  0.18403395 -0.07209389  0.19359347  0.03169715 -0.16280126 -0.17019365
 -0.03540337 -0.16874328 -0.15705239  0.19247346 -0.00930109 -0.18858241
 -0.09989603  0.04437736 -0.20295274  0.200468   -0.08288617  0.05036628
 -0.124014    0.18011898 -0.14089285 -0.20211526  0.06153186  0.08257285
  0.06945858  0.13242093 -0.02239552  0.03628568 -0.02818524 -0.0516385
 -0.1090295   0.03229606 -0.19393281 -0.12412282  0.00543088 -0.18336167
  0.13922955 -0.12754279  0.06263401 -0.14115446  0.0422845  -0.06023889
  0.18611883 -0.16038255  0.00839094 -0.20338394 -0.02857957  0.0701805
 -0.03562603  0.10950277  0.14376444 -0.03121865 -0.18240828  0.14834887
  0.04964456 -0.05788244 -0.17611272  0.1173248   0.19999787 -0.13498972
 -0.1870712   0.18184711]","[-0.05585109 -0.15440674 -0.13335384 -0.17900381 -0.11192852 -0.03401756
 -0.10420763  0.10627927  0.03177113 -0.13140636  0.12382356 -0.16952063
  0.07187678  0.17061743  0.02418607  0.07137839  0.02977377 -0.03207156
 -0.04297839 -0.15130587  0.04110336  0.13226372 -0.10042873  0.09910138
  0.00367491  0.16447995 -0.11954194  0.03085128 -0.18251915 -0.03253063
  0.1144261  -0.02457646  0.04388693 -0.03834161 -0.00891985 -0.18422056
  0.00591685 -0.01745756  0.06528144 -0.00711909  0.092241    0.10799483
  0.01945271 -0.14012186 -0.0428539  -0.01956492 -0.00462071 -0.14042316
 -0.04477382  0.15033961  0.11457567 -0.0582128  -0.1852332  -0.17773774
  0.05431969 -0.02337265  0.01902107 -0.04800477 -0.19487319  0.20401173
 -0.08087723 -0.15196573 -0.03442598 -0.08410238  0.11893362 -0.05921284
  0.09417347 -0.17288246  0.139156   -0.06040765 -0.13683435  0.0833622
  0.14303668  0.17050809  0.01856906  0.03824828 -0.18558675  0.19661671
  0.04957152 -0.06819411 -0.03915856  0.0620876  -0.1935949   0.18319961
 -0.0716017   0.14749997 -0.03362838  0.00234761 -0.1956571   0.0179826
  0.02958114  0.02325301  0.10277085 -0.03497477 -0.09587264 -0.19903252
 -0.12209929 -0.03438973  0.03494956 -0.00796094 -0.1303681  -0.16179883
  0.15625558  0.07376099 -0.02237508 -0.14348939  0.1139659   0.02502787
 -0.05386371 -0.08461551 -0.16733194  0.12233924  0.0057302  -0.12744604
 -0.00514812  0.06672602 -0.11212031 -0.07789131 -0.15839056 -0.09453356
  0.07556701 -0.12091919 -0.06153236 -0.03863121  0.09668005  0.12198749
  0.13176047  0.06548137]","[ 1.98312474e-02 -1.16365695e-01  5.40361792e-01  5.94475182e-01
 -1.96600324e-01 -6.44313684e-02 -1.83702887e-01 -6.75605088e-01
  4.32590357e-01 -1.34607539e-01  7.68550689e-02 -1.10392532e-01
 -8.77158569e-02  1.06126931e-02 -1.29368040e-01  2.92140372e-01
 -1.29864225e+00 -5.17692119e-01  4.60811273e-01 -2.26137905e-01
 -1.37421594e-01 -2.29096785e-01 -1.11308208e-01 -1.70645718e-01
  1.31128778e-01 -8.30604460e-02 -1.28249724e-01 -1.65097406e-01
 -1.36421684e-01 -1.12272581e-01 -4.45568137e-02  4.48133476e-01
  1.08799713e-02 -9.52681783e-01 -5.27285308e-04  7.11075605e-01
  6.39679048e-01 -1.84093603e-01 -5.83487305e-02 -1.06194746e-01
  4.70913807e-01 -8.64622076e-02 -1.22649198e+00  4.59284390e-01
 -1.26688651e+00 -1.12543478e-01 -2.33175355e-01 -1.56390109e-01
 -1.08141625e-01 -6.13821774e-01 -8.07117665e-01  3.98580014e-01
 -1.94649242e-01  1.24343779e-04 -1.35520743e-01 -1.02176526e-02
 -1.33213417e-01 -1.92643509e+00 -1.16595176e+00  4.86422593e-01
  5.97018666e-01 -4.86676486e-01 -4.08146589e-02 -4.70194564e-02
 -4.01213951e-01 -8.11398979e-02 -2.70540328e-01 -4.26104581e-02
 -2.23117384e-02 -9.23325838e-03  2.49615377e-01 -1.96769389e-01
 -2.46196442e-01 -1.73274979e-01 -1.55996803e-01 -5.89205367e-02
 -5.13182365e-01 -3.90131511e-02 -1.39173216e-01 -4.56882737e-02
  4.65571613e-01 -9.39632754e-02 -5.63017713e-01  4.89117809e-01
  8.86938322e-03 -2.04963407e-01 -5.02918768e-02 -5.18955450e-01
  1.51343955e-02 -1.01428154e-01 -2.84515248e-02  5.63518883e-01
 -5.37401554e-01  1.15395896e-02 -4.44123197e-01  5.74639251e-01
 -2.33363996e-01 -9.98422098e-02  6.08211193e-01 -1.94957450e-01
  8.48249975e-03 -8.04573209e-02 -5.96538318e+00 -4.28012219e-01
 -2.24154829e-01  6.47895300e-01 -1.88912875e+00 -1.77726701e-01
 -1.59755014e-01  4.93640189e-01 -5.34922471e-01 -7.88823790e-02
 -1.90622629e-01 -1.63924627e-02 -1.83712823e-01  6.11779843e-01
  3.49356518e-01  3.16336589e-01 -1.34727983e-02 -1.84314762e-01
 -5.25197382e-01 -1.15157786e+00 -5.22926651e-01 -8.36421863e-03
 -1.43576632e-01  4.10679112e-01 -1.61599733e-01 -7.71776325e-02]","[ 0.02441931 -0.03569452 -0.13222816  0.19180501  0.06075849 -0.16028856
  0.1119509   0.16477633 -0.07022337 -0.08106482  0.14740383  0.16695043
  0.05776254  0.13403237  0.00632679  0.16364023  0.00555537 -0.10881928
 -0.0501211  -0.09130947 -0.00650263 -0.1599684   0.11847671  0.09630838
 -0.08618462 -0.13386073 -0.15960956  0.1228547  -0.17173607  0.16612291
 -0.06283327 -0.00368809  0.00393021 -0.12544841  0.19791333 -0.04255163
  0.17516736 -0.04863916  0.02453163 -0.02536109  0.20113379  0.1580642
  0.16404781  0.13917397 -0.16336052  0.09520601 -0.06141871 -0.1882398
 -0.09607576  0.16718852  0.16379786  0.09173868 -0.16179361  0.00070711
  0.15938116  0.18301481  0.14289557  0.08278289  0.17054413  0.01974048
 -0.04139183  0.0219044   0.03300775  0.07099307  0.01836652 -0.1978619
  0.1060963   0.1553998  -0.12617778  0.18473399  0.09774825  0.09793146
  0.03062047 -0.03237103 -0.151544   -0.1323701   0.154565   -0.18045587
  0.10062275  0.16781764  0.1583789   0.06671228 -0.06356971  0.11919205
  0.06734414 -0.20052362  0.19588643  0.0147044   0.02415939  0.06877343
 -0.01304988  0.0594515   0.03182631  0.08760483  0.19861921  0.08111978
 -0.003642    0.1371476   0.09797649 -0.12373334 -0.18863078 -0.18954968
  0.05730796 -0.18312054 -0.04716661  0.08654689  0.11993078  0.12670942
 -0.10151569 -0.05173067  0.07241114  0.12270796  0.0164371   0.11176952
 -0.00493907  0.19014168  0.01886874 -0.15987991 -0.16880726  0.19153862
 -0.17961541 -0.03784771 -0.03647464 -0.1632192  -0.17401169  0.18084668
 -0.13930421  0.07866425]","[-1.65414787e-01 -3.79564960e-02  8.52848897e-02 -1.91105467e-01
 -2.02354199e-01 -5.43847567e-02  1.59387257e-01  6.50942640e-02
  1.88085692e-01  1.24214600e-02 -3.79538474e-02  1.93171674e-01
 -2.09481959e-01  1.43275487e-01  6.08917588e-02 -3.56511805e-03
 -3.46959908e-02 -1.54263547e-01  1.08873890e-01  7.25251500e-02
  5.85839849e-02  1.94412467e-01 -1.53059407e-01  1.53882334e-01
 -9.55288679e-02  1.15982660e-01  1.35558919e-01 -1.45340890e-01
  9.78334585e-03 -8.09063497e-03 -1.98267879e-01 -1.74030034e-01
  1.52880035e-01 -1.16137969e-01  1.45048757e-01 -9.98801993e-02
 -2.06668135e-01 -2.67202448e-02  7.70815678e-02  1.15360010e-01
  2.04653846e-02 -6.19450431e-02  1.50095045e-01 -5.34080235e-02
  6.72886905e-02  1.22142924e-01 -1.25033580e-02 -1.20902399e-01
  1.37872625e-01  1.67585122e-01  5.47947499e-02  3.89528531e-02
 -1.02002389e-01  1.56673167e-05  5.64402663e-02  1.66527159e-01
 -8.09766992e-02  2.08681133e-01 -1.00406422e-01  1.21877429e-01
  2.97404359e-02  1.28707718e-01 -1.67172162e-01  8.03251329e-03
 -4.37437136e-02 -2.89894686e-03 -8.09325516e-02 -2.17384250e-03
  9.04849347e-04  1.70159390e-01  1.34189305e-01 -1.31623164e-01
  1.14997783e-01  1.20990679e-01 -1.36647044e-01  7.03459278e-02
  4.59669006e-02  1.24826578e-01  1.57435035e-01  1.79901531e-01
  1.38535519e-01 -8.12480297e-02  7.69161477e-02 -1.73365998e-01
 -9.42907480e-02  1.18718414e-01  3.98765576e-03 -5.12564932e-02
 -1.22924221e-01 -2.92013333e-02 -1.90236659e-01 -1.73674318e-01
 -1.16747574e-01 -3.74678126e-02  1.84372982e-01 -1.86423282e-01
  8.03479314e-02 -8.76225337e-02 -1.81119912e-01 -1.85710985e-01
 -9.74521937e-02  1.41592209e-01 -1.09361794e-01 -1.39125045e-01
  1.70890732e-01 -1.57514213e-01  9.86998265e-02  1.59173331e-01
  1.68638887e-01 -9.97680906e-02 -1.18363472e-01  1.74827852e-01
 -1.41367461e-01 -6.12143031e-02  1.98065774e-01 -1.28775420e-01
  1.35270404e-01 -1.29353720e-01  1.11849544e-01 -1.77443736e-02
 -2.59797820e-02  1.80758850e-01  1.29213567e-01  1.94427891e-01
 -1.87764207e-01  1.40091459e-01 -1.56301191e-01  1.66583304e-01]","[ 0.17066831 -0.0427918   0.02679879  0.1697809  -0.05756039 -0.20323761
 -0.00743981  0.08336852  0.01994998  0.19936215  0.17692004 -0.06389065
 -0.17873195  0.19110207  0.09965039 -0.14118397 -0.15494709  0.14542002
  0.01589277 -0.1609453   0.02455062  0.03488412  0.03114493 -0.08508967
 -0.0904753  -0.10791231  0.01750647 -0.17242223  0.05351136  0.17097
  0.05296034 -0.17343813 -0.14457227  0.16801067  0.07151222  0.09630666
  0.13506085  0.05194714  0.04067458 -0.15820859  0.00681224 -0.09052574
 -0.20025858 -0.01901351 -0.15390832  0.06223854  0.1557777  -0.19565426
 -0.14875461 -0.1501313   0.1681499  -0.023668   -0.0066377   0.17897263
 -0.02574129 -0.07340883 -0.12713967 -0.17392615  0.07257271 -0.1255679
  0.0949203  -0.07138263 -0.1769954  -0.14936206 -0.17809717 -0.07579141
 -0.0284911   0.09908083 -0.06193734 -0.05672529  0.06001194  0.09610143
  0.07630566  0.10113353 -0.00155211  0.01775135 -0.04780502 -0.04724449
 -0.11975013  0.18382342  0.06926456  0.12121673 -0.19723865  0.02476555
  0.02139462  0.15664297  0.17099083  0.02946057  0.06825603  0.10505812
  0.01964299 -0.00732724 -0.20234913  0.19091093  0.18987427 -0.20238188
  0.19464042 -0.03769099 -0.14859367 -0.20083575  0.18692739 -0.03933864
  0.19047265 -0.00389095 -0.14822963 -0.03042606  0.09007224 -0.06818504
  0.12085365  0.19078613  0.11656532  0.12517401  0.13198892  0.15767643
  0.18109916 -0.0828139  -0.0889444   0.1596596   0.03582539 -0.13569713
  0.01827689 -0.01529805  0.04368094 -0.12079623  0.06502334 -0.17888806
 -0.01294311  0.03534366]","[ 0.08313909  0.12141869 -0.17203702  0.10153154 -0.10952827 -0.15647522
  0.14978691  0.04344928 -0.14095075 -0.04575483  0.1554633  -0.05261532
  0.18665296 -0.17865879 -0.07666245 -0.16338039  0.17763622  0.0439075
 -0.12711609 -0.11354135 -0.13479727 -0.17762127  0.06634464  0.0460439
 -0.15550446  0.18859579 -0.05940091  0.01107134 -0.05974386 -0.08975089
  0.15988141 -0.01825417 -0.11489008  0.01669106 -0.15748597 -0.13559226
  0.15877067  0.08827836 -0.02016901 -0.05957486  0.11698245 -0.08919398
 -0.19816297  0.07915359  0.19962131 -0.0664732   0.13804538 -0.14594863
  0.18821362  0.11067703 -0.1263171  -0.1095712   0.06590736  0.11210973
  0.07042131  0.18639396  0.02950065  0.11053794  0.15221356 -0.01643851
  0.17977856  0.00247784 -0.02602334  0.10419557  0.09548613 -0.04245758
  0.02926335 -0.09622121  0.04411999  0.10203773 -0.1205992  -0.15692008
 -0.06698579 -0.01303232  0.15784768  0.02447907 -0.1673277  -0.16281769
 -0.19803051 -0.20290538 -0.0723261   0.16892392  0.09504344 -0.03229062
 -0.16709916  0.13857477 -0.00387261 -0.00238575  0.09476844 -0.02741234
  0.12021117 -0.20286148  0.08391836  0.19283343  0.0541015  -0.14918875
 -0.10429018 -0.17727978  0.20337785 -0.16215537  0.13215654 -0.19488696
 -0.09787248 -0.20391886  0.05490504 -0.0092727   0.00244825  0.14292278
 -0.04107012  0.19287157  0.19338871  0.04720402 -0.14727928  0.1708871
  0.03966057 -0.06489727  0.06237475  0.06119607 -0.01230805  0.11622146
  0.05297608 -0.20358773  0.08643161 -0.08518016  0.17402801  0.08545757
 -0.06663429  0.07901252]","[-0.00052632 -0.16147428 -0.03421024  0.13057509  0.04341865  0.09117479
 -0.16201091 -0.06399985  0.14174783  0.06128326  0.03286552 -0.15963425
  0.17081798 -0.17246532  0.09288928 -0.12821436  0.18860218  0.11078561
 -0.15310679  0.14757802 -0.19645737 -0.02187919  0.08449674 -0.08416769
 -0.19752412  0.19209388 -0.08100695  0.00944598  0.02821164  0.14294533
 -0.08116634  0.14265405  0.00805551 -0.11803126 -0.17707836  0.09302417
  0.07182605  0.12678224 -0.17490666 -0.13743323 -0.17480568  0.15447776
  0.10146972  0.1024753  -0.07446071 -0.03176136  0.1117855  -0.14717035
  0.14175542  0.20541763  0.11682527 -0.06328323 -0.17842248  0.15138361
  0.14916644 -0.16866917  0.04796634 -0.12089707 -0.16122754 -0.08373995
 -0.01674699 -0.13090401 -0.13541147 -0.07457855 -0.10499557 -0.02260558
  0.05175652  0.14906682 -0.01059303  0.11257728  0.02027604 -0.18984155
  0.17566816  0.08085027  0.06892178  0.21127377 -0.13105202 -0.20174721
 -0.14634026 -0.0873754  -0.19525828  0.10430895  0.10815917 -0.09031872
  0.00354522  0.14409414 -0.03369    -0.08703686  0.08865162  0.04929619
 -0.00229624 -0.1087618   0.20770778  0.13858028 -0.08776894 -0.19341132
 -0.1949277  -0.08703821 -0.09134249  0.16300877 -0.15541725  0.13932856
 -0.08409538  0.12904021  0.00076183  0.16829397  0.05333038 -0.12658133
  0.05329536 -0.06449506  0.04263559 -0.15296027 -0.11742306 -0.12766287
 -0.09179028 -0.09037002  0.09818993  0.01564935  0.07688225 -0.09201847
  0.19498185  0.02347642  0.17743454 -0.06050684  0.01243634 -0.16769069
  0.12270875 -0.14155477]","[-0.15808727  0.13009408 -0.19356025 -0.10691479  0.02408979  0.18319012
 -0.12971647 -0.1647751  -0.14000135  0.12069799 -0.07492719  0.06675454
 -0.04405557  0.00240475  0.11061669 -0.06430105 -0.09719165 -0.06371858
 -0.15652747  0.11708417  0.05260315  0.12942775 -0.19319895  0.05263908
  0.05992777  0.00408518  0.06461853 -0.00430967 -0.18317351  0.10551887
 -0.16471677 -0.07267561 -0.08052966  0.03488807 -0.01548828  0.14785331
 -0.02592432 -0.03693506 -0.19276497  0.07141939 -0.15176581  0.09741247
  0.09664503  0.10683519  0.1468835   0.03168345  0.01807622  0.028375
  0.13954734 -0.17537977 -0.05425087 -0.17882714  0.07328411 -0.12759509
 -0.16761769  0.12846514  0.10073407 -0.08232502  0.19912883  0.19011549
 -0.00751685  0.06894081  0.07557293  0.02858755 -0.15659164  0.06980264
  0.18229637 -0.05538641 -0.05472761 -0.19411387  0.00086521 -0.1625105
 -0.02647275  0.12916698  0.1476001   0.13520634  0.09143655  0.13262348
 -0.00755193 -0.08581065 -0.15209462  0.17500937  0.06983603 -0.10906882
 -0.0183823   0.15518548 -0.07327459 -0.19666451 -0.16984967  0.11239908
  0.01133054 -0.17984273  0.03495073 -0.19493325  0.19185158  0.07810524
  0.08426816 -0.14727251  0.1210856  -0.0525681   0.05429249 -0.14070918
  0.16356589 -0.20224391 -0.08946994 -0.02350527 -0.19048907 -0.09015092
  0.06328386  0.01581205  0.06212244 -0.08750718  0.03535534  0.06326193
  0.0845787   0.05864487 -0.06357726 -0.03551903  0.02733522  0.09752418
 -0.11297441 -0.00543565 -0.17502471 -0.14101842  0.0137155   0.0361581
  0.06008024 -0.1704286 ]","[-9.65313036e-02 -4.73917379e-02  3.40348636e-02  4.60310813e-02
 -1.85458641e-01 -1.13841241e-01  5.19582848e-02 -2.71012148e-03
  1.83653278e-01 -3.24045273e-02 -1.78300325e-01  1.13750058e-01
  1.99057294e-02 -2.67402276e-02 -1.66934066e-01 -8.14965698e-02
  2.06171067e-01 -1.36778742e-01  3.38996420e-03  1.52224399e-01
  4.49913282e-02  1.74357286e-01  1.08022063e-01  9.41923236e-02
 -7.73551440e-02 -3.06722663e-02 -4.93261217e-02 -1.34672483e-01
 -5.72725262e-02 -1.75275947e-01  1.88880623e-01  1.74794008e-01
 -7.18992686e-03 -7.17813341e-02 -1.40934016e-01 -1.79257064e-01
  1.77048845e-01 -6.66464595e-02  9.02923153e-02 -2.71553907e-02
 -1.93202878e-01 -4.12413744e-02 -2.00462075e-01 -7.38155185e-05
 -1.08660008e-01 -1.86823167e-01  6.09686852e-02  1.48518893e-01
 -1.31300492e-01  9.79566830e-02 -1.48143850e-02  1.91086003e-01
  3.93579317e-02  5.35316476e-02 -1.19629776e-01  1.17230753e-01
 -1.58756785e-01 -1.11760601e-01  2.03499944e-02  6.73690599e-02
  2.34636926e-02  6.32146238e-02  5.57570169e-02  6.00619808e-02
  1.28560292e-01 -1.96418283e-01 -4.90387609e-02  1.90291838e-01
 -1.96656315e-01 -2.13244750e-02 -1.69839342e-01 -1.38565722e-01
 -1.29981383e-01  2.01460690e-01 -1.12247432e-01 -3.74257203e-02
  7.11695818e-02 -1.10554096e-02  4.08880146e-03  1.72203835e-01
  7.06188711e-02 -1.38423182e-01  1.27393716e-01 -7.18717711e-02
  3.88507341e-02 -7.18484513e-03 -8.98524320e-02  1.00558804e-01
  9.13387796e-02  1.01060093e-01  1.89723239e-01 -8.64875980e-02
 -1.42927505e-01  1.73744351e-01 -1.21344734e-01  1.28329725e-01
  2.71276120e-02  1.61626473e-01 -1.41870626e-01 -7.74095234e-02
  1.85527644e-01 -2.44879594e-02  7.41345303e-02  2.68839656e-02
 -6.36288023e-02  7.20994869e-02 -4.60362412e-02 -1.31021340e-01
  1.12200307e-01 -1.01922805e-01  1.60972543e-01  5.70982973e-02
  8.04904683e-02  1.77720824e-01  5.22178413e-02 -1.90201683e-01
  1.38130090e-01  1.17841859e-01 -9.11878442e-02 -8.33413996e-03
  1.06317242e-01  4.68681618e-02 -1.00799620e-01  1.49596591e-01
 -3.34420118e-02  1.15021854e-01  1.37126654e-01 -1.46999442e-01]","[ 0.11267431 -0.07531927 -0.01197866 -0.02103581 -0.18124832 -0.15767288
 -0.15853089 -0.18223619  0.12324294 -0.15723299  0.08814031  0.1191693
  0.05210235 -0.15274787 -0.04735971 -0.08367064 -0.05766535 -0.16054624
  0.09452646 -0.04648455  0.01508862 -0.14699822  0.06622512  0.18580147
  0.06176783 -0.00200586 -0.02695992  0.14232913 -0.00469298 -0.07267921
  0.00480919  0.09301554 -0.19560095  0.06283714 -0.08825522 -0.13587053
 -0.09748351  0.04585514 -0.11490638  0.06915555 -0.07128424 -0.01214097
  0.19575963  0.10043406  0.06761442  0.15843079 -0.10953507 -0.00873989
  0.00539256  0.08093363  0.15087285 -0.00761509  0.16715156 -0.13559029
  0.18213394 -0.01028    -0.14279424 -0.0784412  -0.03137816  0.14577799
 -0.07615685  0.0198518   0.04110795  0.04601807  0.14860996 -0.10002183
 -0.16328034  0.15063197 -0.00933447 -0.18739496  0.17121283  0.01118524
  0.154938    0.08347826  0.07990463 -0.13792796 -0.10794563  0.15126794
 -0.06381754 -0.03336452 -0.00430854  0.14392911  0.05092926 -0.1441358
  0.03512256 -0.13229768 -0.18071048  0.11821134 -0.16603336  0.1077902
  0.11237019  0.1966999   0.10077892  0.1193765   0.16011741 -0.14666244
 -0.06054161  0.14577273 -0.0847297   0.07276634 -0.11599075 -0.09154885
 -0.0058107  -0.11170549 -0.19738255  0.16246735  0.01523361 -0.04970555
 -0.15456817 -0.10951584  0.05065392  0.10984558 -0.0894738  -0.17673752
 -0.02357936 -0.01665053  0.01897454 -0.1116052   0.17618693 -0.14753455
 -0.01595096 -0.05175825  0.12574438 -0.12850797 -0.19417115 -0.10652777
 -0.12806849  0.14658581]","[ 0.13976953 -0.07289549  0.1459629  -0.00695327 -0.11237533 -0.00306968
  0.18104756 -0.07196513 -0.17861245 -0.13779889  0.01612091  0.07623776
  0.12170927 -0.07225977 -0.19772296  0.17650809 -0.0068615  -0.13261344
 -0.01036151 -0.14331182 -0.07412008 -0.19459237 -0.16757853  0.08529193
  0.13331916 -0.14461681 -0.03879743  0.01106625  0.15011295 -0.1032969
 -0.1112293  -0.11924209 -0.04074139 -0.11775357  0.044713   -0.10096235
  0.10404058  0.14980503 -0.01662087 -0.18651184 -0.01988479  0.1230723
 -0.00118596 -0.18340614 -0.01872243  0.15154579 -0.16412312  0.1874655
  0.18854755 -0.15030545 -0.13515515  0.14500094 -0.06629519 -0.03050215
 -0.20307578  0.11482714 -0.00694233 -0.03919652 -0.13855098 -0.20821824
  0.06779316  0.09139107 -0.14706883  0.04983213  0.0627349   0.06960798
  0.17552363  0.18349599  0.02797472  0.10774912 -0.04263365  0.06094266
  0.13453628 -0.16350615 -0.14432299 -0.0066616   0.19424345  0.05576976
  0.19686183  0.09146063  0.20636402  0.18327928 -0.12694205  0.16715613
  0.01459019  0.01955152  0.06089911  0.14647133 -0.06392635 -0.12843106
  0.09570638  0.02050019  0.08699866  0.04740859  0.07119417  0.10253705
  0.12820347  0.18327182 -0.04598173 -0.19265813 -0.08684268 -0.18191155
 -0.01785653  0.11619802  0.17724123  0.1217611   0.02510343  0.09177852
  0.19212051  0.07953468 -0.05477147 -0.05410877 -0.17189682  0.19985286
 -0.16470725 -0.06641102  0.09660864  0.02736903  0.16295281  0.032543
 -0.1332228  -0.14737703  0.1246756   0.11600256  0.12696772  0.12190674
 -0.02683377  0.06790626]"
