"[-0.06229984  0.22573824 -0.23934327  0.23322158  0.00794131  0.16765803
  0.13499623  0.23469471 -0.16536465 -0.20311982 -0.05859786 -0.25442911
  0.30738996  0.22716725  0.08914114 -0.09719474 -0.1566545  -0.30435124
  0.20107379 -0.05333081  0.09241471  0.20054577 -0.06916107 -0.19436762
  0.12069577  0.34545352 -0.29275823 -0.01611462 -0.08738612  0.33774548
  0.10680729 -0.27472307]","[ 0.23949846  0.15421653 -0.19321328 -0.03172868  0.1463237   0.15058564
  0.0677283   0.07114963 -0.33906515 -0.00997176  0.34759479 -0.2977899
  0.22472323  0.32220401 -0.23364292  0.27954507 -0.02337817  0.27630259
 -0.20324879  0.23241323  0.29147297 -0.25994943  0.04039382  0.03301323
 -0.1741854   0.19939201  0.19039361  0.04876293  0.20665342  0.24455106
 -0.00491682 -0.12946122]","[-0.34904358  0.12208415  0.29459418  0.07181851 -0.11077508  0.15097466
 -0.09229475  0.35165511  0.03501568  0.28198509  0.11220286 -0.11554921
 -0.06074299  0.30468994  0.20360325  0.2958471  -0.00114887  0.01208663
 -0.06957165  0.19074412  0.19699136 -0.24965199  0.06368511 -0.21540717
 -0.09682426 -0.02818062 -0.08681749 -0.0153865  -0.34245202 -0.07611464
 -0.14359471 -0.16627622]","[-0.34063201  0.13800589  0.2419583   0.30850551 -0.21798533 -0.18599157
 -0.11616313  0.1554154  -0.15624887  0.24673178 -0.16464949 -0.26502205
  0.14645407 -0.17967599  0.01639602  0.26749264 -0.31827205 -0.10249113
 -0.07970154  0.06400859 -0.31469716 -0.03094135  0.05456533  0.33561319
 -0.13478218  0.20651635 -0.26047255  0.16462612 -0.10006883 -0.31132224
 -0.35097049  0.12533885]","[-0.14843216  0.11471278  0.27765519  0.35326569 -0.08898418 -0.26492774
 -0.30439769  0.35233025  0.26824342  0.09005553  0.23071578  0.27968509
 -0.22442116 -0.07835866 -0.0949705   0.25579227  0.2088601  -0.28801763
  0.10144386 -0.22459762 -0.15973608  0.28924493  0.16895348  0.09836256
 -0.05200602  0.20981163  0.08653419 -0.25350218 -0.26641159 -0.05066235
 -0.34342529  0.25984656]","[-0.35267382 -0.30655906  0.01704286 -0.01165885  0.06234863  0.00410951
  0.04232673 -0.01028852  0.09024192  0.27472928  0.01039072 -0.24422238
 -0.05845341 -0.30035627 -0.15839877 -0.20576978 -0.10599748  0.11069176
 -0.14930186 -0.26777085  0.13895641  0.21883129 -0.27631991  0.31405086
 -0.24333803 -0.27898087  0.30996732  0.1204535  -0.22737568 -0.01818845
 -0.09628068  0.20076998]","[-0.22495462  0.31724    -0.30305524 -0.23677463  0.25804    -0.10774339
  0.19872276  0.14551019 -0.25199604  0.12091305  0.07470435  0.06863716
 -0.24431877 -0.2512314  -0.33713364  0.21906884 -0.0833636   0.09385398
 -0.12566998  0.16353162 -0.30941038 -0.34910762 -0.1397884  -0.11900497
 -0.29325155 -0.34848401 -0.08838827  0.17308012  0.19913519 -0.27334101
 -0.15059693 -0.19067522]","[-0.23182408  0.18814117 -0.18867224  0.22238362 -0.23246017 -0.29337431
 -0.27538726  0.08241141 -0.11656234 -0.25036125  0.14814154  0.01548278
  0.06574396  0.19460186  0.16345572 -0.07684806  0.34522703  0.04720867
  0.2381414   0.08657547 -0.24253409  0.26863154  0.15228736 -0.24857578
 -0.28775886  0.15851734  0.00911404  0.22710204 -0.12939435  0.12049427
  0.22912595  0.23250047]","[-0.27974756 -0.14153658 -0.02279981  0.07864824  0.30843832  0.05867669
 -0.29843685  0.23730739  0.10094887  0.29545428 -0.01995631  0.09249263
 -0.04247475 -0.12298305  0.02964339  0.26406477 -0.00993597  0.12626168
 -0.34760025  0.33555292  0.33378038 -0.32571834  0.26981094  0.01397151
 -0.0262349  -0.19908064  0.13410506  0.27410695  0.20002367  0.19088407
  0.34742198  0.2318316 ]","[ 0.03664622 -0.09932637 -0.1832578  -0.1995704  -0.34164861 -0.08847361
 -0.01347863 -0.32563614  0.01792775 -0.09316386 -0.17873873  0.16547655
 -0.12326442  0.10395182  0.20228739 -0.14095133 -0.22122856 -0.10358507
  0.10619809 -0.05161128 -0.00496492 -0.30130901  0.29472933 -0.28596036
 -0.15103917 -0.19546035 -0.220221   -0.08188655  0.20144765 -0.15625998
 -0.29268073  0.07552019]","[ 0.21693191 -0.03827907  0.11049383  0.16980426 -0.18025755 -0.17969456
 -0.04121017 -0.18762869  0.03381438 -0.07410197  0.35350048  0.00953113
 -0.33820925 -0.11577965 -0.24640742 -0.30865107 -0.22014647  0.08056565
  0.09267813  0.2690256   0.31092401  0.33627699  0.33046502  0.00485446
 -0.0818601   0.25416985 -0.06736193  0.20020623 -0.03090446 -0.01960701
 -0.17245549 -0.10283537]","[ 0.31044361 -0.22737907  0.0530769  -0.34106032  0.30490564  0.30840107
 -0.34753045 -0.11062744 -0.07294245  0.19972718 -0.23166655  0.19552706
  0.02710559 -0.04096735 -0.28886757 -0.16936508 -0.11792406 -0.01050205
  0.31489247  0.23226165  0.10026224  0.13133919 -0.04616974  0.21096111
 -0.3276673   0.09130562 -0.12090897 -0.30340166  0.06921038  0.31550356
 -0.1348133  -0.13574877]","[ 0.20691922  0.14381736  0.16764559  0.11315097  0.28178459  0.08971469
  0.19678912 -0.0149755   0.11173805  0.07345773  0.21288203  0.31097192
  0.09351403  0.1947154  -0.12946646  0.13683107  0.28925057  0.22635101
  0.01616168  0.29758372  0.26273829 -0.16143414 -0.14617325  0.04781781
 -0.21915147 -0.18885822  0.26967779  0.1631983   0.0296707  -0.0494094
 -0.13901672 -0.24153522]","[ 0.30519114  0.1386989   0.15049471 -0.02038833  0.14907532  0.30051535
 -0.09543376  0.14903845  0.33619231  0.03624305  0.10586768  0.03997822
 -0.21587692 -0.21771824 -0.28768032  0.23612978 -0.20024629  0.06305543
  0.13361302  0.00303907 -0.14328942  0.30502653 -0.0171624  -0.2662933
  0.22238103  0.12637495  0.3052165   0.14471613 -0.15498817 -0.13206315
  0.11157433 -0.05476942]","[-0.17804383 -0.07935674 -0.12281231  0.04630404 -0.08712741  0.20571806
  0.07535945 -0.04061928 -0.21238921  0.33522817 -0.00936606 -0.09890192
 -0.32450256  0.06436123 -0.20313503  0.00635646 -0.30505808  0.32946814
 -0.12603926  0.3464504   0.01442414  0.27036217  0.22457161 -0.34225112
  0.07202111  0.12333208  0.20679067  0.01708733  0.25467116 -0.14170455
  0.32729842  0.08773244]","[-3.07952410e-01 -1.60381245e-01 -1.52311965e-02  2.07004879e-01
  2.73799346e-01 -2.05134972e-01 -9.09428729e-02 -1.74911750e-01
  7.46662363e-04 -2.53621488e-01  3.38092070e-02  3.00779548e-01
 -2.35419485e-01 -9.71321288e-02 -2.66993443e-01 -2.36948419e-01
 -2.55427429e-01 -2.86709594e-01  1.52441161e-01  2.47703799e-02
  3.38874445e-01 -6.89764410e-02 -5.71464275e-01 -1.71433678e+00
 -1.43765054e-01 -1.95624527e-01 -1.05482464e-01  3.24176668e-01
 -1.12500169e-01 -1.16879654e-01 -2.18356325e-01  3.37992724e-01]"
