"[ 7.58890411e-315  7.34023725e-315 -7.69346094e-315 -7.72536629e-315
 -7.61887168e-315 -7.32312663e-315  7.63516759e-315 -7.78182249e-315
 -7.61053960e-315  7.42295842e-315 -7.71477089e-315 -7.36818888e-315
 -7.55109435e-315  7.49461549e-315 -7.49443630e-315  7.62805982e-315
 -7.39664925e-315 -7.45882486e-315 -7.30023660e-315  7.63777623e-315
  7.45120464e-315 -7.60198888e-315  7.76283274e-315 -7.44137121e-315
 -7.31988840e-315  7.66588969e-315 -7.53145641e-315  7.35613820e-315
  7.32975919e-315 -7.34557385e-315  7.71100808e-315  7.66623876e-315
 -7.37145888e-315 -7.59456082e-315 -7.52831737e-315  7.33041759e-315
  7.46939797e-315 -7.74274659e-315  7.53745316e-315  7.54171205e-315
  7.35633173e-315  7.67311927e-315  7.37636808e-315  7.45388183e-315
  7.65723417e-315 -7.74838826e-315 -7.40903843e-315 -7.67503223e-315
 -7.50740972e-315 -7.35934956e-315  7.70419879e-315 -7.31441347e-315
 -7.58040749e-315 -7.46027856e-315 -7.47721747e-315 -7.58503592e-315
  7.37575282e-315  7.33365111e-315 -7.38665783e-315 -7.43274184e-315
 -7.44918460e-315 -7.55877642e-315  7.43563184e-315  7.40821829e-315
 -7.55376129e-315  7.40366786e-315 -7.62245877e-315  7.49817136e-315
  7.72784531e-315  7.53833957e-315  7.54265378e-315  7.51940159e-315
  7.37301774e-315 -7.72254592e-315  7.52432731e-315 -7.55373634e-315
 -7.74937107e-315  7.70078029e-315  7.40376471e-315 -7.61448307e-315
  7.60519079e-315 -7.77427504e-315  7.54620262e-315  7.35799966e-315
  7.69811352e-315  7.75337902e-315  7.63274054e-315  7.47692503e-315
  7.56256071e-315  7.30327594e-315 -7.60311396e-315 -7.33583787e-315
 -7.37418559e-315  7.53098173e-315 -7.76789851e-315 -7.64327954e-315
  7.78870087e-315 -7.79052965e-315 -7.35664448e-315  7.53269387e-315
 -7.61044630e-315 -7.78267926e-315  7.50652877e-315  7.68487799e-315
 -7.76480767e-315  7.47796333e-315 -7.50954922e-315 -7.54406874e-315
  7.76195973e-315  7.77478644e-315 -7.54876403e-315  7.55858411e-315
  7.66323384e-315 -7.69089534e-315 -7.41331291e-315  7.65512201e-315
 -7.33822872e-315 -7.58712382e-315 -7.47116358e-315  7.77094358e-315
  7.53776456e-315  7.31929218e-315 -7.55252704e-315 -7.59375053e-315
  7.67067632e-315  7.58063352e-315  7.65795123e-315 -7.76979529e-315]","[-7.34753311e-315 -7.59288364e-315 -7.77992700e-315 -7.36244492e-315
  7.37175402e-315 -7.46254299e-315 -7.59530548e-315  7.76786939e-315
 -7.64689306e-315 -7.50882901e-315 -7.76065023e-315 -7.32266414e-315
 -7.74223055e-315 -7.53932181e-315 -7.54468778e-315  7.46921052e-315
 -7.45491503e-315  7.55000807e-315 -7.50711075e-315  7.70559534e-315
  7.47881007e-315  7.49050303e-315 -7.62921348e-315  7.76281611e-315
 -7.51649653e-315  7.72757243e-315 -7.74208634e-315 -7.48161256e-315
 -7.76826479e-315  7.65185070e-315  7.39389227e-315 -7.54888094e-315
  7.42891214e-315 -7.46277174e-315 -7.36982751e-315 -7.45731905e-315
 -7.75094382e-315  7.32732809e-315  7.37509962e-315 -7.62603855e-315
  7.70357162e-315 -7.71180085e-315  7.74650401e-315  7.43780861e-315
 -7.68207056e-315  7.35926743e-315 -7.37531196e-315 -7.60517009e-315
  7.61918129e-315 -7.56370767e-315 -7.63480417e-315 -7.74073231e-315
 -7.67199132e-315 -7.52094097e-315  7.61384403e-315  7.31092070e-315
  7.30159630e-315  7.52491270e-315  7.74833145e-315 -7.32672839e-315
 -7.42850189e-315 -7.47693931e-315  7.51240511e-315 -7.64374118e-315
  7.69701266e-315 -7.43030558e-315 -7.62928507e-315  7.36733882e-315
  7.46619893e-315 -7.67994315e-315 -7.40382862e-315  7.50307896e-315
  7.31638553e-315 -7.46540771e-315 -7.65386065e-315  7.52701318e-315
 -7.37599486e-315  7.36948716e-315 -7.30675349e-315 -7.54033743e-315
  7.56131651e-315  7.36479288e-315 -7.59436145e-315 -7.53138148e-315
  7.37798616e-315 -7.49638052e-315  7.74739324e-315 -7.31320325e-315
  7.46843778e-315 -7.33529080e-315 -7.76511690e-315  7.36079745e-315
  7.30185711e-315  7.54313522e-315  7.61559960e-315  7.72497975e-315
  7.71941145e-315  7.72863507e-315 -7.43978417e-315 -7.66741305e-315
 -7.43076989e-315 -7.75207227e-315  7.72256226e-315 -7.32697864e-315
 -7.77299058e-315 -7.37998433e-315 -7.33755761e-315  7.60112159e-315
 -7.53418048e-315 -7.65660386e-315 -7.41924196e-315 -7.52359140e-315
  7.75351165e-315  7.52095350e-315 -7.60990217e-315  7.31002797e-315
 -7.67664646e-315  7.32777852e-315 -7.41510672e-315 -7.56709293e-315
 -7.52773778e-315 -7.75290238e-315  7.33133875e-315 -7.43505512e-315
  7.47261837e-315 -7.58693338e-315  7.39786786e-315  7.67337418e-315]","[ 7.51806741e-315 -1.70374681e-001  3.23534373e-001  1.53265344e-002
 -7.45591786e-315 -1.09660258e-001  1.89744616e-001 -7.17964693e-002
 -4.34300855e-001  2.41569646e-001 -7.31065873e-315 -7.66612036e-315
  3.32776147e-001 -2.10736011e-001 -5.72857605e-001  7.53155282e-315
  2.70958009e-001 -7.49716329e-315 -7.36772755e-315  3.25027486e-002
 -7.68005500e-315  3.71983793e-001  7.75508096e-315 -7.75945579e-315
 -6.49365004e-001 -7.66184774e-315 -1.02488094e-001  1.44960807e-001
  8.74795070e-002 -2.44480111e-001 -2.31420223e-001 -1.94926420e-243
 -6.86591353e-001  1.12459841e-001  7.76469187e-315 -7.60684505e-315
  7.56490357e-315 -7.49745270e-315  4.29831851e-002  6.27485235e-002
 -7.64167210e-315  4.85462998e-001  2.76700869e-001  5.47262212e-001
 -9.00622822e-002 -7.70836840e-315  2.73285882e-001  1.14823206e-001
  7.49385728e-315 -7.66055124e-315 -8.35219380e-001  3.19023886e-001
 -7.36523518e-315 -7.51471645e-315  4.49978950e-001 -3.07874758e-001
 -7.78347503e-315 -7.54504498e-315 -7.50950682e-315 -7.56039232e-315
 -1.08782746e-001 -2.25341266e-001  3.35927437e-001 -3.84434863e-001
 -7.04361859e-001 -7.55170315e-315  1.83016939e-002  4.64308992e-001
  1.89142604e-002  1.45383680e-001  7.33761710e-315  7.53857439e-315
 -1.01360522e+000  4.15249841e-001 -7.76989010e-315 -7.49610089e-315
  2.98437785e-002 -7.40739796e-315 -6.25100956e-001 -7.36715898e-315
 -7.74844274e-315 -7.77209365e-315 -7.59139135e-315  2.08215687e-001
 -7.73261099e-315 -2.48890180e-001 -7.63369790e-315 -3.04593652e-001
 -7.39019997e-315 -7.41804957e-315 -7.53630230e-315  7.43883941e-315
 -7.74058041e-315  5.23037365e-001 -7.39328518e-315  7.49723688e-315
  2.81459744e-002  7.59408746e-315 -4.11516535e-001  7.70635766e-315
  7.74781801e-315 -7.73002043e-315 -7.37170695e-315  1.51256562e-308
 -7.94103935e-002 -7.47845878e-315 -7.66866361e-315 -7.59043626e-315
 -7.72654384e-315 -7.34153749e-315 -7.58784177e-315 -7.74127374e-315
 -7.41210266e-315  7.55969977e-315 -7.63616625e-315  1.32308983e-001
 -1.48968786e-001  3.94314323e-001 -7.67375337e-315 -7.66942047e-315
 -7.68614644e-315  6.17862090e-002  7.56354373e-315 -1.97769269e-001
  7.62435312e-315 -7.45699325e-315 -1.94391338e-003 -1.96204557e+000]","[ 7.44229290e-315 -2.93783327e-003 -2.40552150e-001 -7.60971379e-001
  7.67781191e-315 -2.15426222e-001  2.57089519e-001 -6.57696773e-001
  5.03498820e-001  1.31064615e-001 -7.45164323e-315 -7.32436009e-315
 -7.43440212e-001 -1.15579957e-001  2.83562110e-001 -7.64595649e-315
  3.93104540e-003 -7.49088739e-315 -7.60898254e-315  3.24833357e-001
 -7.64184828e-315 -3.13457672e-001  7.43763219e-315  7.47835104e-315
 -6.87494481e-002  7.78669386e-315  2.16537986e-001  1.03438007e-001
  8.33114341e-002  9.09139025e-002 -4.23414811e-001 -4.19827425e-258
  3.72331999e-001  2.04203922e-001 -7.46104321e-315 -7.76502884e-315
  7.66029330e-315  7.39550414e-315  2.25892976e-001 -1.18222265e+000
 -7.34353395e-315 -4.99724634e-001 -4.53642594e-001 -3.07554116e-001
  6.85010482e-002  7.64953547e-315 -6.70896383e-001 -7.39102208e-001
 -7.38194052e-315  7.52623519e-315  3.82567263e-001  2.61842683e-001
 -7.75990055e-315 -7.51881755e-315  1.21979760e-002 -3.21999794e-002
 -7.78804406e-315 -7.76112013e-315 -7.40886963e-315 -7.65442418e-315
 -2.77558029e-001 -7.83331314e-002  3.37461021e-001  4.07854282e-001
  1.52169807e-001 -7.60470055e-315  1.29550353e-001 -1.13744538e+000
  3.41966699e-001  4.73802907e-001 -7.69611936e-315 -7.64170296e-315
  1.84105250e-001 -1.35362728e+000 -7.33728171e-315  7.38153073e-315
  3.35321399e-001 -7.69265852e-315  9.11100602e-002  7.34601248e-315
  7.44537361e-315  7.66828308e-315  7.75741575e-315 -1.08476107e-001
 -7.74826246e-315  2.85842639e-001 -7.65332884e-315 -7.35594047e-002
 -7.64339002e-315 -7.77819537e-315 -7.63683806e-315  7.56309337e-315
  7.58932265e-315 -2.39026564e-001  7.66710519e-315 -7.49060540e-315
  2.51230078e-001 -7.52719019e-315  5.57118485e-002  7.78118970e-315
 -7.42767692e-315 -7.45314003e-315 -7.71904931e-315 -7.62923843e-315
 -8.28454269e-002  7.49430372e-315 -7.77445383e-315 -7.66857189e-315
 -7.73049488e-315 -7.61778754e-315 -7.77374745e-315 -7.62326189e-315
 -7.39653000e-315 -7.72706795e-315 -7.35273025e-315  1.02357937e-002
 -8.32168252e-002  1.31561631e-001 -7.68058153e-315  7.52616202e-315
 -7.49414211e-315 -6.57269953e-002 -7.66341742e-315  3.12067933e-001
 -7.70446292e-315  7.47501365e-315  5.02874468e-001 -9.51093583e-002]","[-7.76486381e-315  7.35779867e-315  7.58720288e-315  7.67541344e-315
  7.36642654e-315  7.46433112e-315 -7.36478802e-315 -7.77631953e-315
  7.39710921e-315 -7.76924510e-315 -7.66985430e-315 -7.46220517e-315
 -7.31997169e-315  7.52857321e-315  7.40122576e-315 -7.37126588e-315
 -7.72041659e-315 -7.49459581e-315 -7.37549936e-315 -7.47041790e-315
  7.64966987e-315 -7.49822934e-315 -7.57475086e-315  7.41827756e-315
 -7.59217205e-315  7.37717674e-315  7.63534887e-315 -7.57670530e-315
  7.54011089e-315  7.57987872e-315  7.34449956e-315 -7.36678054e-315
  7.64560687e-315  7.65139141e-315 -7.65583042e-315 -7.76345590e-315
  7.74129677e-315 -7.61896828e-315 -7.54735718e-315 -7.42987429e-315
  7.67140295e-315 -7.47269239e-315  7.40288492e-315  7.32587600e-315
  7.53272887e-315 -7.54660741e-315  7.31541928e-315  7.47292973e-315
 -7.62438808e-315  7.44457160e-315  7.55036183e-315 -7.43211856e-315
 -7.44789174e-315 -7.64739004e-315  7.70330651e-315 -7.37532071e-315
 -7.54388554e-315  7.60381630e-315  7.60486349e-315 -7.40949512e-315
  7.48018510e-315  7.74497312e-315 -7.31743980e-315  7.30927346e-315
  7.61425942e-315  7.30334022e-315 -7.51918119e-315  7.61904954e-315
  7.54821888e-315 -7.49549529e-315  7.51893436e-315  7.72230402e-315
  7.47843378e-315 -7.46601510e-315 -7.76830937e-315 -7.54896584e-315
  7.53805884e-315 -7.35915784e-315  7.43120863e-315  7.39788759e-315
 -7.74717093e-315 -7.68801783e-315  7.69831834e-315 -7.65496008e-315
 -7.40102562e-315  7.58693755e-315 -7.59803152e-315 -7.37281998e-315
 -7.46249213e-315 -7.35874691e-315 -7.38467422e-315 -7.44312540e-315
  7.45873296e-315 -7.66174033e-315  7.30441985e-315 -7.67444255e-315
  7.50333601e-315 -7.67466522e-315  7.56543733e-315 -7.32183519e-315
 -7.39959705e-315 -7.55752151e-315  7.38594258e-315 -7.76314807e-315
  7.56225425e-315 -7.49061023e-315 -7.72293458e-315  7.50176109e-315
 -7.72728772e-315 -7.60489212e-315 -7.76115647e-315 -7.54082880e-315
 -7.74343368e-315 -7.78252136e-315  7.33043394e-315 -7.63162898e-315
 -7.44555827e-315 -7.52765047e-315 -7.73222421e-315 -7.63726702e-315
  7.44856729e-315  7.56489199e-315 -7.66883670e-315 -7.71829366e-315
 -7.54709879e-315  7.74748668e-315  7.39764006e-315  7.64363979e-315]","[ 7.52068489e-315  7.31361997e-315  7.53329903e-315 -7.42606760e-315
  7.49520045e-315 -7.60155832e-315  7.42377980e-315  7.46365155e-315
 -7.45135938e-315 -7.33272081e-315  7.78067709e-315  7.32543176e-315
 -7.66814102e-315  7.45686679e-315 -7.36465335e-315 -7.59437647e-315
 -7.78409118e-315 -7.33899112e-315 -7.69993138e-315  7.55150863e-315
  7.40376225e-315 -7.54699214e-315  7.43414221e-315  7.69829946e-315
  7.63390637e-315  7.34109858e-315 -7.53957806e-315 -7.72535843e-315
  7.67428929e-315  7.50589240e-315 -7.64916660e-315 -7.37289418e-315
  7.56353855e-315 -7.30492518e-315  7.58287779e-315 -7.41276353e-315
 -7.75461398e-315  7.60810686e-315  7.50940487e-315 -7.41498234e-315
  7.51458712e-315 -7.30636684e-315  7.74962368e-315 -7.41013327e-315
  7.35410207e-315 -7.48132899e-315 -7.60388628e-315  7.57128356e-315
 -7.75468664e-315  7.55945946e-315 -7.77797966e-315 -7.45580437e-315
 -7.49045337e-315 -7.73798053e-315 -7.69336322e-315  7.63217113e-315
 -7.30877128e-315 -7.53711593e-315 -7.38741059e-315  7.64190735e-315
  7.68807196e-315  7.74411098e-315 -7.59528573e-315 -7.43863508e-315
 -7.37206474e-315  7.31237225e-315 -7.73822767e-315  7.57412997e-315
  7.53730961e-315 -7.56916689e-315 -7.60949764e-315  7.44173988e-315
 -7.61276832e-315 -7.64742763e-315 -7.41189386e-315  7.41507938e-315
  7.49730185e-315 -7.55077144e-315 -7.30464851e-315 -7.61393840e-315
 -7.50030340e-315 -7.46331521e-315  7.75752734e-315  7.46686248e-315
  7.40534083e-315  7.51122940e-315  7.68371899e-315 -7.75322419e-315
 -7.37843171e-315  7.71059013e-315 -7.69111768e-315  7.47660636e-315
 -7.73193555e-315  7.76255191e-315  7.35285957e-315 -7.59417796e-315
 -7.66330828e-315  7.42427925e-315 -7.49221740e-315  7.72244853e-315
  7.55602164e-315  7.33216701e-315  7.31953647e-315  7.39002369e-315
  7.33482458e-315 -7.54063016e-315 -7.41501379e-315 -7.51733460e-315
 -7.50644458e-315  7.74122139e-315  7.40049236e-315  7.77953294e-315
 -7.63494783e-315  7.47389054e-315 -7.59551224e-315  7.38889479e-315
  7.40429078e-315 -7.76871440e-315 -7.41378843e-315  7.35563624e-315
  7.70269303e-315 -7.37873271e-315 -7.39533918e-315 -7.62088298e-315
  7.71680231e-315  7.52177123e-315  7.62975553e-315  7.47083624e-315]","[-7.55418933e-315  7.53188559e-315 -7.64988763e-315  7.52390088e-315
  7.72422748e-315  7.37649090e-315  7.49322482e-315 -7.33146176e-315
 -7.62393499e-315 -7.74070527e-315  7.75597921e-315  7.68663748e-315
 -7.59416333e-315 -7.55812241e-315 -7.44789044e-315  7.52874875e-315
 -7.77656432e-315 -7.45244833e-315 -7.41500011e-315 -7.36953840e-315
 -7.61245658e-315  7.67364485e-315  7.57508735e-315  7.79158198e-315
  7.39001602e-315  7.73850927e-315 -7.62697157e-315 -7.37228006e-315
  7.64873432e-315  7.32518156e-315 -7.42960620e-315 -7.49891062e-315
 -7.73237868e-315  7.53401544e-315 -7.46403926e-315  7.38949253e-315
 -7.41460505e-315  7.78646046e-315  7.47484501e-315 -7.33766358e-315
  7.71215815e-315  7.46106242e-315 -7.49361401e-315 -7.54230644e-315
  7.67613715e-315 -7.38234065e-315 -7.42893457e-315 -7.70808142e-315
  7.48029226e-315 -7.72404100e-315  7.45551914e-315 -7.35747976e-315
 -7.75792157e-315  7.73923333e-315 -7.75244407e-315  7.49575746e-315
 -7.67320609e-315 -7.43473334e-315  7.42875702e-315  7.42588539e-315
  7.51630730e-315 -7.42225067e-315 -7.74249755e-315 -7.39323257e-315
  7.47302499e-315  7.50438787e-315  7.39475667e-315  7.36275243e-315
  7.79141714e-315  7.67431219e-315 -7.74874999e-315 -7.37823338e-315
 -7.31213108e-315  7.75907321e-315 -7.38029864e-315  7.48440598e-315
 -7.64558957e-315 -7.43918350e-315  7.45953323e-315 -7.58689529e-315
 -7.58150808e-315 -7.38656232e-315  7.41560887e-315  7.30660323e-315
  7.61990806e-315  7.44537215e-315 -7.73745832e-315 -7.56595458e-315
  7.63058459e-315  7.62348787e-315 -7.34125443e-315  7.36856879e-315
 -7.71663017e-315 -7.36742563e-315 -7.39021852e-315  7.52577484e-315
 -7.40872122e-315 -7.71887919e-315  7.69663655e-315  7.38556821e-315
  7.53539848e-315 -7.73689887e-315  7.48684593e-315  7.47795642e-315
  7.56728498e-315 -7.33035379e-315  7.71011534e-315  7.55936295e-315
 -7.50213638e-315  7.40863308e-315  7.37284867e-315 -7.65095653e-315
  7.42243373e-315 -7.31166332e-315  7.48167440e-315  7.37543311e-315
 -7.55110181e-315  7.77299369e-315  7.77168647e-315  7.43896619e-315
 -7.76611509e-315  7.68100561e-315 -7.40535604e-315  7.37772065e-315
 -7.44530400e-315 -7.74786662e-315 -7.53527164e-315 -7.68988277e-315]","[ 7.38618524e-315 -7.47617560e-315 -7.70013191e-315 -7.57403303e-315
  7.75705869e-315  7.72643126e-315  7.37402716e-315  7.56996523e-315
 -7.77157902e-315  7.63216194e-315 -7.37430061e-315  7.71433500e-315
  7.61316694e-315  7.79055983e-315  7.46230243e-315  7.48252251e-315
  7.53424232e-315  7.71857783e-315 -7.42859809e-315 -7.68239433e-315
 -7.30110897e-315 -7.30921126e-315 -7.54471927e-315 -7.33108071e-315
  7.67652989e-315 -7.77488987e-315 -7.74429213e-315 -7.50808681e-315
 -7.50770451e-315  7.53179174e-315 -7.31306957e-315 -7.56339437e-315
 -7.63447064e-315  7.44487371e-315 -7.50487283e-315 -7.49038896e-315
  7.57475498e-315 -7.55453889e-315 -7.35198896e-315  7.56914120e-315
 -7.50299019e-315  7.30912100e-315 -7.43386656e-315 -7.32433269e-315
 -7.48570626e-315 -7.65393645e-315  7.41249836e-315 -7.63053102e-315
  7.73045868e-315 -7.65940652e-315  7.35439262e-315  7.54537624e-315
  7.74873196e-315  7.67855855e-315 -7.39584053e-315  7.75906585e-315
  7.34260775e-315  7.54009015e-315 -7.74676023e-315  7.75859258e-315
  7.39746588e-315  7.44069203e-315 -7.65372460e-315  7.62621942e-315
  7.57305869e-315  7.54005196e-315  7.40087635e-315 -7.62750592e-315
  7.38200017e-315 -7.79217880e-315  7.77161539e-315 -7.61548682e-315
  7.58733429e-315 -7.65526054e-315  7.31338762e-315  7.62777428e-315
 -7.62943282e-315 -7.68207307e-315  7.64313115e-315 -7.43558340e-315
 -7.33595926e-315 -7.63810242e-315 -7.40010149e-315  7.46053352e-315
  7.73436974e-315  7.57610020e-315 -7.63316947e-315  7.71431441e-315
  7.78712412e-315 -7.68237966e-315  7.35938193e-315 -7.62509096e-315
 -7.52826822e-315 -7.53959546e-315 -7.74410682e-315  7.44619856e-315
 -7.61928411e-315  7.40212437e-315  7.73753684e-315 -7.57919727e-315
 -7.59892521e-315 -7.67104692e-315 -7.63275113e-315 -7.66165136e-315
  7.35509259e-315 -7.70091584e-315  7.59801543e-315 -7.41742365e-315
  7.70400989e-315  7.73000243e-315 -7.68201231e-315 -7.33334860e-315
  7.61090782e-315  7.63502563e-315 -7.53836582e-315 -7.59441525e-315
 -7.62521206e-315 -7.66901430e-315  7.59543106e-315  7.74096474e-315
 -7.44865974e-315  7.40348879e-315  7.42772825e-315 -7.33696381e-315
 -7.37354736e-315  7.55923138e-315  7.55419388e-315 -7.52771893e-315]","[-7.49559801e-315  7.74369312e-315 -7.58917520e-315 -7.45258268e-315
 -7.50873952e-315  7.65382345e-315  7.51013391e-315 -7.40339275e-315
  7.49866485e-315 -7.74645773e-315  7.76302449e-315 -7.48367843e-315
 -7.37159547e-315 -7.37011373e-315  7.73610875e-315  7.59132372e-315
  7.37252000e-315 -7.30740574e-315 -7.56780133e-315  7.61197706e-315
  7.57892425e-315 -7.66866294e-315  7.77773739e-315  7.74473056e-315
 -7.62439589e-315 -7.77526082e-315  7.46019092e-315  7.35803712e-315
  7.49678593e-315 -7.66038660e-315  7.38711973e-315 -7.43488738e-315
 -7.77896707e-315 -7.45268149e-315  7.77516990e-315  7.55242775e-315
  7.44796023e-315 -7.36160468e-315 -7.50082228e-315  7.47559273e-315
 -7.59601334e-315 -7.53220207e-315  7.43152738e-315  7.45025951e-315
 -7.79099262e-315  7.56417138e-315 -7.40694238e-315  7.35189333e-315
 -7.36357646e-315  7.51581426e-315  7.68362271e-315  7.56051076e-315
 -7.46191571e-315  7.32048851e-315 -7.66005281e-315  7.35789960e-315
  7.38055656e-315 -7.61004514e-315 -7.36017892e-315 -7.50615083e-315
  7.42935696e-315  7.68171791e-315  7.43422028e-315 -7.76215997e-315
  7.53729337e-315 -7.53534372e-315  7.53854141e-315  7.33769535e-315
 -7.51676510e-315 -7.53764499e-315 -7.32520824e-315  7.76837429e-315
  7.37444357e-315 -7.58268310e-315 -7.35420074e-315 -7.75447359e-315
 -7.34294173e-315  7.73912506e-315 -7.62214359e-315 -7.71955623e-315
  7.35928418e-315  7.31065889e-315 -7.65476284e-315 -7.41094367e-315
  7.34394671e-315  7.41571163e-315 -7.38863895e-315 -7.47079065e-315
  7.66720873e-315  7.51258287e-315  7.40424854e-315 -7.51597347e-315
  7.61530681e-315  7.49699965e-315  7.39035998e-315 -7.72976366e-315
 -7.54096097e-315 -7.32349738e-315  7.74773376e-315 -7.72129882e-315
  7.44375469e-315 -7.52090512e-315 -7.40508873e-315 -7.35023970e-315
  7.46475948e-315 -7.30670598e-315  7.71705811e-315  7.48893657e-315
 -7.31525291e-315 -7.35403025e-315 -7.52904134e-315 -7.77981372e-315
 -7.75166060e-315 -7.65922405e-315 -7.67195390e-315 -7.68505745e-315
 -7.72273065e-315  7.51384578e-315 -7.42328149e-315  7.31829076e-315
 -7.71798230e-315 -7.44549875e-315  7.54350087e-315 -7.78983904e-315
 -7.60729656e-315 -7.64779956e-315  7.53422665e-315  7.47303939e-315]","[-7.32470523e-315 -7.61574655e-315 -7.36733296e-315  7.35725483e-315
  7.71916687e-315  7.39133716e-315  7.47122481e-315 -7.47742462e-315
  7.39141448e-315  7.69039996e-315 -7.43858365e-315  7.70671219e-315
  7.37925681e-315  7.57041062e-315 -7.69869488e-315  7.34692597e-315
 -7.43638509e-315  7.37717115e-315  7.66118669e-315  7.44708995e-315
  7.70426725e-315  7.76959511e-315  7.66974450e-315 -7.38906515e-315
 -7.53072527e-315 -7.56746385e-315  7.65757549e-315 -7.61333261e-315
  7.51888664e-315  7.59398963e-315 -7.74092012e-315 -7.30455997e-315
 -7.67429246e-315 -7.34781770e-315 -7.57020527e-315 -7.66500573e-315
 -7.44629022e-315  7.53374281e-315  7.70096849e-315 -7.56707350e-315
 -7.66590240e-315  7.54230862e-315  7.47976753e-315  7.42027037e-315
  7.69092656e-315 -7.54926593e-315 -7.44805868e-315  7.33203566e-315
 -7.59884628e-315  7.77617384e-315  7.57003620e-315  7.64118359e-315
  7.73739971e-315  7.49309484e-315  7.62377789e-315  7.78485529e-315
 -7.53200311e-315 -7.59530957e-315  7.50262713e-315  7.78714189e-315
 -7.70206551e-315 -7.31951957e-315 -7.66895418e-315  7.57080211e-315
 -7.58352511e-315 -7.67383934e-315  7.78227286e-315  7.65867009e-315
  7.74577406e-315 -7.74027903e-315 -7.30186887e-315  7.52887665e-315
 -7.30510478e-315  7.37095868e-315  7.76722964e-315 -7.52419701e-315
  7.75592637e-315  7.40539267e-315  7.69451498e-315 -7.61561245e-315
 -7.61697766e-315  7.42446642e-315 -7.73450509e-315  7.45261932e-315
 -7.77047422e-315 -7.42087536e-315 -7.74371340e-315 -7.74008954e-315
  7.37552028e-315  7.34990047e-315  7.37067312e-315 -7.51099614e-315
  7.54372320e-315 -7.52086665e-315  7.67355064e-315 -7.51111854e-315
 -7.39796307e-315 -7.57735314e-315  7.57776932e-315  7.30987592e-315
  7.62099191e-315 -7.32151521e-315  7.58374973e-315  7.53605148e-315
  7.52513919e-315  7.47187311e-315  7.32660381e-315  7.67358855e-315
 -7.75032095e-315 -7.62588784e-315 -7.69266459e-315  7.38726051e-315
 -7.38205497e-315  7.67980956e-315 -7.72484535e-315  7.76098552e-315
  7.76108500e-315 -7.45451991e-315  7.42355394e-315  7.59840861e-315
  7.46158855e-315 -7.68766201e-315 -7.73608991e-315 -7.35122044e-315
  7.36502220e-315  7.65789756e-315 -7.40455793e-315 -7.36927860e-315]","[ 7.57918232e-315 -7.74036488e-315  7.68473227e-315 -7.78741189e-315
  7.50675199e-315 -7.60215655e-315 -7.75814073e-315  7.76338096e-315
 -7.44289882e-315 -7.65161498e-315 -7.55199167e-315  7.71316848e-315
 -7.75101154e-315 -7.44269415e-315  7.59332749e-315  7.74301651e-315
  7.32308194e-315 -7.72653627e-315 -7.43959212e-315 -7.42416295e-315
 -7.76865828e-315 -7.52987602e-315  7.66879166e-315 -7.41265050e-315
  7.73882188e-315  7.64763126e-315  7.56689530e-315 -7.43325755e-315
 -7.48901971e-315  7.75028382e-315  7.76509473e-315 -7.70523690e-315
  7.52407196e-315 -7.67875868e-315  7.53341428e-315  7.64008373e-315
  7.54667841e-315  7.68669767e-315  7.55689858e-315 -7.76348774e-315
 -7.33842333e-315 -7.72743342e-315  7.40861314e-315 -7.47637193e-315
 -7.46003795e-315 -7.67200070e-315  7.76424394e-315 -7.78033271e-315
 -7.70370780e-315 -7.75373285e-315  7.69949398e-315 -7.35036169e-315
 -7.41014812e-315 -7.51679060e-315 -7.43551024e-315 -7.30853007e-315
  7.70624364e-315  7.70744742e-315  7.68037839e-315 -7.51613563e-315
 -7.47697345e-315 -7.32995526e-315 -7.36968604e-315 -7.34692238e-315
  7.69977642e-315 -7.45415539e-315 -7.43478148e-315 -7.36666400e-315
 -7.69609887e-315 -7.64156303e-315 -7.36218011e-315 -7.40875241e-315
  7.32084385e-315  7.51610381e-315 -7.42519869e-315  7.64234113e-315
 -7.60895829e-315  7.71486872e-315 -7.57463642e-315 -7.51581383e-315
  7.75433552e-315 -7.53810835e-315  7.57358082e-315  7.41425009e-315
  7.79199507e-315 -7.56025501e-315 -7.38684964e-315 -7.34033015e-315
 -7.52036247e-315 -7.59327012e-315  7.48862801e-315 -7.72630424e-315
  7.60172563e-315 -7.57062355e-315  7.49129059e-315 -7.36802656e-315
  7.67481631e-315 -7.48052107e-315  7.37284804e-315  7.77267085e-315
 -7.75437867e-315  7.44750692e-315  7.42468269e-315 -7.42477512e-315
  7.34782205e-315  7.48968583e-315  7.69639790e-315 -7.56504609e-315
 -7.75293163e-315  7.72308343e-315  7.52078918e-315  7.45475907e-315
  7.61432221e-315 -7.73083736e-315  7.51402575e-315  7.70687592e-315
  7.61926035e-315 -7.46804747e-315 -7.50648632e-315  7.32658155e-315
 -7.37432387e-315  7.64301441e-315 -7.77119869e-315  7.51642445e-315
 -7.36921449e-315 -7.56858341e-315  7.78294012e-315 -7.67419231e-315]","[-7.62430487e-315 -7.73380700e-315  7.72393066e-315  7.72664786e-315
 -7.65387460e-315  7.36963767e-315  7.50297024e-315  7.47706450e-315
  7.48449669e-315 -7.72716756e-315  7.62844528e-315 -7.35355928e-315
 -7.58920271e-315 -7.74012716e-315 -7.44185473e-315  7.47275942e-315
  7.62306103e-315  7.77129204e-315  7.46365769e-315  7.42692850e-315
  7.48930941e-315  7.55934426e-315 -7.36696654e-315 -7.45811132e-315
  7.59238300e-315  7.52410336e-315  7.61446398e-315 -7.62079463e-315
  7.32321361e-315  7.46225180e-315 -7.35040655e-315 -7.35232407e-315
 -7.79092099e-315 -7.52709985e-315  7.66884431e-315  7.75113061e-315
 -7.51919143e-315 -7.39533708e-315  7.37806050e-315 -7.61893388e-315
  7.68289831e-315  7.35916619e-315  7.72242393e-315 -7.56702169e-315
 -7.65422561e-315 -7.40602035e-315  7.76183889e-315 -7.53848407e-315
 -7.36772449e-315 -7.32772978e-315  7.54843550e-315  7.48285520e-315
  7.37337972e-315 -7.75075391e-315 -7.30001377e-315 -7.61167486e-315
 -7.63950713e-315 -7.60041065e-315  7.55053325e-315  7.56982331e-315
  7.70760006e-315  7.69626038e-315  7.43589783e-315 -7.74419163e-315
 -7.32383018e-315  7.43311647e-315  7.35623775e-315  7.45549575e-315
 -7.52213226e-315  7.58359197e-315  7.59877235e-315 -7.67041009e-315
 -7.70765413e-315  7.75479975e-315 -7.54469594e-315 -7.46027165e-315
  7.64011938e-315  7.67973758e-315 -7.58779208e-315 -7.33795600e-315
  7.47602434e-315  7.78079166e-315 -7.42106236e-315  7.37887646e-315
  7.36894747e-315  7.58754098e-315  7.50537719e-315 -7.60186085e-315
  7.48700181e-315 -7.38591760e-315  7.60880831e-315  7.36974649e-315
  7.75145716e-315  7.59543940e-315 -7.58323307e-315  7.50854201e-315
  7.37917692e-315  7.39288842e-315 -7.57464107e-315  7.39523333e-315
  7.47684928e-315 -7.77085645e-315  7.52526267e-315 -7.49468069e-315
  7.71658913e-315  7.61613487e-315 -7.61333722e-315 -7.33883986e-315
  7.49202207e-315 -7.63758387e-315 -7.32966803e-315 -7.50364642e-315
 -7.63427903e-315 -7.42117323e-315  7.64066212e-315  7.59984210e-315
  7.76166543e-315  7.62415920e-315 -7.69941830e-315 -7.30060038e-315
  7.50334592e-315 -7.66601882e-315  7.67878930e-315  7.46980659e-315
 -7.34948582e-315 -7.36890301e-315 -7.48379950e-315  7.56502176e-315]","[ 7.35074893e-315 -7.41922533e-315 -7.65078319e-315 -7.74491092e-315
  7.54567416e-315  7.42584027e-315  7.33664330e-315  7.45148301e-315
 -7.46091792e-315 -7.32539290e-315 -7.75883422e-315  7.58749979e-315
  7.48430361e-315 -7.52921075e-315 -7.35342580e-315  7.75554647e-315
  7.61255249e-315  7.62515936e-315 -7.57020762e-315 -7.45837494e-315
  7.59179581e-315 -7.37549377e-315 -7.49150831e-315  7.40889761e-315
  7.76399157e-315 -7.30552046e-315  7.72670275e-315 -7.76306514e-315
  7.59514521e-315 -7.32540491e-315  7.38844508e-315 -7.43552803e-315
 -7.70718875e-315  7.63933777e-315  7.52276104e-315 -7.37745909e-315
 -7.32784630e-315  7.52537653e-315 -7.47126172e-315  7.66175070e-315
 -7.54222514e-315 -7.69259855e-315 -7.34184454e-315 -7.71929646e-315
  7.55581302e-315  7.38217931e-315 -7.61749313e-315  7.43071459e-315
  7.71383962e-315 -7.55549084e-315 -7.65553377e-315 -7.31150799e-315
 -7.71907104e-315 -7.71922604e-315 -7.63294358e-315 -7.59116731e-315
  7.64314509e-315  7.54183018e-315  7.65514116e-315  7.44812930e-315
 -7.30209413e-315 -7.73660749e-315  7.56286919e-315  7.49440380e-315
 -7.76728702e-315 -7.61469024e-315  7.76170408e-315 -7.72852861e-315
 -7.61545044e-315  7.53563219e-315 -7.44411345e-315  7.55200391e-315
 -7.33712657e-315  7.53330484e-315 -7.35017297e-315 -7.41944554e-315
  7.58794085e-315 -7.59728198e-315 -7.38291974e-315  7.43761502e-315
 -7.44151021e-315  7.72965148e-315 -7.74674288e-315  7.62821719e-315
  7.78083774e-315 -7.64434918e-315  7.38798127e-315  7.64754995e-315
 -7.55591977e-315  7.55209265e-315 -7.45980860e-315  7.33358470e-315
 -7.65955945e-315 -7.47219417e-315 -7.59618982e-315  7.74366252e-315
  7.74785220e-315  7.70087451e-315 -7.64996320e-315 -7.63507490e-315
  7.68777530e-315  7.62795133e-315  7.55472532e-315 -7.47644126e-315
  7.56151487e-315 -7.75975803e-315  7.35138156e-315  7.46918164e-315
 -7.61159370e-315  7.60963172e-315  7.55610226e-315 -7.60454688e-315
 -7.65577925e-315 -7.56131864e-315  7.62975256e-315  7.60298135e-315
  7.54875941e-315  7.43711072e-315 -7.41742022e-315 -7.58283615e-315
  7.40623109e-315  7.55552650e-315  7.71602925e-315 -7.65619260e-315
  7.36837041e-315 -7.52594748e-315 -7.74126751e-315  7.73412730e-315]","[ 7.46004065e-315  7.31233797e-315 -7.43319197e-315  7.32754185e-315
  7.71698039e-315 -7.44278607e-315  7.73080893e-315 -7.68893024e-315
  7.33251105e-315 -7.39603272e-315  7.62216247e-315 -7.65823298e-315
 -7.73044995e-315  7.58044064e-315  7.68316742e-315  7.47697160e-315
 -7.35225099e-315  7.55480382e-315 -7.58875539e-315  7.31417382e-315
 -7.77142517e-315 -7.63035635e-315 -7.62788588e-315 -7.45303359e-315
 -7.76521660e-315  7.69328360e-315  7.30320210e-315 -7.45934424e-315
 -7.31501861e-315  7.30285925e-315 -7.69384488e-315 -7.78807492e-315
  7.62907991e-315 -7.41095601e-315  7.38879892e-315  7.60575488e-315
 -7.33212564e-315 -7.70200274e-315  7.32113684e-315 -7.34158055e-315
 -7.55396001e-315 -7.50927539e-315 -7.57606907e-315 -7.61670513e-315
  7.35192134e-315 -7.60277638e-315 -7.45276099e-315 -7.72629932e-315
 -7.78066481e-315 -7.53413437e-315  7.53277412e-315 -7.56965985e-315
 -7.64075160e-315 -7.48891282e-315 -7.77858927e-315  7.74938426e-315
  7.48527193e-315  7.47934628e-315 -7.50974281e-315  7.74596385e-315
  7.47153191e-315 -7.78542924e-315 -7.78858186e-315  7.55692664e-315
  7.72428356e-315  7.63880177e-315  7.58970112e-315  7.45198955e-315
  7.37589889e-315 -7.45919582e-315 -7.48489722e-315 -7.65398024e-315
  7.50400547e-315 -7.45240423e-315 -7.54264278e-315 -7.62445352e-315
  7.66260159e-315 -7.71196441e-315 -7.77342089e-315  7.36158278e-315
  7.78424586e-315  7.34561053e-315 -7.46906672e-315 -7.75786203e-315
 -7.57999593e-315  7.40513306e-315  7.64551056e-315 -7.76935778e-315
 -7.76533766e-315  7.47003551e-315 -7.35451082e-315 -7.39618343e-315
 -7.31659515e-315  7.33037474e-315  7.61221424e-315 -7.55605432e-315
  7.70687608e-315 -7.33941283e-315  7.59815210e-315 -7.51346960e-315
  7.54962241e-315 -7.60570709e-315  7.59746281e-315 -7.67483879e-315
  7.36442298e-315  7.57994779e-315  7.36571338e-315  7.69328407e-315
 -7.56754986e-315 -7.66856531e-315 -7.41351687e-315  7.74276319e-315
  7.68406078e-315  7.31043706e-315  7.50855802e-315  7.41070848e-315
 -7.46129611e-315 -7.71595446e-315 -7.60490751e-315 -7.49433154e-315
 -7.71571905e-315  7.48914172e-315  7.37073966e-315  7.63556038e-315
  7.44630090e-315 -7.60865012e-315  7.36300728e-315 -7.48234700e-315]","[-7.64280945e-315  7.67408803e-315 -7.31187636e-315  7.36749882e-315
  7.43369430e-315 -7.53836698e-315  7.74101425e-315 -7.34487003e-315
  7.44229203e-315 -7.56503227e-315 -7.32194456e-315 -7.47373803e-315
  7.55859157e-315  7.45663529e-315  7.31662439e-315 -7.35929114e-315
 -7.30028545e-315  7.52034622e-315  7.75370566e-315  7.51677152e-315
 -7.40030797e-315 -7.63103336e-315 -7.60600231e-315  7.37454820e-315
  7.35635102e-315 -7.75111615e-315  7.58219006e-315 -7.37026422e-315
 -7.73960769e-315  7.67048912e-315  7.48688734e-315 -7.30074751e-315
  7.56152309e-315  7.64136305e-315  7.67571715e-315  7.37779010e-315
  7.55293393e-315 -7.75147960e-315  7.71420952e-315  7.78830620e-315
 -7.77006119e-315 -7.37963474e-315 -7.54991821e-315 -7.39087448e-315
 -7.73657871e-315  7.44898595e-315 -7.38203418e-315 -7.49062422e-315
 -7.51400802e-315 -7.45995804e-315  7.77671949e-315  7.61509749e-315
 -7.70626067e-315 -7.45235291e-315 -7.53024651e-315  7.45887311e-315
 -7.36849174e-315 -7.34979609e-315  7.66818155e-315 -7.45168585e-315
  7.33722744e-315 -7.34370516e-315 -7.45602615e-315  7.65753981e-315
  7.66541878e-315 -7.70936212e-315  7.62054346e-315 -7.35052578e-315
  7.55141413e-315  7.38437374e-315  7.71704330e-315 -7.52731379e-315
  7.51988077e-315 -7.59363873e-315 -7.62642418e-315 -7.42849376e-315
  7.63234932e-315 -7.36202637e-315 -7.36826875e-315  7.68251427e-315
  7.37185498e-315  7.46111129e-315  7.38617862e-315 -7.40965734e-315
  7.44240438e-315  7.53847544e-315  7.75271009e-315  7.35825453e-315
  7.60490711e-315  7.59762107e-315  7.74205545e-315 -7.56148428e-315
  7.57435718e-315 -7.73897826e-315 -7.57351356e-315 -7.41712094e-315
 -7.39351701e-315  7.75899271e-315  7.78217587e-315  7.69535256e-315
  7.41022952e-315  7.32107680e-315  7.55484724e-315 -7.38805071e-315
  7.37487514e-315 -7.47062686e-315 -7.53655163e-315  7.44245181e-315
 -7.62818835e-315 -7.70821441e-315 -7.70774230e-315 -7.42887347e-315
  7.48115786e-315 -7.41448136e-315  7.56595899e-315  7.33368162e-315
 -7.50423528e-315 -7.78584393e-315  7.42465641e-315  7.55638926e-315
 -7.74703897e-315  7.71239621e-315  7.43042437e-315  7.39423085e-315
  7.50605629e-315  7.40328246e-315  7.31466083e-315  7.47239775e-315]","[-7.72585793e-315  2.50995528e-001  4.02792977e-001  6.10194080e-001
  7.48926281e-315  1.40281460e-001 -3.09067354e-002 -2.45863557e-001
 -1.16843144e-001  1.70798808e-001 -7.37939191e-315 -7.77418997e-315
  4.42585144e-001  2.85757474e-001  2.27899723e-001 -7.76032486e-315
  3.84447197e-001 -7.58530335e-315 -7.53931520e-315  7.99801040e-003
 -7.30383494e-315 -5.91519481e-002 -7.33403303e-315 -7.75136835e-315
  5.36755504e-001 -7.66287996e-315 -9.66328123e-002  4.15345920e-001
  2.40498560e-001  1.51827550e-001  3.06453078e-001  2.23082376e-240
 -1.80522259e-001  2.94767473e-001 -7.31520162e-315 -7.31313008e-315
 -7.54441744e-315 -7.38944747e-315 -1.82213528e-001 -4.09739466e-001
  7.33934741e-315 -1.95325839e-001  3.41620671e-001 -4.82580494e-001
  1.77785776e-001 -7.74016318e-315  2.72321111e-001 -5.36111580e-001
 -7.70497357e-315 -7.39255809e-315  3.26097218e-002  6.28641437e-002
 -7.76345187e-315 -7.44638471e-315 -2.55431377e-001 -1.73298620e+000
 -7.32440496e-315 -7.57071670e-315 -7.54947136e-315 -7.34685889e-315
 -1.47867388e-001  4.68292040e-001 -2.83057027e-001 -2.22337350e-002
 -1.97194187e-001 -7.55531189e-315 -1.05531656e-001 -1.17280910e-001
 -1.22014945e-001 -7.27848081e-001 -7.30224647e-315  7.37430285e-315
 -5.35355635e-001  2.71748612e-002 -7.40070019e-315 -7.45855532e-315
  2.32961709e-001 -7.60661063e-315  4.36539001e-001  7.67293584e-315
  7.64578382e-315 -7.66284051e-315 -7.72276267e-315  3.32098733e-001
 -7.53084197e-315  2.29935700e-001 -7.58584951e-315  5.41410793e-001
  7.41239840e-315  7.57237856e-315 -7.74745746e-315 -7.56023791e-315
 -7.71717230e-315 -1.31446837e+000 -7.57764396e-315 -7.34981647e-315
 -1.36910921e-001 -7.40882530e-315  5.64723188e-001 -7.77969318e-315
  7.47034065e-315 -7.38850892e-315 -7.58795345e-315 -7.41302638e-315
 -1.16001076e-001 -7.73399539e-315 -7.38122018e-315 -7.76661985e-315
 -7.64819995e-315 -7.60099619e-315 -7.49524878e-315 -7.79023632e-315
 -7.31969201e-315 -7.74754635e-315  7.64216126e-315 -3.24301918e-001
 -1.42252419e-001 -1.41903893e-001 -7.55149044e-315  7.79273113e-315
  7.48474459e-315 -8.35938388e-001 -7.70899783e-315 -9.28227396e-003
  7.65697509e-315 -7.60606949e-315 -5.60828782e-001 -2.73048667e-001]"
