"[-7.51947537e-315  7.39073640e-315  7.45513851e-315  7.63356849e-315
  7.32474717e-315  7.52522166e-315 -7.76441372e-315 -7.55241068e-315
  7.31487293e-315 -7.37149206e-315 -7.67928784e-315  7.77979046e-315
  7.31443942e-315  7.51681623e-315  7.62921918e-315  7.77449193e-315
 -7.62756536e-315  7.69874712e-315  7.48140653e-315 -7.72538040e-315
  7.53183430e-315 -7.73043220e-315 -7.47512233e-315 -7.53843842e-315
 -7.34054060e-315 -7.56989316e-315  7.52703997e-315 -7.41918762e-315
 -7.67154119e-315  7.61976670e-315 -7.33333686e-315  7.45629691e-315
  7.58383806e-315  7.44737230e-315  7.72692457e-315 -7.61566955e-315
  7.36048782e-315  7.31292566e-315 -7.71661074e-315 -7.46927510e-315
  7.36678576e-315 -7.78185942e-315 -7.46652128e-315 -7.75432137e-315
  7.63359883e-315 -7.41762863e-315 -7.51564217e-315 -7.53860131e-315
  7.58684089e-315  7.66302086e-315  7.47491235e-315  7.34465636e-315
 -7.53361398e-315 -7.66841528e-315 -7.74998675e-315 -7.62730266e-315
 -7.50451692e-315 -7.36973653e-315  7.79335033e-315 -7.42316114e-315
 -7.71178922e-315  7.77802392e-315  7.41532559e-315  7.52435175e-315
  7.48942439e-315 -7.62436311e-315 -7.37766877e-315 -7.76451755e-315
  7.76043933e-315 -7.36245970e-315  7.73522542e-315 -7.72541211e-315
 -7.61344712e-315 -7.75727515e-315 -7.47156882e-315  7.31030208e-315
 -7.57031636e-315 -7.38091941e-315  7.59419820e-315  7.40778997e-315
  7.47214737e-315  7.34750986e-315  7.42514279e-315 -7.76222000e-315
  7.55714882e-315  7.58375902e-315  7.58971304e-315  7.42726518e-315
 -7.75629934e-315 -7.77592856e-315  7.38315255e-315 -7.75500019e-315
  7.57552969e-315 -7.78921329e-315 -7.49015469e-315 -7.40513783e-315
 -7.32212835e-315  7.33449527e-315 -7.32781873e-315 -7.60921027e-315
  7.37028551e-315  7.50578464e-315 -7.56991406e-315  7.43284237e-315
 -7.59865020e-315 -7.62831779e-315  7.56958435e-315 -7.36119537e-315
 -7.57696135e-315  7.34729520e-315  7.35494870e-315 -7.62832198e-315
 -7.69004846e-315 -7.36115302e-315 -7.66452985e-315  7.41871260e-315
  7.66487353e-315  7.57822147e-315 -7.46499588e-315  7.77108194e-315
 -7.57211640e-315 -7.39330444e-315  7.43710648e-315 -7.70507634e-315
  7.54276736e-315  7.76714423e-315 -7.69500819e-315 -7.78114241e-315]","[-7.40589095e-315  7.79085533e-315  7.76572458e-315 -7.46926148e-315
 -7.53711299e-315  7.46592486e-315  7.60626579e-315  7.58679587e-315
  7.40245254e-315 -7.40121661e-315 -7.32310069e-315 -7.75848348e-315
  7.61769144e-315  7.70567997e-315 -7.42349294e-315 -7.61421916e-315
  7.74116902e-315 -7.61522018e-315  7.36011788e-315  7.62050267e-315
 -7.59722216e-315  7.77207867e-315  7.59585819e-315  7.53966489e-315
 -7.62865912e-315  7.69761930e-315 -7.31893891e-315  7.67293752e-315
  7.60504011e-315  7.61801163e-315  7.77334630e-315  7.31635290e-315
  7.59037030e-315 -7.65079461e-315 -7.63002864e-315 -7.71580081e-315
  7.45212404e-315 -7.56131581e-315  7.36018610e-315 -7.71402315e-315
  7.64567358e-315  7.59786176e-315  7.38325151e-315  7.39278064e-315
 -7.67371360e-315 -7.39125475e-315  7.59320945e-315  7.79264189e-315
  7.36892342e-315 -7.78393280e-315  7.69954866e-315  7.38972376e-315
 -7.43172558e-315 -7.65625114e-315  7.48514860e-315 -7.54424412e-315
  7.65315655e-315  7.74054567e-315 -7.41147151e-315 -7.46867001e-315
  7.49780059e-315 -7.42385135e-315 -7.43074828e-315 -7.38693496e-315
 -7.41335158e-315 -7.72455108e-315 -7.30122580e-315  7.31945085e-315
  7.69595384e-315  7.36419911e-315 -7.42426706e-315  7.77047594e-315
 -7.49663221e-315  7.57229308e-315  7.41226988e-315 -7.33510825e-315
 -7.76635627e-315  7.41807593e-315 -7.44377061e-315 -7.61329063e-315
 -7.65515539e-315  7.62976856e-315 -7.44119250e-315  7.74976581e-315
 -7.66928523e-315 -7.36654925e-315 -7.39718944e-315  7.62508634e-315
  7.71963895e-315 -7.62208108e-315 -7.74441288e-315  7.51912932e-315
 -7.55068027e-315 -7.76840025e-315  7.31328212e-315  7.59437061e-315
 -7.46073042e-315 -7.66700679e-315  7.34379328e-315  7.39811982e-315
  7.75109531e-315 -7.74170661e-315  7.51586335e-315 -7.57262130e-315
 -7.35473193e-315  7.64809370e-315 -7.39713608e-315 -7.75052560e-315
 -7.65837797e-315 -7.68844427e-315  7.45823346e-315  7.48214745e-315
  7.41380711e-315  7.40180459e-315  7.70489792e-315 -7.77481860e-315
 -7.45108892e-315  7.49175795e-315  7.40187371e-315 -7.70676723e-315
  7.30506482e-315  7.38994983e-315 -7.49221892e-315  7.40229304e-315
  7.79253039e-315 -7.44621043e-315  7.78877933e-315  7.76717326e-315]","[ 7.39752345e-315 -7.70850563e-315  7.69792774e-315  7.55585441e-315
 -7.39612583e-315  7.35155099e-315  7.70038953e-315 -7.56487569e-315
 -7.66056811e-315 -7.50071589e-315 -7.58029738e-315  7.47306736e-315
  7.38979472e-315 -7.35728878e-315  7.76440044e-315  7.30675974e-315
  7.70584933e-315  7.35586768e-315 -7.36552250e-315 -7.37514679e-315
  7.39864092e-315 -7.74239002e-315 -7.45720188e-315 -7.57703931e-315
 -7.49332789e-315 -7.37822781e-315 -7.73614858e-315 -7.41644658e-315
 -7.70408524e-315  7.72444193e-315 -7.55121877e-315 -7.78824863e-315
  7.51693324e-315 -7.34177982e-315  7.69842192e-315  7.70507575e-315
 -7.35837464e-315  7.53880004e-315 -7.47804826e-315  7.38095033e-315
 -7.61359559e-315  7.65996028e-315  7.41945771e-315 -7.67019310e-315
  7.41628263e-315 -7.52277504e-315 -7.49978625e-315  7.43937480e-315
 -7.35980097e-315  7.76450592e-315  7.36441241e-315  7.36959850e-315
 -7.37757703e-315  7.33069885e-315 -7.72975108e-315  7.30047200e-315
  7.62264034e-315 -7.77290080e-315  7.72872601e-315  7.41409303e-315
  7.40494664e-315  7.44873163e-315  7.71766209e-315  7.39661029e-315
  7.53533176e-315 -7.62787501e-315 -7.52694603e-315 -7.58283106e-315
  7.44321108e-315  7.70554966e-315  7.79288259e-315 -7.54558931e-315
 -7.78165325e-315 -7.56412695e-315 -7.61372421e-315  7.39221903e-315
 -7.47851738e-315  7.73910454e-315  7.65390634e-315  7.76498382e-315
  7.49866497e-315 -7.58481338e-315 -7.33789745e-315  7.38015616e-315
 -7.59038140e-315 -7.64729233e-315 -7.52277748e-315  7.54906636e-315
 -7.46259960e-315 -7.46542489e-315 -7.46697021e-315 -7.47934447e-315
 -7.72444633e-315 -7.31788057e-315 -7.35498336e-315 -7.47264002e-315
  7.50183199e-315  7.31901398e-315 -7.40263132e-315 -7.58139544e-315
  7.74201642e-315 -7.40326984e-315 -7.60254229e-315 -7.33823246e-315
  7.30884636e-315  7.66913701e-315 -7.75660712e-315 -7.35730050e-315
 -7.67381816e-315  7.43741070e-315 -7.79206429e-315  7.38776028e-315
 -7.71962054e-315  7.62826685e-315 -7.58718472e-315  7.35185770e-315
  7.64689302e-315  7.59354574e-315  7.47900245e-315 -7.37260364e-315
 -7.68083070e-315 -7.67961263e-315  7.36155234e-315 -7.32558593e-315
  7.47987988e-315  7.63414206e-315 -7.72708610e-315  7.46878401e-315]","[ 7.49369887e-315  1.74930774e-001  1.77739332e-001  4.23614705e-001
 -7.57832884e-315  5.89556662e-001 -1.87969222e-002 -7.31914535e-315
  7.34381199e-315 -3.63451970e-001 -3.54432788e-002  4.23429554e-001
  1.26455087e-001 -7.37242881e-315 -1.63768852e-001 -3.41912795e-001
  5.80702258e-001  1.01920593e+000  7.65895488e-315  7.41534776e-315
 -1.58081424e-002  2.66021884e-002 -7.69003521e-315 -1.15949018e-001
 -7.63572153e-315 -7.69444558e-315 -7.70831860e-315 -7.41044521e-315
 -6.27485914e-002  4.30933780e-001  1.06318216e-001  2.69193754e-001
 -2.96684941e-001 -7.42325856e-315  2.23618555e-001 -7.60581983e-315
 -3.89311700e-001  2.29647332e-001 -1.34194516e-001 -7.31532662e-315
 -7.31940633e-315  3.94927779e-003 -1.02959168e-001 -1.90062586e-001
 -7.53002372e-315 -4.08098110e-001 -3.17728866e-001 -7.73735263e-315
  7.45327579e-315  7.38793658e-315 -7.77046581e-315  1.67897804e-001
 -7.63783850e-315 -7.42823540e-315 -7.32472714e-315 -7.56014375e-315
  2.50517490e-002 -1.51893151e-001  7.48340192e-315  7.33665386e-315
  3.61146739e-001  3.74344306e-001  3.31192855e-001 -4.14303155e-001
  7.55281924e-315 -7.49522649e-315  9.68308716e-002 -2.55426595e-001
 -7.68208315e-315 -7.49526031e-315 -7.31713224e-315 -4.85427426e-001
  4.56790260e-002  8.05539325e-002  2.65150639e-001  2.44877898e-001
 -1.84870297e-002  4.12663749e-001  7.30904017e-315  6.35231366e-002
 -2.63142790e-002 -5.79522247e-001 -1.87557518e-001 -7.57981624e-315
 -7.34761176e-315 -7.50817782e-315  3.34839130e-001 -7.74578848e-315
 -7.80244035e-001  7.36004474e-315 -7.55839770e-315 -1.35576917e-001
 -9.94154657e-001  1.43051404e-001 -7.69735506e-315  7.30115120e-315
 -7.39509444e-315  5.98251729e-001 -7.45131869e-315 -2.49627796e-001
  7.60715548e-315 -2.13435109e-001  2.78763896e-001 -2.64550356e-001
 -7.36055250e-315 -7.61038466e-315 -7.67144462e-315 -7.50541480e-315
  3.27052406e-001  4.21611694e-001 -5.16753488e-001  3.53339299e-001
  4.48769618e-001 -7.74393109e-315 -3.54149014e-001  1.14885511e-001
  3.28333298e-001  3.80652130e-001 -7.78216790e-315  1.69388444e-001
 -4.36570216e-002  7.73246524e-315  7.73520331e-315  2.17086213e-001
  4.54058066e-001  4.97188484e-001 -7.41529217e-315  2.85224056e-002]","[ 7.50711830e-315  7.60687077e-315  7.53209722e-315 -7.67382583e-315
  7.47117998e-315  7.40662522e-315  7.77139666e-315 -7.77550343e-315
  7.54776925e-315 -7.49607729e-315 -7.48393441e-315  7.49554334e-315
  7.58433122e-315 -7.48285168e-315  7.62598167e-315  7.43622531e-315
  7.68205740e-315  7.69263023e-315  7.64109471e-315  7.75955607e-315
 -7.52241178e-315  7.77758297e-315 -7.74048091e-315 -7.79054388e-315
 -7.46831267e-315  7.49191605e-315  7.50786476e-315 -7.59686721e-315
  7.32248207e-315  7.51014411e-315 -7.53214925e-315  7.73221015e-315
  7.53223022e-315  7.55502907e-315 -7.31822043e-315  7.64998360e-315
  7.61378076e-315 -7.69810542e-315 -7.47679358e-315  7.50258309e-315
  7.45912042e-315  7.77498054e-315  7.36453579e-315 -7.46986632e-315
  7.48824609e-315 -7.50888841e-315 -7.36978406e-315  7.45191326e-315
  7.49230949e-315 -7.64306833e-315 -7.58802403e-315  7.38437713e-315
 -7.66521984e-315 -7.74347837e-315  7.39515274e-315 -7.78138378e-315
  7.63917488e-315 -7.31670317e-315  7.65239360e-315 -7.74359747e-315
  7.59601574e-315  7.51565550e-315 -7.44479795e-315  7.72459745e-315
  7.74993375e-315 -7.48166489e-315 -7.30840895e-315 -7.49079819e-315
  7.69256129e-315 -7.50566714e-315 -7.34440945e-315 -7.38787789e-315
 -7.66731628e-315 -7.31737955e-315 -7.61720367e-315 -7.32671300e-315
 -7.59118150e-315 -7.45880959e-315  7.63267290e-315  7.32973577e-315
  7.75457820e-315  7.67834036e-315 -7.53502720e-315  7.48208874e-315
  7.64592023e-315  7.44119988e-315 -7.47807921e-315 -7.34332050e-315
 -7.63155911e-315 -7.41836725e-315 -7.36659572e-315 -7.43053763e-315
  7.37211033e-315 -7.51194612e-315 -7.56955747e-315 -7.31596283e-315
  7.46621205e-315  7.76089414e-315  7.64185771e-315 -7.44392139e-315
  7.79265223e-315  7.67586555e-315 -7.41605455e-315  7.58741130e-315
  7.54592716e-315 -7.76790788e-315  7.50632108e-315 -7.61857093e-315
 -7.72520327e-315 -7.76808037e-315  7.41889941e-315  7.33021762e-315
 -7.50746241e-315  7.52863310e-315  7.46638404e-315  7.54837294e-315
 -7.65471583e-315  7.49062119e-315 -7.70389959e-315  7.63538027e-315
  7.35043663e-315 -7.62665661e-315  7.65085699e-315 -7.37502424e-315
  7.41115477e-315 -7.62039139e-315  7.77834057e-315  7.70877571e-315]","[ 7.47743410e-315  7.69777252e-315 -7.37879418e-315  7.61864553e-315
 -7.47666362e-315 -7.40826627e-315  7.41918840e-315  7.31874445e-315
  7.32603076e-315  7.68504961e-315 -7.73415234e-315 -7.54978928e-315
  7.43271806e-315 -7.35162654e-315  7.55212802e-315 -7.44040874e-315
  7.76708124e-315 -7.46661248e-315  7.77529031e-315  7.63621419e-315
 -7.51177597e-315 -7.78212019e-315  7.79345536e-315 -7.49730797e-315
 -7.45422299e-315  7.51730790e-315 -7.55516276e-315  7.65690241e-315
 -7.67168206e-315  7.59051453e-315 -7.61218072e-315 -7.73142650e-315
 -7.61368571e-315 -7.50482158e-315 -7.30073476e-315 -7.56896247e-315
 -7.73023685e-315  7.45648735e-315  7.49323848e-315 -7.71428846e-315
 -7.71993807e-315  7.30140123e-315 -7.72687141e-315  7.55512936e-315
 -7.42608342e-315  7.60881371e-315  7.51367689e-315 -7.38444595e-315
  7.51783526e-315  7.39317679e-315  7.48798106e-315 -7.49897791e-315
 -7.42014175e-315 -7.63659410e-315 -7.57017781e-315 -7.46289581e-315
  7.38449834e-315 -7.44818774e-315 -7.64306040e-315 -7.51185606e-315
 -7.58254629e-315 -7.55719698e-315  7.73703948e-315  7.35454780e-315
  7.70475497e-315 -7.59359938e-315 -7.46707465e-315 -7.58669319e-315
 -7.39474792e-315 -7.76545187e-315  7.68198957e-315  7.48768764e-315
 -7.42716164e-315  7.53495791e-315  7.40999910e-315  7.54304484e-315
  7.77677123e-315 -7.40366748e-315 -7.44036642e-315  7.37295497e-315
  7.50002171e-315 -7.59638338e-315 -7.35985675e-315  7.64035664e-315
  7.30409192e-315 -7.32338270e-315 -7.37801329e-315  7.59885865e-315
  7.55927809e-315  7.44003687e-315  7.57005566e-315 -7.39487162e-315
  7.55717337e-315 -7.74532175e-315  7.73638843e-315  7.31648276e-315
  7.45534431e-315 -7.59315670e-315  7.35429087e-315 -7.50356938e-315
 -7.45640057e-315 -7.50172455e-315  7.50017443e-315  7.61517713e-315
  7.73354803e-315  7.37881483e-315 -7.73315132e-315 -7.55358949e-315
 -7.40491300e-315  7.32670441e-315 -7.70354014e-315  7.54249765e-315
 -7.76176078e-315  7.57272387e-315 -7.65673164e-315  7.32172108e-315
  7.56519389e-315  7.34933278e-315  7.40629027e-315  7.68943169e-315
  7.47417355e-315  7.44176796e-315  7.62741526e-315  7.71781525e-315
 -7.75975040e-315 -7.51251557e-315  7.57164289e-315 -7.78635548e-315]","[-7.38123320e-315  7.35857670e-315  7.39340608e-315  7.49372507e-315
  7.56485562e-315 -7.35696043e-315 -7.57119945e-315  7.43997416e-315
 -7.30035079e-315  7.47894514e-315 -7.55028245e-315  7.59312531e-315
  7.47951112e-315 -7.43971118e-315  7.62994753e-315  7.37670162e-315
 -7.70863971e-315  7.74817749e-315 -7.78018067e-315 -7.43000198e-315
  7.33147995e-315 -7.56252457e-315 -7.53700983e-315 -7.63623092e-315
  7.38831309e-315  7.74756469e-315  7.53456226e-315 -7.39469381e-315
 -7.52785125e-315  7.70535005e-315 -7.35290682e-315  7.68798588e-315
  7.66636654e-315  7.32269288e-315  7.73701415e-315  7.65570162e-315
 -7.62298198e-315  7.42337077e-315 -7.47193124e-315  7.58934839e-315
  7.41382926e-315 -7.46337040e-315 -7.57896693e-315 -7.52615942e-315
  7.61966352e-315 -7.32540749e-315 -7.74003139e-315 -7.50900466e-315
 -7.54932558e-315 -7.72647424e-315 -7.51851736e-315  7.30996700e-315
 -7.56734855e-315  7.30202302e-315  7.60114242e-315 -7.63058018e-315
 -7.39576921e-315 -7.51615858e-315  7.70520767e-315  7.49708664e-315
 -7.33698334e-315  7.68824671e-315  7.58507472e-315  7.35682110e-315
 -7.41264418e-315 -7.77349565e-315 -7.39942304e-315 -7.37029754e-315
  7.59433661e-315 -7.53039810e-315  7.54324195e-315 -7.74987903e-315
 -7.60379596e-315 -7.51296416e-315 -7.31166785e-315  7.59882954e-315
 -7.46003357e-315 -7.63907467e-315  7.38284985e-315  7.46003655e-315
  7.41265033e-315  7.70662882e-315  7.52659974e-315 -7.70899394e-315
  7.75517448e-315 -7.54943795e-315  7.73239245e-315 -7.64042193e-315
 -7.46485666e-315  7.62805474e-315 -7.39292406e-315 -7.42386456e-315
  7.41141949e-315 -7.44419787e-315  7.30380945e-315 -7.35114909e-315
  7.60317321e-315  7.38698723e-315  7.40725714e-315 -7.33485125e-315
 -7.70095256e-315  7.73553186e-315 -7.37943492e-315  7.40943989e-315
 -7.68711366e-315  7.56693089e-315  7.74235854e-315 -7.73680050e-315
  7.54541716e-315 -7.61551226e-315  7.70666393e-315 -7.32630894e-315
 -7.60450043e-315 -7.66242236e-315 -7.47043160e-315  7.34132148e-315
  7.45602003e-315 -7.76319937e-315 -7.38774913e-315  7.33931780e-315
 -7.76846510e-315 -7.34728353e-315 -7.43854624e-315 -7.69779042e-315
  7.66712167e-315  7.42882250e-315 -7.39920901e-315 -7.38962130e-315]","[-7.70487807e-315 -7.41559437e-315  7.66471684e-315  7.73105441e-315
  7.68887858e-315  7.67592804e-315 -7.59483646e-315 -7.65737727e-315
 -7.77117985e-315  7.69426114e-315  7.57842413e-315 -7.53881002e-315
 -7.41644148e-315  7.36077705e-315  7.63180675e-315  7.71501822e-315
 -7.50167879e-315 -7.51219665e-315 -7.64882333e-315  7.32944769e-315
  7.41763892e-315  7.67233363e-315  7.55238871e-315  7.68020401e-315
 -7.43448443e-315  7.74496568e-315  7.51226704e-315 -7.42357864e-315
 -7.51338511e-315 -7.77843590e-315 -7.54258442e-315 -7.47829457e-315
  7.62702462e-315 -7.62813952e-315 -7.55838245e-315  7.50121642e-315
 -7.36105531e-315  7.49978104e-315 -7.51041512e-315 -7.69218714e-315
 -7.45441805e-315 -7.49743666e-315  7.42199385e-315  7.50361976e-315
 -7.71401231e-315  7.53773459e-315 -7.30465249e-315 -7.60013137e-315
  7.35131601e-315  7.33855965e-315  7.72436678e-315 -7.56702032e-315
  7.52726084e-315  7.36874907e-315 -7.55688334e-315 -7.30412885e-315
  7.39082315e-315  7.59902900e-315 -7.49895789e-315  7.40006638e-315
  7.62208928e-315  7.55463931e-315  7.32460886e-315 -7.67395781e-315
 -7.77082260e-315 -7.37556682e-315 -7.45563526e-315  7.77980200e-315
  7.63599395e-315  7.78850563e-315 -7.50460829e-315  7.66049244e-315
  7.72653750e-315 -7.34694232e-315  7.65788080e-315 -7.68165976e-315
 -7.61709279e-315 -7.41688472e-315 -7.38540584e-315 -7.32384799e-315
 -7.38352701e-315  7.31907816e-315  7.67029218e-315 -7.38972760e-315
  7.41405751e-315  7.72274897e-315  7.58616015e-315 -7.32215417e-315
 -7.66547331e-315  7.58817578e-315  7.36251141e-315  7.36059754e-315
 -7.30094611e-315 -7.42196461e-315 -7.38192071e-315 -7.52951242e-315
 -7.59336348e-315 -7.78865347e-315  7.66988883e-315 -7.33409781e-315
 -7.74676780e-315 -7.38625761e-315  7.56039980e-315 -7.64268686e-315
  7.72000047e-315  7.61264776e-315  7.74757070e-315 -7.71322621e-315
  7.41793257e-315 -7.59345922e-315  7.35006676e-315  7.67287996e-315
 -7.32965535e-315 -7.74533465e-315 -7.79025983e-315 -7.56434581e-315
 -7.60505542e-315  7.31102754e-315  7.46595725e-315 -7.47389131e-315
  7.63224925e-315 -7.58145778e-315  7.56147109e-315  7.60859105e-315
 -7.48014727e-315  7.32743702e-315 -7.70584175e-315  7.31665929e-315]","[-7.64940060e-315  2.61736230e-001  2.69440587e-001  1.48728661e-001
  7.55250995e-315 -5.15164022e-003  3.21637677e-001 -7.46210100e-315
 -7.37120488e-315  1.17413077e-001 -2.49433907e-001 -9.91010590e-002
  2.79068431e-001 -7.55252341e-315 -2.90067427e-001 -4.89378934e-001
 -2.28511195e-002 -4.73527230e-001 -7.35300441e-315 -7.36010808e-315
 -2.20153509e-001  3.02744903e-001 -7.78778699e-315  2.92373337e-001
 -7.75469999e-315  7.41424190e-315 -7.32478172e-315 -7.72436513e-315
  8.66714137e-002  5.69938515e-002  1.37235275e-001  1.14133542e-001
  9.57544122e-002 -7.39146680e-315 -1.95229147e-001  7.44322583e-315
  3.21562884e-001 -2.16165107e-001  2.98599719e-001 -7.58398521e-315
 -7.31810249e-315  1.93082533e-001  2.85107337e-001  3.96490356e-001
 -7.52751662e-315  3.79296109e-001  5.68106340e-001  7.30296508e-315
 -7.67157940e-315 -7.71608936e-315 -7.64465165e-315  1.86741456e-001
 -7.56729350e-315 -7.55075640e-315  7.53089857e-315 -7.38220367e-315
  2.23784935e-001  2.00773121e-001  7.46875024e-315 -7.60417903e-315
  1.07845111e-001  1.95101056e-003 -2.55301529e-001  9.40500727e-002
 -7.49091099e-315 -7.61972320e-315 -6.19653536e-002  2.28451207e-001
 -7.53394312e-315 -7.63237286e-315 -7.55309352e-315  4.25241046e-001
 -1.05873485e-001  1.34367579e-001  4.09706942e-002 -2.14281224e-001
  2.51683736e-002 -1.94620391e-001 -7.63345993e-315 -1.68015195e-001
 -1.84206858e-001  6.54535199e-001 -6.10504957e-002 -7.77669659e-315
 -7.68432223e-315 -7.30578483e-315 -4.67685506e-002 -7.64451806e-315
  3.42690003e-001 -7.48664209e-315 -7.52912229e-315  1.63726686e-001
 -2.35031626e-001 -6.75754248e-002 -7.51822765e-315 -7.33667849e-315
  7.52508737e-315 -5.19158170e-002 -7.33599090e-315  3.07553894e-001
 -7.42575061e-315 -2.48624605e-001  1.00859419e-001 -1.02799073e+000
 -7.64263202e-315 -7.38795120e-315 -7.62481650e-315 -7.42957122e-315
 -1.20549598e-001 -1.51241039e-001 -1.73351679e-001  4.09480969e-001
 -1.10672691e-001 -7.52169490e-315  8.55494793e-001 -5.78623949e-001
 -1.12704359e-001  2.70105080e-001  7.62046306e-315  1.15276529e-001
  3.74629940e-001  7.63593099e-315 -7.70769182e-315  1.19454763e-001
  7.18204602e-002 -2.13000527e-001 -7.33228983e-315  4.34956973e-001]","[ 7.60537615e-315 -7.79036654e-315  7.75031270e-315 -7.69933380e-315
  7.52562005e-315  7.68960911e-315  7.79150389e-315  7.42003700e-315
  7.74053166e-315  7.38663164e-315  7.60678377e-315  7.41942760e-315
 -7.59143306e-315 -7.33727908e-315  7.51878185e-315 -7.71243694e-315
  7.33412633e-315  7.77315606e-315 -7.45295193e-315  7.72821124e-315
  7.38794018e-315 -7.55195464e-315  7.45381379e-315 -7.52994734e-315
  7.77506524e-315 -7.52368613e-315  7.77729233e-315 -7.53600990e-315
  7.56314674e-315  7.57465452e-315 -7.68180758e-315 -7.61273146e-315
  7.45654106e-315  7.42752604e-315  7.51399437e-315 -7.38607121e-315
 -7.53119840e-315 -7.37150995e-315  7.33443221e-315  7.67256272e-315
  7.73359834e-315  7.57059570e-315 -7.59609705e-315 -7.63485529e-315
 -7.68699818e-315  7.77877806e-315 -7.77073240e-315 -7.37231255e-315
  7.57504687e-315 -7.38162439e-315  7.58398854e-315 -7.77242947e-315
  7.46889801e-315  7.33516487e-315 -7.66764552e-315  7.75097300e-315
 -7.44824221e-315  7.41751774e-315 -7.42677664e-315 -7.54668373e-315
 -7.56802445e-315 -7.55040157e-315  7.75096311e-315 -7.69896813e-315
 -7.37623048e-315  7.78079525e-315  7.63630803e-315  7.71995261e-315
  7.31373326e-315 -7.49092784e-315  7.33418758e-315 -7.77334207e-315
  7.68058592e-315 -7.60874474e-315  7.41324116e-315  7.68058246e-315
 -7.57577711e-315 -7.57022575e-315  7.48155177e-315 -7.45752371e-315
 -7.40831729e-315  7.69278447e-315 -7.48336912e-315 -7.44679655e-315
  7.54910704e-315  7.38766166e-315  7.70323700e-315  7.52655727e-315
 -7.74291701e-315  7.69826908e-315  7.71848639e-315  7.61646396e-315
  7.60969102e-315  7.69539826e-315 -7.72431771e-315  7.37666133e-315
  7.69143400e-315  7.56214985e-315 -7.41173668e-315  7.65423037e-315
  7.75550379e-315  7.62581824e-315  7.70236567e-315 -7.76543288e-315
 -7.46704892e-315 -7.65155436e-315  7.51957227e-315 -7.37093730e-315
 -7.63524019e-315  7.40806517e-315  7.68484613e-315  7.49760187e-315
  7.63019057e-315  7.61700187e-315 -7.48872438e-315  7.65593984e-315
  7.56957976e-315 -7.63408916e-315  7.37921234e-315 -7.60853423e-315
 -7.59687339e-315  7.36894445e-315  7.65473879e-315 -7.46389633e-315
 -7.70179687e-315  7.39740109e-315 -7.74010933e-315 -7.39654176e-315]","[-7.79318839e-315 -7.66244309e-315  7.51369680e-315 -7.61780478e-315
  7.64913311e-315  7.47408233e-315  7.78936482e-315 -7.30598189e-315
  7.66814819e-315 -7.54363713e-315  7.64272094e-315  7.30125907e-315
 -7.69896534e-315 -7.72302639e-315 -7.34032014e-315  7.33249352e-315
 -7.45662085e-315 -7.71412128e-315 -7.76746119e-315  7.45803539e-315
  7.57267762e-315  7.47016354e-315 -7.42862315e-315 -7.36764813e-315
  7.58972757e-315 -7.45506297e-315 -7.58635364e-315 -7.47428551e-315
 -7.68365098e-315  7.74820843e-315 -7.69355541e-315 -7.45120886e-315
 -7.55874685e-315 -7.65064730e-315  7.54622025e-315 -7.58754372e-315
 -7.57684523e-315 -7.57594490e-315 -7.46925651e-315  7.51548023e-315
  7.63239880e-315 -7.30196360e-315 -7.73987289e-315 -7.41234981e-315
 -7.49920741e-315 -7.42626637e-315 -7.58725805e-315 -7.43833433e-315
 -7.75667661e-315  7.40865038e-315  7.76084912e-315 -7.62950451e-315
  7.51580370e-315 -7.79241179e-315 -7.63100407e-315 -7.52827989e-315
 -7.41432025e-315  7.57791193e-315 -7.68636604e-315  7.62430686e-315
 -7.38915653e-315  7.42568338e-315  7.74555544e-315  7.75949180e-315
 -7.75654958e-315 -7.54914384e-315  7.72894759e-315  7.57238204e-315
  7.37114328e-315  7.57584009e-315 -7.71562404e-315  7.56606357e-315
  7.44678226e-315  7.70084704e-315  7.63559150e-315  7.66222828e-315
  7.60351719e-315  7.52186046e-315  7.53211992e-315  7.71074475e-315
  7.36280930e-315  7.49304218e-315  7.78871507e-315 -7.43296896e-315
 -7.71922216e-315  7.60169256e-315  7.63977503e-315 -7.50600957e-315
 -7.45180999e-315 -7.59484127e-315  7.38817377e-315 -7.35536131e-315
  7.47868167e-315 -7.60286868e-315  7.31478661e-315 -7.75016276e-315
  7.46861532e-315  7.76931977e-315 -7.40060019e-315  7.59990587e-315
  7.31411799e-315  7.76905742e-315 -7.61409141e-315 -7.40220315e-315
 -7.60008238e-315  7.33231516e-315 -7.73469603e-315  7.47862193e-315
  7.51544608e-315  7.47985318e-315 -7.72119757e-315  7.61840469e-315
 -7.52070429e-315  7.57456676e-315  7.41490597e-315  7.37172731e-315
  7.31238714e-315  7.71190723e-315  7.63732633e-315 -7.69237048e-315
 -7.73514154e-315 -7.59199513e-315 -7.71249418e-315 -7.58779871e-315
  7.73087413e-315  7.30302550e-315 -7.66085913e-315 -7.60603133e-315]","[-7.66925379e-315 -7.34510705e-315  7.78448847e-315 -7.31155551e-315
  7.53776789e-315  7.55138494e-315  7.76972096e-315  7.70991594e-315
 -7.58655270e-315 -7.53548726e-315  7.33388476e-315 -7.48678692e-315
  7.34146207e-315 -7.76602649e-315  7.54293260e-315  7.70224684e-315
  7.71686288e-315 -7.59089098e-315 -7.38302133e-315  7.50965179e-315
 -7.51839354e-315  7.56639196e-315  7.30333033e-315  7.71809959e-315
 -7.50492175e-315  7.32780126e-315  7.62664625e-315 -7.34833155e-315
  7.34395212e-315  7.54645547e-315  7.56418842e-315  7.55744816e-315
 -7.74930534e-315 -7.57447133e-315 -7.56197187e-315  7.78736380e-315
 -7.60893537e-315 -7.73758308e-315  7.52707851e-315 -7.35872199e-315
  7.53759936e-315  7.70832185e-315  7.43401716e-315 -7.48263129e-315
  7.33432854e-315  7.32597757e-315  7.47412442e-315 -7.54860285e-315
 -7.70040971e-315 -7.31949182e-315 -7.64026253e-315 -7.74629325e-315
 -7.44248198e-315 -7.53936049e-315 -7.39610399e-315 -7.32299533e-315
 -7.54734585e-315 -7.69892115e-315 -7.75066338e-315 -7.42935640e-315
  7.77609299e-315 -7.70026999e-315 -7.79214414e-315  7.67193004e-315
 -7.42621724e-315 -7.65944040e-315 -7.59386516e-315  7.35009164e-315
 -7.39523193e-315  7.64889592e-315  7.55573228e-315  7.63144523e-315
 -7.65280994e-315  7.69259822e-315 -7.77881012e-315  7.70547702e-315
  7.71561294e-315  7.72484616e-315 -7.67148279e-315 -7.47165012e-315
 -7.31011641e-315  7.30544326e-315 -7.38950387e-315  7.69947225e-315
 -7.44397711e-315 -7.62908810e-315 -7.31614948e-315 -7.55944102e-315
 -7.46885709e-315  7.35264981e-315 -7.32347227e-315  7.61005135e-315
  7.60115062e-315  7.58183968e-315  7.76881577e-315 -7.73006996e-315
 -7.72355965e-315 -7.77042436e-315 -7.72015040e-315  7.76660945e-315
 -7.73123280e-315 -7.49206857e-315 -7.44894057e-315 -7.30602497e-315
  7.68093263e-315 -7.67763847e-315 -7.56981225e-315  7.35955856e-315
 -7.69195905e-315 -7.78693118e-315  7.67462455e-315 -7.36217903e-315
 -7.65285873e-315  7.61667011e-315 -7.35698396e-315  7.61135506e-315
  7.63478246e-315  7.69259687e-315 -7.62341367e-315  7.40911529e-315
  7.35930322e-315 -7.44124378e-315  7.57914794e-315 -7.41389250e-315
  7.46827121e-315  7.46155276e-315  7.32230414e-315  7.79225820e-315]","[ 7.43659086e-315 -7.29747910e-002 -1.57222423e-001 -5.51820570e-001
 -7.75035451e-315 -2.05903600e-002 -2.87640437e-001 -7.55136018e-315
 -7.50511500e-315  6.10479258e-001  7.17804846e-001 -3.68485977e-003
 -2.62860801e-001 -7.67600733e-315 -1.24721447e-001  2.90671742e-001
 -1.91904397e-002  1.05998603e-001 -7.33424750e-315 -7.30222809e-315
  6.60157506e-001 -2.04109955e-001  7.45491708e-315  2.04188229e-001
  7.41980753e-315 -7.64894993e-315 -7.78349272e-315 -7.33011401e-315
 -2.36169378e-002  3.92780698e-002  1.72766547e-001 -6.22702235e-001
 -1.09484110e-001 -7.38035254e-315  2.66225427e-001  7.72197394e-315
 -4.91289485e-001  3.00935395e-001  1.50649464e-001  7.40831264e-315
  7.66599782e-315 -1.06253868e-001 -2.82564721e-001  1.99335036e-001
 -7.44213348e-315  3.34342383e-001  2.40584265e-001  7.35763679e-315
 -7.58056678e-315 -7.40291822e-315 -7.76284861e-315 -1.16874730e-001
 -7.65314352e-315 -7.78099617e-315 -7.44620576e-315 -7.38396204e-315
 -6.07032076e-002  3.31453299e-001 -7.73352976e-315  7.69897715e-315
 -5.69855757e-002 -6.32989519e-002  2.06591778e-001 -2.92015979e-001
 -7.51597598e-315 -7.70213254e-315  1.88548394e-001  3.94737548e-001
 -7.36975532e-315 -7.69896149e-315  7.42827726e-315  2.73499205e-001
  1.95356007e-001 -3.30362912e-002  5.05696743e-001  2.99276475e-001
  2.00068306e-001  6.55333748e-001 -7.39076927e-315 -2.26629980e-001
 -7.58942604e-001 -2.60843567e-001  7.96963905e-001 -7.43764737e-315
 -7.56293245e-315 -7.31232361e-315  1.79289863e-001 -7.47379554e-315
  5.30785824e-001 -7.33609212e-315 -7.47234514e-315  5.48988436e-001
  4.67116218e-001  2.61719853e-001  7.77220059e-315  7.49747704e-315
 -7.32263790e-315 -3.47646564e-002 -7.43248201e-315  5.88180664e-001
 -7.60532228e-315 -2.83559259e-002  1.37105383e-001  1.42184748e-001
  7.68717194e-315 -7.74917191e-315 -7.55256860e-315 -7.65821053e-315
  2.19240498e-001  3.00225284e-001  6.33085445e-001 -2.48423057e-001
 -2.05791073e-002  7.33815100e-315 -3.91759136e-001 -6.01397800e-001
 -9.95471132e-003 -1.53759636e-001 -7.58670714e-315 -1.34050606e+000
 -1.01455413e-001  7.44097646e-315 -7.77773262e-315  6.12890757e-002
 -2.13340181e-001  1.19458316e-001 -7.65323826e-315 -3.24181526e-001]","[-7.48600409e-315  7.37913078e-315 -7.36085842e-315  7.30893881e-315
  7.41285713e-315  7.44790412e-315  7.77839384e-315 -7.56340327e-315
 -7.68331867e-315  7.59724836e-315 -7.36202579e-315 -7.68781640e-315
  7.64650449e-315  7.64856237e-315  7.52973974e-315  7.38450891e-315
 -7.76001321e-315 -7.41719002e-315 -7.66126350e-315 -7.60803601e-315
  7.48137384e-315  7.41746298e-315 -7.36401167e-315 -7.61303319e-315
  7.49672690e-315  7.75814386e-315  7.50683603e-315  7.66069141e-315
 -7.75875144e-315  7.74287497e-315  7.58193352e-315 -7.45294653e-315
 -7.51664004e-315 -7.53211982e-315 -7.65605071e-315  7.56895595e-315
 -7.60375932e-315 -7.63900236e-315 -7.34940497e-315 -7.73415008e-315
 -7.71192279e-315  7.62748495e-315  7.60136809e-315 -7.64458125e-315
  7.76051905e-315 -7.63348925e-315 -7.59631838e-315 -7.78852218e-315
  7.41145924e-315  7.77788497e-315 -7.57113602e-315 -7.58840378e-315
 -7.60873251e-315 -7.53872441e-315  7.64987774e-315  7.66488551e-315
 -7.73692804e-315  7.52033946e-315 -7.38018280e-315 -7.65308217e-315
 -7.60637367e-315 -7.36566386e-315 -7.57808045e-315  7.57119591e-315
 -7.66354760e-315 -7.77808120e-315 -7.50819906e-315 -7.69290286e-315
  7.70432240e-315 -7.53935193e-315 -7.33208781e-315  7.41869961e-315
 -7.70494979e-315 -7.78807133e-315  7.62237696e-315 -7.62981445e-315
 -7.48059667e-315  7.43247670e-315 -7.37424052e-315  7.62964632e-315
 -7.75267526e-315  7.37398872e-315  7.66501227e-315 -7.56405699e-315
  7.66538491e-315 -7.62657495e-315  7.38841210e-315 -7.40261775e-315
 -7.44258613e-315  7.42849480e-315  7.31304896e-315  7.50378131e-315
 -7.58379654e-315  7.51031782e-315 -7.62570657e-315  7.42483929e-315
 -7.35473123e-315  7.62645775e-315  7.75129763e-315  7.64117305e-315
  7.74971382e-315  7.65916818e-315  7.35943739e-315  7.30648219e-315
  7.64935856e-315 -7.48330153e-315  7.58826097e-315 -7.31150422e-315
  7.75924221e-315 -7.31125856e-315 -7.40118272e-315 -7.58246139e-315
 -7.31643044e-315  7.39553736e-315 -7.40999948e-315  7.61841364e-315
  7.64317457e-315 -7.37047778e-315  7.67989456e-315 -7.59419684e-315
 -7.34044991e-315  7.61629055e-315 -7.33130832e-315 -7.32624412e-315
 -7.54645568e-315 -7.67752205e-315 -7.63894588e-315  7.33374135e-315]","[-7.45309860e-315 -7.75604213e-315 -7.65444960e-315  7.51370169e-315
 -7.50690627e-315  7.32645039e-315 -7.68345729e-315 -7.42964348e-315
  7.31594381e-315  7.36475145e-315  7.60816255e-315 -7.61078390e-315
  7.75575415e-315 -7.71350529e-315  7.54810986e-315  7.46499417e-315
 -7.72899192e-315  7.44733690e-315  7.36497602e-315  7.39000296e-315
 -7.48416298e-315  7.50844652e-315 -7.46750887e-315  7.34837630e-315
  7.52563528e-315 -7.52125311e-315 -7.60173348e-315  7.59014259e-315
  7.30603956e-315 -7.44212737e-315  7.30330750e-315 -7.35589802e-315
  7.59350021e-315  7.75311375e-315  7.53017299e-315  7.56092266e-315
 -7.60059371e-315 -7.78082146e-315 -7.73022393e-315 -7.56465233e-315
 -7.40898166e-315  7.43310736e-315  7.36037800e-315 -7.36943942e-315
  7.33074471e-315 -7.49692046e-315 -7.61568252e-315  7.60682921e-315
  7.65113430e-315  7.56174373e-315  7.68186437e-315 -7.65083682e-315
 -7.42769299e-315  7.36402805e-315 -7.34266073e-315  7.72810838e-315
  7.59982088e-315 -7.35797738e-315  7.64811469e-315 -7.34768954e-315
 -7.71519481e-315 -7.64433180e-315  7.76791474e-315  7.39561745e-315
 -7.37031887e-315 -7.68426981e-315  7.78593779e-315  7.32932307e-315
  7.56120795e-315 -7.54276207e-315 -7.47418255e-315  7.67569980e-315
  7.52034763e-315 -7.45226809e-315 -7.68997464e-315  7.63032663e-315
 -7.36478288e-315  7.57533291e-315  7.55726498e-315  7.31031417e-315
 -7.35473718e-315  7.73009820e-315 -7.53168680e-315  7.53797293e-315
  7.49971954e-315 -7.49458051e-315 -7.77225178e-315 -7.74578410e-315
  7.32392858e-315 -7.48089461e-315 -7.71251485e-315  7.61598922e-315
  7.72499286e-315  7.66653939e-315 -7.46608177e-315 -7.35555221e-315
 -7.62772254e-315 -7.77042081e-315  7.59057808e-315  7.32966989e-315
 -7.57595752e-315  7.76780054e-315 -7.52072666e-315 -7.33568576e-315
 -7.67698753e-315 -7.32945791e-315 -7.58791847e-315  7.52849350e-315
 -7.30559332e-315  7.68941714e-315 -7.44178374e-315  7.71158529e-315
 -7.63605416e-315 -7.79369884e-315  7.60534961e-315 -7.78658842e-315
 -7.38360853e-315  7.44454102e-315 -7.35623423e-315  7.55360830e-315
  7.69274092e-315  7.76657614e-315  7.45848133e-315  7.32880278e-315
  7.78816173e-315 -7.59578162e-315 -7.65862116e-315  7.36028829e-315]","[ 7.42965286e-315  7.78133950e-315 -7.61698510e-315 -7.32212076e-315
 -7.67193015e-315  7.65344004e-315 -7.31416048e-315 -7.54852926e-315
 -7.43524603e-315 -7.35203229e-315 -7.58956960e-315 -7.74975401e-315
 -7.42881993e-315 -7.78653507e-315  7.76665199e-315  7.78902153e-315
  7.65809149e-315  7.31417630e-315 -7.43984455e-315  7.52562638e-315
  7.30585312e-315 -7.56891460e-315  7.70168595e-315  7.64877297e-315
 -7.43681165e-315  7.77730033e-315  7.56351352e-315  7.46809684e-315
  7.55409663e-315 -7.44053760e-315 -7.45443609e-315 -7.53526831e-315
 -7.44555007e-315 -7.38660438e-315 -7.64320554e-315 -7.44521102e-315
  7.34358594e-315 -7.73194488e-315 -7.66820861e-315 -7.36041612e-315
  7.39006556e-315  7.31641639e-315 -7.71167847e-315  7.37050155e-315
 -7.55758790e-315  7.33159389e-315  7.43086924e-315  7.35895536e-315
  7.54778754e-315 -7.61148820e-315  7.63802548e-315  7.72871602e-315
  7.52491274e-315 -7.48921180e-315 -7.67004056e-315  7.44729596e-315
  7.57474035e-315  7.69518068e-315 -7.54854327e-315  7.57935257e-315
 -7.46524400e-315 -7.74506184e-315  7.45630413e-315 -7.33800652e-315
 -7.37658217e-315 -7.67908776e-315 -7.46711560e-315 -7.55494198e-315
  7.60005190e-315 -7.41958798e-315  7.31752617e-315 -7.68892074e-315
 -7.46262118e-315  7.31177830e-315 -7.66528865e-315  7.51782944e-315
  7.70724973e-315  7.61849604e-315  7.68565334e-315  7.73741872e-315
  7.71613519e-315 -7.30066216e-315 -7.45471478e-315  7.67379172e-315
 -7.44101513e-315 -7.58388580e-315  7.68520890e-315  7.54464414e-315
 -7.74236434e-315 -7.59329759e-315 -7.52750290e-315  7.56837061e-315
 -7.47243470e-315  7.59807289e-315  7.65786562e-315  7.49482078e-315
 -7.39187860e-315 -7.51099040e-315  7.47307358e-315  7.42804101e-315
 -7.34159666e-315 -7.76294311e-315  7.77867355e-315 -7.66081284e-315
 -7.52075136e-315  7.38250751e-315  7.67974632e-315  7.41642563e-315
  7.32653384e-315 -7.42514560e-315  7.66717203e-315 -7.52067371e-315
 -7.41296591e-315 -7.54854440e-315 -7.32056904e-315 -7.74194567e-315
  7.34318108e-315 -7.48349978e-315 -7.35621739e-315 -7.47411047e-315
 -7.67387980e-315  7.51610393e-315  7.38873799e-315  7.34786052e-315
  7.44916843e-315  7.54361142e-315 -7.57801663e-315 -7.32278988e-315]"
