"[ 7.48787782e-315 -7.58216086e-315 -7.49878727e-315 -7.31556131e-315
 -7.32979190e-315 -7.66452104e-315 -7.63729483e-315  7.76121512e-315
  7.72219128e-315  7.48621409e-315 -7.67159372e-315  7.52526230e-315
  7.34675884e-315  7.71705160e-315  7.68025910e-315 -7.76628483e-315
  7.57979290e-315  7.43467395e-315  7.73363050e-315  7.40358473e-315
  7.62902854e-315  7.40484465e-315  7.42224087e-315 -7.70522592e-315
 -7.48904742e-315  7.56148360e-315  7.67980627e-315  7.77929191e-315
 -7.58096006e-315 -7.53720341e-315  7.33481063e-315  7.68589611e-315
 -7.72518952e-315 -7.47094770e-315  7.56979051e-315 -7.56292689e-315
  7.57676885e-315 -7.59416707e-315 -7.37934068e-315  7.68930185e-315
  7.53791246e-315  7.34639861e-315 -7.58599375e-315 -7.70499612e-315
  7.65503173e-315 -7.47526697e-315  7.37176534e-315  7.55500039e-315
  7.76016315e-315  7.58947382e-315  7.49362497e-315 -7.67112944e-315
  7.64851365e-315 -7.35093076e-315 -7.54793723e-315 -7.48161051e-315
  7.37892080e-315  7.62305256e-315  7.49986884e-315  7.57508110e-315
 -7.48722923e-315  7.45294694e-315  7.74996694e-315 -7.79251309e-315
 -7.73432150e-315 -7.43306298e-315  7.65948155e-315  7.34122821e-315
 -7.52516936e-315  7.35927122e-315  7.46428841e-315 -7.34621413e-315
 -7.30363036e-315  7.62024022e-315 -7.69089194e-315  7.33611939e-315
  7.40780004e-315  7.68394215e-315 -7.69338185e-315 -7.79026138e-315
  7.57341105e-315 -7.75717330e-315 -7.41030098e-315  7.77545409e-315
  7.68652918e-315 -7.44518931e-315 -7.71234999e-315  7.47754945e-315
 -7.44898646e-315 -7.42816869e-315  7.67356695e-315 -7.55143596e-315
 -7.38319686e-315  7.72013558e-315 -7.42382649e-315 -7.48624456e-315
  7.35934213e-315 -7.61568391e-315  7.45429270e-315  7.36508705e-315
  7.76009378e-315 -7.49162787e-315  7.38393761e-315 -7.39327640e-315
 -7.56046190e-315  7.37928627e-315 -7.31467847e-315 -7.40695422e-315
  7.40763209e-315 -7.63161178e-315  7.57601712e-315  7.62270591e-315
  7.77532568e-315 -7.67285329e-315  7.39378243e-315 -7.76990554e-315
 -7.70332823e-315  7.37179834e-315 -7.39024644e-315  7.38108773e-315
 -7.70163636e-315 -7.54321790e-315 -7.34608051e-315  7.32183193e-315
 -7.56850571e-315  7.32213223e-315 -7.65418001e-315  7.47048918e-315]","[-7.68529686e-315  7.66074271e-315 -7.53958100e-315 -7.47702596e-315
  7.59740449e-315 -7.56124455e-315 -7.44788905e-315  7.49703187e-315
 -7.64112375e-315 -7.72038758e-315 -7.43287630e-315 -7.43307543e-315
  7.35423224e-315  7.44395592e-315 -7.74468013e-315 -7.42136365e-315
 -7.64867341e-315  7.69206647e-315  7.56453350e-315 -7.36984293e-315
 -7.41298456e-315 -7.75361734e-315  7.55669027e-315  7.55544732e-315
  7.32620912e-315  7.45263406e-315 -7.30093873e-315  7.62145389e-315
 -7.32331292e-315 -7.70744006e-315 -7.70927465e-315 -7.63295708e-315
  7.55007648e-315  7.54845833e-315  7.58265680e-315 -7.58986130e-315
 -7.50803320e-315  7.53714865e-315  7.31109052e-315  7.43098898e-315
 -7.47620839e-315  7.53492241e-315  7.45810930e-315 -7.66661628e-315
  7.51914927e-315 -7.33639823e-315  7.31765589e-315 -7.45758705e-315
 -7.41258943e-315  7.54698710e-315 -7.72762347e-315  7.75469107e-315
 -7.36372807e-315  7.63123855e-315 -7.54307106e-315  7.61018241e-315
  7.62670723e-315 -7.78892289e-315 -7.36877044e-315  7.34644722e-315
 -7.72734228e-315 -7.66627750e-315  7.76450726e-315  7.60291105e-315
  7.37429030e-315  7.38889997e-315  7.77240182e-315 -7.60453719e-315
  7.47878962e-315  7.64800006e-315 -7.62564072e-315 -7.70114573e-315
  7.57841309e-315  7.71386076e-315 -7.75761936e-315 -7.78443605e-315
 -7.35492442e-315  7.37518708e-315 -7.46333255e-315  7.59572368e-315
 -7.52184802e-315 -7.70890273e-315  7.36310287e-315  7.79095946e-315
  7.44004632e-315 -7.54796816e-315 -7.53776982e-315  7.55146133e-315
  7.59296873e-315  7.70609768e-315  7.75578884e-315  7.72882807e-315
 -7.48210024e-315 -7.68836354e-315  7.53821014e-315  7.72588349e-315
  7.78478441e-315 -7.48260566e-315  7.47999289e-315 -7.31925538e-315
 -7.73387577e-315 -7.33904826e-315 -7.62381285e-315  7.78688753e-315
  7.76152402e-315 -7.31657132e-315  7.60262013e-315 -7.55691493e-315
 -7.40345206e-315  7.68547058e-315  7.48247945e-315  7.32891009e-315
  7.49384082e-315  7.62483513e-315 -7.60123644e-315 -7.72159051e-315
  7.62256143e-315 -7.31818861e-315  7.60901998e-315  7.42060098e-315
 -7.69302945e-315 -7.54664833e-315  7.49601513e-315  7.73634001e-315
  7.53802360e-315  7.52921811e-315  7.73351730e-315 -7.59686506e-315]","[ 4.15550739e-001 -7.75445374e-315  6.56619261e-002 -2.01452733e-001
 -4.83232137e-001 -3.84029498e-001 -7.02338600e-001  3.39219048e-001
  1.14952601e+000  7.44476667e-001 -7.38546993e-315  1.25710751e+000
  2.34786182e-001 -7.76874849e-315 -1.00218769e+000  1.38666460e+000
  7.78719604e-315 -4.07209363e-001  1.55501521e-002 -7.43016798e-315
  7.66231327e-315  2.75008657e-001  1.93869545e-001 -7.50284481e-315
 -6.22176462e-001 -5.29255710e-001  7.50632560e-315 -4.64097078e-001
  8.96563782e-001  7.32994278e-315 -7.60033435e-315 -7.32995278e-315
 -7.33824073e-315 -3.85992048e-001 -7.55906971e-315  1.10878611e-001
  2.37468745e-001 -1.77187846e-001 -7.33287515e-315  2.77835684e-001
 -5.48731032e-001 -4.60294932e-001  1.25047339e-001 -7.73704009e-315
  3.78994112e-001  3.03948557e-001 -2.67613745e+000 -1.73380031e-001
 -5.35188514e-001 -7.39661346e-315 -7.50699597e-315  7.66516603e-315
  5.08214703e-001 -4.28582152e-001 -4.52982185e-001 -1.60599359e-001
 -6.82404962e-001 -7.35043208e-315  7.34918586e-315 -7.56771995e-315
 -7.68719701e-315 -7.44413787e-315 -7.32489301e-315 -7.77244570e-001
 -5.07496728e-001 -7.51626530e-315 -7.68661119e-315  3.51913852e-001
 -7.49651383e-315 -7.46990754e-315 -7.47062639e-315  9.56011419e-002
 -1.97465967e-001 -7.30438481e-315  7.43672967e-001  1.60053448e-001
  4.29029967e-001 -5.67675117e-001 -7.64217701e-315  7.79153017e-315
  1.03203371e+000 -7.36423389e-315 -4.44974021e-001 -7.73866151e-315
 -5.04000411e-001 -3.52696468e-001  3.57824011e-001 -8.23508638e-002
  7.37191536e-315 -4.63012161e-002  7.64118987e-315 -3.37073502e-001
 -7.73094294e-315 -7.36094819e-315 -6.22776449e-003 -4.15493246e-001
  4.88140667e-001 -7.55434752e-315 -7.59597392e-315  1.11908820e+000
 -6.91759304e-001 -7.65207324e-315 -7.69600509e-315 -2.08457012e-001
 -5.44930548e-001  1.65329395e-001 -4.89572688e-002 -7.43445768e-315
  1.22642910e+000  7.09115305e-001 -3.71859691e-002  7.50750947e-315
 -1.99198103e-001 -7.58058101e-315  7.59498812e-315  4.68027758e-001
 -7.55347981e-315 -7.97861392e-001  2.07110982e-001 -7.32112756e-315
  3.94655630e-001 -9.45359879e-001 -7.51106529e-315 -7.42733803e-315
 -2.45096605e-001  1.05444017e+000 -3.64467801e-001  4.49093805e-001]","[ 7.74049142e-315  7.63684689e-315 -7.47797691e-315  7.67627043e-315
 -7.64808119e-315  7.61127865e-315 -7.66660394e-315 -7.72587246e-315
  7.34878327e-315  7.30529798e-315 -7.56855190e-315 -7.39471837e-315
 -7.35430113e-315 -7.65144438e-315  7.38349140e-315  7.48825002e-315
 -7.30851731e-315 -7.66295141e-315  7.61222016e-315  7.67834981e-315
  7.63454527e-315  7.38957225e-315  7.54307181e-315  7.73921041e-315
 -7.75701827e-315 -7.42754883e-315 -7.47271839e-315  7.62846215e-315
 -7.38472816e-315 -7.35232934e-315 -7.60188607e-315  7.36265642e-315
 -7.60615257e-315  7.41981247e-315  7.64244124e-315  7.69804752e-315
 -7.37903357e-315 -7.67851147e-315 -7.69472446e-315  7.68401474e-315
  7.46118673e-315  7.57467800e-315 -7.68273941e-315 -7.45487704e-315
 -7.53092429e-315  7.62089332e-315 -7.51386162e-315  7.59955451e-315
 -7.61949029e-315  7.44279927e-315  7.36071271e-315 -7.39681110e-315
  7.75974219e-315  7.30810204e-315 -7.69626762e-315  7.39049022e-315
  7.30446392e-315  7.74299687e-315  7.43213330e-315  7.60750147e-315
 -7.54350732e-315 -7.63592925e-315 -7.55832584e-315 -7.42642789e-315
 -7.60935012e-315 -7.72747249e-315  7.32889030e-315  7.70486701e-315
 -7.47400524e-315 -7.38989311e-315 -7.39739786e-315  7.73949357e-315
  7.75861658e-315  7.69960434e-315  7.74138287e-315 -7.57230063e-315
  7.74612020e-315  7.69447072e-315 -7.30588065e-315 -7.34058024e-315
  7.63816674e-315  7.43241664e-315  7.50033506e-315  7.66803415e-315
 -7.38663423e-315  7.65681663e-315  7.68058281e-315  7.73168907e-315
  7.49773406e-315 -7.61501520e-315 -7.57045544e-315 -7.45749706e-315
  7.48059094e-315  7.61563840e-315  7.37211696e-315 -7.55644925e-315
  7.46622547e-315 -7.55101291e-315  7.63517451e-315 -7.55208434e-315
  7.30778854e-315  7.69648548e-315 -7.39651116e-315  7.35586603e-315
  7.62387920e-315  7.42135736e-315 -7.35310201e-315 -7.67361281e-315
 -7.74515883e-315 -7.31105738e-315  7.74279095e-315 -7.32897622e-315
  7.77990878e-315  7.64423013e-315  7.59845033e-315 -7.78922681e-315
 -7.71690822e-315  7.61382493e-315  7.62934731e-315  7.51788801e-315
 -7.78247255e-315 -7.40467299e-315  7.68741512e-315 -7.67446933e-315
  7.77645802e-315  7.72014100e-315  7.77395752e-315 -7.39207173e-315]","[ 7.40016734e-315  7.48556766e-315  7.52030277e-315 -7.57719855e-315
  7.64691149e-315  7.52828529e-315 -7.77050690e-315 -7.36564203e-315
 -7.33862750e-315 -7.69659465e-315 -7.33807511e-315  7.74281627e-315
 -7.35870335e-315 -7.49607238e-315 -7.45537282e-315  7.39697024e-315
  7.73644685e-315 -7.53543357e-315 -7.49859961e-315 -7.59144354e-315
  7.56744991e-315  7.51022701e-315  7.40800974e-315  7.75956062e-315
 -7.37486376e-315 -7.70945581e-315 -7.34824638e-315  7.75960664e-315
 -7.46414490e-315 -7.35868490e-315  7.76121151e-315 -7.41841192e-315
 -7.56464337e-315  7.76640939e-315  7.51164575e-315  7.66434132e-315
  7.60204897e-315 -7.32580519e-315 -7.77660593e-315  7.39525211e-315
 -7.35705815e-315 -7.67755069e-315 -7.64935748e-315 -7.56431098e-315
 -7.40233751e-315  7.45881278e-315 -7.54757573e-315  7.37115087e-315
  7.56178904e-315 -7.69138465e-315  7.48215092e-315 -7.40201140e-315
  7.51026627e-315 -7.74848248e-315 -7.64962460e-315  7.39249543e-315
 -7.78530376e-315  7.69403067e-315  7.79290660e-315 -7.58795286e-315
 -7.46121217e-315 -7.44815482e-315  7.63400992e-315 -7.64329231e-315
 -7.45042028e-315 -7.32744119e-315 -7.47413616e-315 -7.30927424e-315
 -7.74849947e-315 -7.30118699e-315  7.65447988e-315 -7.39220883e-315
 -7.33620090e-315  7.33872637e-315  7.35430133e-315 -7.56907470e-315
 -7.32737332e-315 -7.32098153e-315  7.50301939e-315  7.65737662e-315
 -7.30552562e-315  7.44874444e-315 -7.41343117e-315 -7.55851184e-315
  7.42095473e-315  7.43513604e-315 -7.53341063e-315 -7.41824050e-315
  7.62626460e-315  7.59374643e-315  7.76499095e-315 -7.43582433e-315
  7.53944665e-315  7.70516354e-315  7.39230181e-315 -7.64913666e-315
  7.75740834e-315  7.75241677e-315  7.52729940e-315 -7.77183968e-315
 -7.36535715e-315 -7.53980820e-315  7.50809626e-315 -7.77827852e-315
  7.61558678e-315 -7.61758217e-315  7.70181218e-315  7.63656742e-315
  7.67655667e-315 -7.43392712e-315 -7.46099646e-315 -7.59706320e-315
  7.57958309e-315  7.66225903e-315  7.49702233e-315  7.74494905e-315
  7.44753110e-315  7.60026733e-315  7.46850432e-315 -7.34330412e-315
 -7.51977456e-315 -7.44388107e-315  7.51485272e-315 -7.48794562e-315
 -7.51682572e-315  7.60177913e-315  7.44341993e-315 -7.51527488e-315]","[-7.66816510e-315  7.38611816e-315  7.77141762e-315 -7.30747250e-315
 -7.61805680e-315 -7.76303165e-315  7.53353549e-315 -7.39536157e-315
 -7.46437072e-315 -7.45143030e-315  7.46230433e-315 -7.79013453e-315
  7.33046700e-315  7.36479943e-315  7.51049350e-315 -7.71511382e-315
  7.44886349e-315 -7.34552889e-315  7.37479006e-315 -7.49380149e-315
 -7.69367193e-315 -7.59077721e-315 -7.60580098e-315 -7.40411783e-315
  7.33038373e-315  7.69893561e-315  7.49144056e-315  7.65374202e-315
  7.56299179e-315  7.34080010e-315 -7.68311969e-315  7.30041332e-315
 -7.76640656e-315 -7.74563455e-315 -7.49416598e-315 -7.58776211e-315
 -7.68120796e-315  7.38725990e-315  7.43360532e-315 -7.45070981e-315
 -7.56946778e-315 -7.48768169e-315  7.52068619e-315 -7.54325032e-315
  7.33264169e-315 -7.57980018e-315  7.68083612e-315  7.41661189e-315
 -7.54690301e-315  7.66852584e-315 -7.79257625e-315 -7.41856596e-315
 -7.63190081e-315  7.77490651e-315 -7.71707027e-315 -7.76486239e-315
  7.53010542e-315 -7.48322329e-315 -7.64522982e-315  7.36997020e-315
 -7.54827584e-315  7.38551354e-315  7.67383182e-315  7.37378629e-315
  7.73540722e-315 -7.53154519e-315 -7.53114424e-315  7.46069492e-315
 -7.69038088e-315  7.57198596e-315  7.72041480e-315 -7.52655124e-315
  7.34025553e-315 -7.40437524e-315 -7.37763427e-315  7.30620093e-315
 -7.49985626e-315  7.49610344e-315  7.64291272e-315 -7.43146370e-315
 -7.67757537e-315  7.73059782e-315  7.66757646e-315 -7.75545013e-315
 -7.67895396e-315 -7.48771678e-315 -7.74899630e-315  7.56385373e-315
  7.65792072e-315  7.63283388e-315 -7.66505447e-315  7.48360602e-315
  7.39381439e-315  7.32483506e-315  7.61277432e-315  7.43040935e-315
  7.50560659e-315  7.46890743e-315 -7.47367543e-315  7.44221441e-315
  7.65800697e-315  7.50872792e-315  7.41144713e-315  7.44291522e-315
  7.55589936e-315 -7.43064067e-315 -7.40393701e-315 -7.75952357e-315
 -7.57949384e-315 -7.69461863e-315 -7.40900950e-315  7.67742150e-315
  7.73220064e-315 -7.68124556e-315  7.71270861e-315 -7.64780913e-315
  7.69769560e-315 -7.54851982e-315  7.62091746e-315 -7.52015338e-315
  7.61537547e-315  7.77636448e-315  7.43689791e-315  7.71895917e-315
 -7.59594014e-315  7.40106797e-315 -7.50237422e-315  7.46124586e-315]","[ 7.30320506e-315 -7.31344845e-315  7.59032488e-315  7.63112249e-315
  7.71001272e-315  7.51475479e-315  7.55000853e-315 -7.57461911e-315
  7.36132458e-315  7.36845627e-315  7.37993007e-315 -7.71872041e-315
 -7.67826526e-315  7.58806640e-315  7.54327253e-315 -7.79347849e-315
  7.55281728e-315 -7.39650488e-315 -7.67314411e-315  7.33622301e-315
  7.71946674e-315  7.33101935e-315  7.74452218e-315  7.64530753e-315
 -7.31004326e-315 -7.44916650e-315 -7.40234603e-315 -7.38116302e-315
  7.54330589e-315 -7.74503062e-315 -7.72990959e-315 -7.43513360e-315
  7.48406148e-315  7.45091853e-315  7.31089350e-315  7.61179612e-315
  7.40101381e-315  7.41577957e-315  7.55388386e-315 -7.64473587e-315
 -7.73932950e-315 -7.70328173e-315 -7.44971162e-315  7.61479610e-315
  7.77179282e-315  7.31180118e-315  7.40642898e-315  7.36584597e-315
 -7.35535985e-315 -7.56203840e-315  7.32359300e-315 -7.47568011e-315
  7.46688797e-315  7.46813257e-315  7.34815181e-315  7.61863612e-315
 -7.73187307e-315  7.45168703e-315  7.76582474e-315 -7.50822167e-315
  7.48955930e-315 -7.46192596e-315  7.61647859e-315 -7.78803871e-315
 -7.71950790e-315  7.70103634e-315 -7.36554903e-315  7.36688781e-315
  7.48355638e-315 -7.70353445e-315  7.58100459e-315 -7.62129760e-315
 -7.30002193e-315 -7.75813067e-315 -7.53692306e-315  7.61597332e-315
 -7.67465566e-315 -7.38451453e-315  7.71776480e-315 -7.39835329e-315
 -7.40304665e-315 -7.71693200e-315  7.51460021e-315  7.40925293e-315
 -7.32503194e-315 -7.39076826e-315  7.54612824e-315 -7.63718936e-315
 -7.55967672e-315 -7.56036104e-315 -7.53131522e-315 -7.58147542e-315
  7.57187321e-315  7.47722412e-315  7.40357174e-315  7.75026363e-315
 -7.45766057e-315  7.61526727e-315 -7.71034530e-315 -7.61053959e-315
  7.58981324e-315 -7.39762993e-315  7.54663385e-315 -7.66540104e-315
 -7.40582280e-315  7.75448954e-315 -7.30149985e-315 -7.72088520e-315
  7.62301514e-315  7.61459316e-315 -7.49187742e-315  7.66548824e-315
 -7.65849328e-315  7.64055557e-315 -7.35114036e-315  7.34999350e-315
  7.54228227e-315  7.48295195e-315  7.55595931e-315  7.48219816e-315
 -7.40720606e-315 -7.53834067e-315  7.57263470e-315  7.43888090e-315
  7.79055276e-315  7.69307300e-315  7.31255219e-315  7.52285931e-315]","[ 7.38719100e-315  7.32470364e-315  7.32307376e-315 -7.39587696e-315
 -7.54559009e-315  7.78398898e-315 -7.57575424e-315 -7.49737677e-315
  7.39339139e-315 -7.43074977e-315  7.45068277e-315 -7.56048874e-315
  7.40253903e-315  7.33482157e-315  7.35191963e-315 -7.72182149e-315
 -7.41125477e-315 -7.44200354e-315 -7.59853180e-315  7.64799895e-315
  7.56243512e-315  7.52924638e-315 -7.78502319e-315 -7.66326419e-315
  7.32395125e-315  7.60166666e-315  7.55002695e-315  7.47933120e-315
 -7.47317054e-315 -7.67314924e-315  7.30519886e-315  7.69808825e-315
  7.72940066e-315  7.55896978e-315  7.49674839e-315  7.62757080e-315
 -7.35973465e-315  7.38317868e-315 -7.69462262e-315 -7.42936337e-315
 -7.38015506e-315  7.59129101e-315 -7.70786100e-315 -7.58410133e-315
 -7.77298609e-315  7.50186410e-315 -7.67422949e-315 -7.33896184e-315
  7.69226363e-315 -7.75380125e-315 -7.62055061e-315 -7.54632059e-315
  7.43998602e-315 -7.61292429e-315 -7.75674104e-315 -7.54946591e-315
  7.66591981e-315  7.44654420e-315 -7.62104131e-315  7.30609862e-315
 -7.60897503e-315  7.68059572e-315 -7.69829392e-315 -7.32369446e-315
  7.53215237e-315  7.35000180e-315 -7.64298560e-315  7.78723140e-315
  7.49179470e-315 -7.53233037e-315  7.40985628e-315  7.32691397e-315
 -7.63430258e-315 -7.52695517e-315 -7.77023016e-315  7.37356700e-315
  7.79244759e-315  7.67160754e-315 -7.56565306e-315 -7.72238298e-315
  7.56757202e-315  7.38534964e-315  7.56793206e-315  7.54782384e-315
  7.73058883e-315 -7.46498057e-315 -7.58515688e-315 -7.39233033e-315
 -7.48695028e-315  7.76492032e-315  7.71259344e-315 -7.31265631e-315
 -7.55233622e-315 -7.36006343e-315  7.64887338e-315  7.64570001e-315
  7.64124465e-315 -7.39785558e-315  7.55535292e-315  7.44196914e-315
  7.61406634e-315  7.48634519e-315 -7.58845428e-315  7.71432824e-315
 -7.43267894e-315  7.34047098e-315 -7.31973468e-315 -7.73692708e-315
  7.42402441e-315  7.73132566e-315 -7.47966260e-315  7.38886985e-315
 -7.65411128e-315 -7.38097345e-315 -7.54018504e-315 -7.56659465e-315
  7.60966624e-315  7.40028814e-315  7.34616348e-315  7.48515846e-315
  7.73068697e-315  7.43896836e-315 -7.65231044e-315 -7.30719460e-315
  7.53834271e-315  7.69586956e-315  7.44107220e-315 -7.58963002e-315]","[-2.80635846e-001 -7.48502521e-315  1.13702184e+000  6.54343291e-001
  6.77270949e-001  5.37216749e-001  1.05646876e-001  6.91122435e-001
 -5.46693749e-001  1.19020691e-001 -7.60369341e-315  7.16827526e-001
  2.97646548e-001 -7.68277520e-315 -4.09059997e-001 -9.68126881e-001
 -7.49065910e-315 -1.04734859e+000 -3.47972577e-001 -7.42721900e-315
 -7.46856025e-315  8.91437396e-001  1.00615724e+000  7.63231168e-315
  3.75567562e-001  1.48585160e-001 -7.32881379e-315 -3.44966325e-001
 -7.60757444e-002  7.64331855e-315 -7.57040119e-315 -7.62525585e-315
 -7.33570712e-315  4.96711461e-001  7.42567746e-315  7.11370606e-001
  5.71787114e-001 -4.16514924e-002 -7.74517725e-315 -2.58754699e-001
  4.55918448e-001 -4.49813663e-001  5.50224470e-001 -7.67516878e-315
  1.09868293e+000 -8.07551401e-003  4.15593933e-001 -2.67372761e-001
  1.86339887e-001 -7.53849596e-315 -7.76540690e-315 -7.53192149e-315
  1.16938902e+000 -8.90349139e-001 -1.44019432e-001 -2.47765146e-001
 -5.43384345e-001 -7.30391880e-315 -7.47665525e-315  7.67908520e-315
 -7.35467106e-315 -7.38490682e-315 -7.44241596e-315  1.00409102e+000
  1.17360768e+000 -7.45878801e-315 -7.57584721e-315 -1.54776412e-001
  7.74178143e-315 -7.46817954e-315 -7.70310008e-315 -2.56187727e-001
  2.74447163e-001 -7.76263039e-315 -4.31693528e-001 -8.36723834e-001
 -4.54625673e-001 -1.47459908e-001  7.33174938e-315 -7.52769241e-315
  3.08150947e-002  7.68255117e-315  2.85750890e-001 -7.54866279e-315
 -5.39425586e-001 -4.61625675e-002 -5.61796786e-001 -2.22192917e-001
 -7.46745028e-315  8.54581802e-001 -7.49162522e-315  1.31613780e-001
 -7.53100299e-315 -7.30418112e-315  7.51962524e-001 -6.01955769e-001
  7.07492330e-001 -7.64805730e-315 -7.73802749e-315 -1.08419461e+000
 -3.79027959e-001 -7.53324468e-315 -7.67203752e-315  1.04190858e-001
  4.67042350e-001 -3.82051797e-001 -5.03459615e-001 -7.55366785e-315
  1.13228467e-002 -1.15112634e+000 -1.62460369e-001 -7.65276314e-315
  3.97947021e-001  7.54400206e-315 -7.68441005e-315 -6.90143223e-001
 -7.36683928e-315  3.89176189e-002  4.36511127e-001 -7.62238036e-315
 -6.29522083e-001  1.00875406e-001 -7.42235776e-315 -7.47355017e-315
  5.76613275e-001 -4.28346909e-001 -1.18428322e-001 -8.98482203e-001]","[-7.55624235e-315 -7.36716550e-315  7.58868996e-315 -7.39265190e-315
  7.51063100e-315  7.32191259e-315 -7.76321408e-315  7.76274414e-315
 -7.52557411e-315 -7.36839153e-315 -7.50518485e-315  7.43709675e-315
  7.72416112e-315 -7.30748011e-315 -7.33821118e-315 -7.33240567e-315
 -7.58321716e-315 -7.36336008e-315 -7.58430385e-315 -7.64689402e-315
  7.46592414e-315 -7.39121676e-315  7.77747303e-315  7.41729080e-315
  7.70332635e-315  7.68227013e-315  7.37005522e-315 -7.35274526e-315
 -7.51529455e-315  7.50103884e-315 -7.47514857e-315  7.45592035e-315
  7.68381549e-315  7.75690326e-315 -7.52855309e-315  7.77614565e-315
 -7.61673540e-315 -7.69997541e-315 -7.35714654e-315  7.56419323e-315
  7.58389895e-315  7.40804978e-315  7.44060372e-315  7.57866472e-315
 -7.35115592e-315 -7.31244290e-315  7.43558548e-315  7.77125707e-315
 -7.67731450e-315 -7.75819096e-315 -7.32918073e-315 -7.70620534e-315
 -7.33464910e-315 -7.35012749e-315 -7.41132777e-315 -7.34607009e-315
  7.63523148e-315 -7.69439688e-315  7.75655686e-315 -7.78875039e-315
 -7.32449105e-315  7.40246111e-315 -7.32292723e-315  7.38976389e-315
  7.60832803e-315 -7.75444868e-315  7.78316273e-315 -7.64865879e-315
 -7.35972141e-315 -7.56279913e-315 -7.30112868e-315 -7.47656240e-315
  7.71756098e-315  7.37784968e-315 -7.72023636e-315 -7.35808284e-315
 -7.72113445e-315 -7.44257562e-315 -7.78839777e-315  7.64956160e-315
 -7.71059587e-315  7.49194041e-315 -7.56479310e-315 -7.47891549e-315
  7.36679583e-315 -7.65715934e-315 -7.69055043e-315 -7.60494071e-315
 -7.53779994e-315  7.33209456e-315  7.70180718e-315  7.67665799e-315
  7.38380559e-315 -7.63914815e-315  7.65023987e-315 -7.55163659e-315
 -7.56818927e-315 -7.77515592e-315 -7.72099923e-315 -7.74230719e-315
 -7.33187723e-315  7.36034663e-315 -7.67419220e-315 -7.53810196e-315
  7.40007265e-315 -7.79140761e-315  7.49686407e-315  7.50708951e-315
  7.46142965e-315  7.64290139e-315 -7.52833433e-315 -7.49779421e-315
  7.32999774e-315 -7.69730147e-315  7.50212884e-315 -7.47604531e-315
  7.70939446e-315 -7.64929227e-315  7.36628327e-315  7.36383351e-315
  7.48821417e-315 -7.52473458e-315  7.32586863e-315 -7.61018776e-315
  7.42694248e-315 -7.53623836e-315 -7.63618994e-315  7.37221549e-315]","[ 7.99366766e-001 -7.40123831e-315 -1.40348106e+000  5.39762209e-001
 -1.94609235e-001  6.36449327e-002  1.48433643e-001 -5.44258073e-001
  1.81871282e-002 -7.81470444e-001 -7.37567020e-315 -7.81385964e-002
  3.05406242e-002 -7.56987207e-315 -1.56344973e-001 -5.42264731e-001
  7.54787423e-315  7.79542824e-001  1.18227208e-002 -7.38543992e-315
 -7.36082144e-315 -1.24815237e+000 -2.25644811e+000  7.74045443e-315
  3.27311778e-002  1.70043927e-001 -7.77081467e-315  4.71094041e-001
 -1.96600132e+000  7.33830741e-315 -7.34328622e-315 -7.70295651e-315
  7.34387417e-315  1.88072779e-001 -7.51797413e-315  2.81042648e-002
 -5.92064690e-001 -3.89248146e-003 -7.77158780e-315  1.09813362e+000
  7.71044243e-002  5.26715121e-001  7.19440789e-001 -7.67191346e-315
 -7.82362157e-001  3.57538267e-001  7.33190470e-001 -1.46486093e+000
 -4.75935314e-002 -7.55738413e-315 -7.41273163e-315  7.67265669e-315
 -6.25377208e-001 -3.80234780e-001 -5.99081696e-001  2.06817368e-001
  7.55306591e-001 -7.53808282e-315 -7.41059491e-315 -7.61319096e-315
 -7.49965768e-315 -7.48529195e-315 -7.48358532e-315  8.02342122e-002
 -8.88795862e-001 -7.46339605e-315  7.36399178e-315 -5.22839117e-001
  7.40601286e-315 -7.56262306e-315 -7.70940919e-315  3.43616439e-001
  3.76059923e-001 -7.71955950e-315  4.03219798e-001  3.83526278e-002
  3.01162464e-001  1.67320093e-001  7.47539865e-315 -7.40351567e-315
 -1.10359057e+000 -7.53835006e-315 -1.59625235e-001 -7.54411435e-315
  4.73417646e-001  9.70892299e-001  2.14061416e-001  6.97538657e-002
 -7.62396067e-315 -8.09030967e-001 -7.50343961e-315  4.28325438e-001
  7.34886222e-315 -7.59199730e-315 -5.78908588e-001  9.21796308e-001
 -3.88340740e-001  7.61600808e-315 -7.48235376e-315  5.36814039e-001
  7.36549811e-001 -7.69105159e-315 -7.40118366e-315  7.50435541e-003
 -5.86439715e-001  1.91208269e-001  1.08610202e+000 -7.37531222e-315
 -8.83463864e-002  4.39099925e-001  3.61404805e-001 -7.44531495e-315
 -1.19564674e-002 -7.56766126e-315  7.63397946e-315  3.61793323e-001
  7.33593996e-315  1.76069312e-001 -1.03919996e+000 -7.68437428e-315
  5.96062444e-001 -1.81942486e-001 -7.77212793e-315 -7.32591424e-315
  3.74967812e-001 -2.61442134e-001  1.38093961e-001  8.66995266e-002]","[ 7.48381285e-315  7.55508431e-315  7.67403646e-315  7.41212470e-315
  7.39619892e-315  7.68099586e-315  7.37142439e-315  7.74891353e-315
  7.58183546e-315  7.63168225e-315 -7.63402606e-315  7.48526547e-315
 -7.74583098e-315  7.52248058e-315  7.77026959e-315 -7.54734037e-315
  7.76780139e-315 -7.35390233e-315 -7.42665878e-315 -7.60747136e-315
 -7.29999145e-315  7.64574493e-315  7.37811829e-315 -7.41154838e-315
  7.69710940e-315 -7.46303776e-315  7.78833248e-315 -7.58208639e-315
  7.39188285e-315  7.43511914e-315 -7.73358055e-315 -7.47049933e-315
 -7.51387818e-315 -7.77210962e-315  7.72075749e-315  7.39480993e-315
  7.32730280e-315 -7.42791127e-315  7.59664796e-315  7.42335697e-315
  7.39800853e-315 -7.35230002e-315  7.36029829e-315  7.75342982e-315
 -7.44123626e-315 -7.33253818e-315 -7.70882022e-315  7.76604695e-315
  7.72955145e-315  7.43760620e-315  7.30186423e-315 -7.45258581e-315
  7.59468359e-315 -7.29990617e-315  7.41899699e-315 -7.73786383e-315
  7.51313195e-315  7.37066870e-315  7.70980116e-315 -7.50717139e-315
 -7.38746915e-315  7.54376305e-315 -7.73299098e-315  7.54626302e-315
  7.39199618e-315 -7.70406092e-315 -7.55273379e-315  7.78007201e-315
 -7.59724085e-315  7.30319744e-315  7.48339567e-315 -7.68782717e-315
 -7.46099764e-315 -7.32776456e-315 -7.74099881e-315 -7.72523405e-315
 -7.75941877e-315 -7.75436778e-315  7.66567490e-315  7.33592312e-315
  7.65124269e-315  7.33767578e-315 -7.31953275e-315  7.70596244e-315
 -7.65438554e-315 -7.49718425e-315 -7.54369118e-315 -7.77678302e-315
 -7.68649584e-315  7.70607484e-315  7.34264838e-315 -7.72627467e-315
  7.44909296e-315  7.76120164e-315 -7.53062700e-315 -7.76585288e-315
  7.32592360e-315 -7.34533196e-315  7.77008729e-315  7.42352027e-315
 -7.34761191e-315 -7.56856397e-315  7.32359036e-315 -7.55778046e-315
  7.46142963e-315 -7.73815720e-315 -7.43465800e-315 -7.55558696e-315
  7.78100404e-315 -7.38828055e-315 -7.48823458e-315  7.57281956e-315
 -7.70902049e-315 -7.59917476e-315  7.63121943e-315 -7.49055087e-315
  7.33474108e-315  7.50747060e-315  7.36389187e-315 -7.55989291e-315
  7.56523902e-315  7.72326049e-315 -7.57284544e-315  7.75735512e-315
  7.76606898e-315 -7.52822291e-315 -7.73203600e-315  7.36978431e-315]","[-7.32047757e-315  7.39386381e-315 -7.54751503e-315  7.75693390e-315
  7.35242553e-315 -7.34814938e-315 -7.32493420e-315 -7.47926675e-315
 -7.36576803e-315  7.64035772e-315 -7.71330471e-315  7.65332873e-315
 -7.34847997e-315 -7.56367386e-315  7.40211387e-315  7.61272900e-315
  7.70085540e-315 -7.37210399e-315 -7.51856214e-315 -7.76709799e-315
 -7.31097341e-315 -7.45712364e-315  7.70014126e-315 -7.30796166e-315
  7.55124502e-315 -7.40093880e-315 -7.54320006e-315  7.56791805e-315
 -7.76469504e-315 -7.56584079e-315  7.76446079e-315 -7.61119223e-315
  7.62622694e-315  7.69056801e-315  7.76146399e-315 -7.47421675e-315
  7.58708471e-315  7.35048168e-315  7.38912349e-315  7.34399498e-315
 -7.70732909e-315  7.43834831e-315  7.69759320e-315 -7.53510616e-315
 -7.48863909e-315 -7.69038601e-315 -7.60377579e-315 -7.34467821e-315
  7.68217321e-315 -7.68026874e-315  7.33825666e-315 -7.51893300e-315
 -7.43763837e-315  7.48952287e-315 -7.42780311e-315  7.59877650e-315
 -7.41791002e-315  7.75333663e-315 -7.69382470e-315  7.42316347e-315
 -7.38498754e-315 -7.54377731e-315  7.41540047e-315 -7.78516743e-315
 -7.77247978e-315  7.64925795e-315 -7.32662976e-315 -7.64385887e-315
 -7.75874710e-315 -7.66708382e-315  7.69305645e-315  7.37928730e-315
  7.65495985e-315 -7.40426401e-315 -7.64182143e-315 -7.50111739e-315
 -7.37712674e-315  7.67489232e-315  7.32598491e-315  7.42959344e-315
 -7.42249649e-315 -7.54519591e-315 -7.49745681e-315  7.59397251e-315
 -7.66582195e-315 -7.56312934e-315  7.54253095e-315  7.34159092e-315
  7.75151376e-315  7.73095984e-315  7.49234294e-315  7.33036668e-315
 -7.34717179e-315 -7.32421924e-315 -7.41323209e-315  7.71287918e-315
 -7.71889686e-315 -7.77523989e-315 -7.65204412e-315 -7.65627596e-315
  7.64232877e-315 -7.66125976e-315 -7.65998053e-315 -7.51442307e-315
  7.38293845e-315  7.64644505e-315 -7.72703083e-315  7.59400573e-315
  7.48791104e-315 -7.78687455e-315 -7.77124977e-315  7.48461738e-315
 -7.60398288e-315  7.42500953e-315 -7.46337170e-315  7.63921033e-315
  7.32869026e-315 -7.47127530e-315 -7.41481757e-315  7.78699944e-315
  7.33663175e-315 -7.71030741e-315 -7.47691646e-315  7.36351638e-315
  7.56473819e-315 -7.55503971e-315 -7.61063498e-315 -7.74294829e-315]","[-7.71279806e-315 -7.45271431e-315 -7.58016451e-315 -7.76308073e-315
  7.55827989e-315  7.58360550e-315  7.61248208e-315  7.50775456e-315
 -7.37708475e-315 -7.39475295e-315  7.71084651e-315 -7.43104734e-315
  7.46467642e-315 -7.34341636e-315 -7.79163654e-315 -7.52497763e-315
 -7.48853066e-315 -7.45779150e-315 -7.47186885e-315  7.38294489e-315
 -7.69661178e-315 -7.56839740e-315 -7.61218095e-315 -7.66194819e-315
  7.73373187e-315  7.51958455e-315  7.38592274e-315  7.54142415e-315
  7.38588104e-315 -7.31634589e-315 -7.52381402e-315 -7.65214698e-315
 -7.53633560e-315  7.57018666e-315 -7.37399490e-315 -7.62678647e-315
 -7.35856305e-315  7.68554826e-315  7.38833884e-315  7.65510131e-315
  7.67488885e-315  7.56032586e-315 -7.75955159e-315  7.75748578e-315
 -7.64363815e-315  7.66580357e-315  7.50633429e-315 -7.68747679e-315
  7.71865517e-315  7.65980692e-315  7.56632020e-315 -7.70329529e-315
 -7.39681000e-315  7.78569709e-315  7.66173621e-315 -7.48716089e-315
  7.60835044e-315 -7.46958743e-315 -7.65428531e-315 -7.59220478e-315
 -7.79076610e-315 -7.53465196e-315 -7.49737778e-315  7.33077134e-315
 -7.61073287e-315 -7.67952039e-315 -7.33524617e-315 -7.53967214e-315
 -7.59327008e-315 -7.61232040e-315 -7.44277454e-315 -7.34418462e-315
  7.34046213e-315 -7.54453849e-315 -7.55630426e-315 -7.42719466e-315
 -7.30881927e-315 -7.46796523e-315  7.30939692e-315 -7.77709306e-315
 -7.37258586e-315 -7.41811012e-315 -7.32535359e-315 -7.48452253e-315
  7.73420572e-315 -7.46743386e-315 -7.76464208e-315 -7.77801463e-315
 -7.32167875e-315 -7.72895865e-315 -7.38722609e-315  7.44180776e-315
 -7.31857819e-315 -7.42214802e-315  7.77154288e-315  7.39440587e-315
  7.60509480e-315  7.64353693e-315 -7.62682935e-315 -7.58145848e-315
 -7.54695843e-315 -7.51751837e-315  7.53526766e-315  7.79243471e-315
  7.59428764e-315 -7.65945628e-315 -7.32742079e-315  7.56479485e-315
 -7.66225457e-315 -7.33292935e-315 -7.44672316e-315 -7.71808148e-315
  7.37731760e-315 -7.74934698e-315 -7.74405943e-315 -7.71960541e-315
  7.67224930e-315  7.45863124e-315 -7.63340764e-315  7.67755322e-315
 -7.70663877e-315  7.41615439e-315 -7.31008203e-315  7.48861643e-315
  7.37170942e-315 -7.50246876e-315  7.59746795e-315 -7.32256481e-315]","[-5.33190211e-001 -7.33667135e-315 -7.08399574e-001 -1.27684165e-001
  2.68875076e-001  3.15809967e-001  3.54361820e-001 -8.22384645e-001
 -4.59180130e-002  6.08033803e-001 -7.63325509e-315 -1.04058605e+000
  2.09042684e-001 -7.37243164e-315  4.26305331e-001  7.08411594e-002
 -7.66726442e-315  3.66087800e-001  2.85855985e-001 -7.34668822e-315
 -7.43751815e-315  2.68463973e-001 -2.13275238e-001 -7.47208419e-315
 -2.54488752e-001  3.26917555e-001 -7.53067170e-315  4.16734420e-001
  2.21202240e-002 -7.41525577e-315 -7.65577873e-315 -7.39664638e-315
 -7.57376688e-315  1.91369907e-001 -7.48819524e-315  2.97535053e-001
  5.15706036e-001  1.74640830e-001 -7.35713978e-315  2.25605836e-001
  3.10733167e-001 -4.61499698e-001 -1.03045989e+000 -7.63065593e-315
 -9.86075177e-002  2.09473826e-001 -5.62088905e-001  3.29455806e-001
  6.47310606e-001 -7.45110030e-315 -7.49214194e-315 -7.59059290e-315
  2.15794496e-001  3.88639239e-001  7.51840046e-001  1.74969780e-001
  3.72278874e-001 -7.41552943e-315  7.69249501e-315 -7.35078270e-315
 -7.77634902e-315 -7.55429411e-315 -7.69114178e-315  3.46432932e-001
 -3.67661040e-001 -7.52557943e-315  7.48207322e-315  5.93954407e-001
 -7.34977331e-315 -7.64552604e-315 -7.70468309e-315  7.01099170e-002
  3.06794202e-002 -7.32286346e-315 -8.70482609e-001  2.53795688e-002
  1.55365279e-001  3.69576114e-001 -7.43757827e-315 -7.54987924e-315
 -6.71354658e-001 -7.33827090e-315  7.16882858e-001 -7.47713507e-315
 -2.21220007e-001  9.54334002e-002  2.39493193e-001  1.08643758e-001
 -7.48879587e-315 -1.50519989e-001 -7.79088196e-315  1.84357516e-001
  7.44918972e-315 -7.43298481e-315  2.38616882e-001  3.07462613e-001
 -2.42950915e-001  7.58513493e-315 -7.51647579e-315 -2.02395059e-001
  2.31150369e-001 -7.73493747e-315 -7.66450343e-315  2.70667262e-001
 -2.58915748e-001  1.66281992e-001  4.60714481e-001 -7.69954071e-315
 -4.32385285e-001 -1.11992835e+000  1.36178560e-001 -7.36973369e-315
  1.39660662e-001  7.31227820e-315 -7.73853860e-315  1.88460788e-001
 -7.70245177e-315  4.47389909e-001 -5.64795834e-002 -7.61869242e-315
 -1.25189445e+000  5.38227405e-001 -7.75619041e-315 -7.37574433e-315
 -3.76615945e-002 -1.03780867e-001  2.09976302e-001 -5.85172561e-001]","[ 7.38403183e-315 -7.39430389e-315  7.66535900e-315  7.71909539e-315
  7.76355338e-315  7.63265008e-315 -7.68641888e-315  7.65528649e-315
 -7.55716808e-315 -7.41809934e-315 -7.56861943e-315  7.40867575e-315
  7.36619902e-315 -7.41509968e-315 -7.69326290e-315 -7.78836672e-315
 -7.73403309e-315 -7.69385809e-315 -7.40930695e-315  7.36016910e-315
  7.53037873e-315 -7.64076087e-315 -7.56658187e-315 -7.32620399e-315
  7.53282055e-315  7.52981993e-315  7.34620992e-315 -7.74259254e-315
  7.70465173e-315  7.36799878e-315 -7.57959868e-315 -7.50172665e-315
 -7.62275731e-315  7.38140476e-315  7.77841788e-315  7.54977596e-315
 -7.49784445e-315 -7.71955223e-315  7.33129123e-315  7.33075560e-315
  7.38520512e-315  7.32631451e-315  7.36292479e-315 -7.44628275e-315
 -7.42474258e-315 -7.48121260e-315 -7.58001184e-315 -7.38811444e-315
 -7.64257865e-315  7.50810005e-315  7.44556758e-315 -7.37724091e-315
 -7.37522617e-315 -7.60773019e-315 -7.60868182e-315 -7.73986640e-315
  7.73896409e-315 -7.59094217e-315 -7.59810748e-315 -7.60375260e-315
  7.57946315e-315  7.33017845e-315 -7.68601735e-315  7.39201028e-315
  7.60973699e-315  7.71713031e-315  7.39058192e-315 -7.79040519e-315
 -7.32999982e-315  7.46833821e-315  7.32883956e-315 -7.57865344e-315
  7.77535774e-315 -7.63930620e-315  7.69347709e-315 -7.36965268e-315
 -7.76683037e-315 -7.30450202e-315  7.69959870e-315  7.48288013e-315
  7.34966084e-315 -7.44543300e-315 -7.58248065e-315  7.65578037e-315
  7.62409498e-315  7.46864370e-315 -7.60255291e-315 -7.74062710e-315
  7.50737520e-315  7.32270185e-315 -7.71759880e-315  7.57998795e-315
 -7.69434536e-315  7.46444143e-315  7.71242521e-315 -7.62554638e-315
 -7.56140664e-315 -7.36514971e-315  7.32159212e-315 -7.66794285e-315
 -7.62178171e-315  7.31179692e-315  7.41939951e-315 -7.31211379e-315
  7.32609727e-315 -7.42972696e-315 -7.47590407e-315 -7.55873947e-315
  7.51922000e-315  7.72753884e-315 -7.37499918e-315 -7.49884938e-315
  7.54066875e-315 -7.50374952e-315  7.77989813e-315 -7.56842087e-315
  7.58061427e-315 -7.59531760e-315 -7.58342087e-315  7.59369540e-315
 -7.63488376e-315 -7.75063614e-315 -7.53532116e-315 -7.72229048e-315
  7.54344009e-315 -7.77679169e-315 -7.66776473e-315 -7.72764481e-315]"
