"[-7.65485085e-315 -7.38651689e-315  7.58051138e-315 -7.46917547e-315
  7.52850371e-315]","[-7.38341817e-315  7.50819116e-315  7.57141690e-315 -7.73280118e-315
  7.41629742e-315]",[ 1.05792274  0.53051649 -0.40037532  0.94847834 -2.03204484],"[ 7.45907748e-315 -7.38853640e-315 -7.43279817e-315  7.30508176e-315
 -7.75536511e-315]","[-7.68097206e-315 -7.70876572e-315  7.68945295e-315  7.69747234e-315
 -7.68217794e-315]","[ 7.35892990e-315 -7.49494097e-315 -7.67176931e-315  7.35739134e-315
  7.69395244e-315]","[ 7.33543160e-315 -7.74343516e-315 -7.70876667e-315  7.38660244e-315
 -7.70962398e-315]","[ 7.76171342e-315  7.67360491e-315  7.63615930e-315 -7.44768262e-315
 -7.55363656e-315]",[ 0.33131244  0.05420913  0.02096473 -4.28741205 -3.55779939],"[ 7.38377868e-315 -7.55417140e-315  7.61656156e-315  7.33092844e-315
 -7.60029068e-315]","[-7.72925253e-315 -7.78824228e-315 -7.60950630e-315 -7.76644544e-315
  7.39935301e-315]","[ 7.42277109e-315 -7.52348927e-315 -7.36154477e-315 -7.67218151e-315
  7.63208913e-315]","[ 7.58037011e-315 -7.64545070e-315 -7.52807420e-315  7.61411348e-315
 -7.64634063e-315]","[ 7.38675844e-315  7.66403300e-315 -7.49251638e-315  7.42627743e-315
 -7.78455758e-315]","[ 7.68507379e-315  7.41617597e-315 -7.53087515e-315  7.67949198e-315
 -7.44007707e-315]","[ 7.35537583e-315 -7.36217429e-315 -7.74842984e-315  7.52194652e-315
 -7.43434380e-315]","[-7.37950720e-315 -7.75635742e-315 -7.32878986e-315  7.74512798e-315
 -7.76531808e-315]","[ 7.72877368e-315  7.56772237e-315 -7.36362756e-315  7.58352439e-315
 -7.55304038e-315]","[ 7.48739502e-315 -7.43884663e-315  7.66350791e-315 -7.46100836e-315
 -7.69071114e-315]","[-7.41933650e-315  7.57248065e-315  7.35090096e-315 -7.54451356e-315
  7.36912966e-315]","[-7.49803475e-315 -7.39368187e-315  7.37789841e-315  7.40223250e-315
  7.47142885e-315]","[ 7.46198026e-315  7.62731631e-315 -7.72276395e-315  7.55916789e-315
  7.45869425e-315]",[-0.32213829 -1.45977568  0.63032722  0.96052257 -0.90792832],"[ 7.73837794e-315 -7.31885246e-315 -7.41555973e-315 -7.42031982e-315
  7.38965996e-315]","[-7.49150930e-315  7.31921537e-315 -7.75591722e-315 -7.36432889e-315
 -7.63289178e-315]","[-7.52195697e-315  7.41352370e-315 -7.35302925e-315  7.72886098e-315
  7.74378924e-315]","[ 7.38780496e-315  7.34087737e-315  7.39505894e-315  7.32433023e-315
 -7.54354213e-315]","[ 7.53438112e-315 -7.55229419e-315 -7.68739076e-315 -7.59378437e-315
 -7.29993496e-315]","[ 7.33541959e-315 -7.76771037e-315 -7.68294248e-315  7.46556903e-315
 -7.37799567e-315]","[ 7.38727619e-315 -7.56300677e-315 -7.44635907e-315 -7.63725163e-315
  7.66755491e-315]",[-4.49286167  1.03645689  3.51593612  5.59313098 -1.61329119],"[-7.43158114e-315  7.64482846e-315  7.62371029e-315  7.38461762e-315
  7.61208663e-315]",[ 1.76418386 -0.54717269 -1.06544905 -4.73846007  0.71479607],"[-7.31965644e-315  7.49520366e-315  7.59584867e-315  7.66219855e-315
  7.40121709e-315]","[ 7.61309441e-315  7.67501062e-315 -7.35293011e-315 -7.42407365e-315
 -7.74081385e-315]",[-0.27694721 -5.64943448  1.44864726 -0.63073284  0.3232265 ],"[-7.50240788e-315  7.36324102e-315  7.72799353e-315  7.61959419e-315
 -7.35180125e-315]","[-7.63433964e-315 -7.64774191e-315  7.34182621e-315 -7.78119479e-315
  7.51592481e-315]","[ 7.31916760e-315 -7.32201070e-315 -7.74209423e-315  7.47923245e-315
  7.72502069e-315]","[ 7.62768160e-315 -7.55519538e-315  7.75186595e-315  7.74800921e-315
 -7.42078227e-315]","[-7.76237093e-315 -7.53735741e-315  7.32592432e-315 -7.61641210e-315
 -7.72871389e-315]","[ 7.57321770e-315 -7.64152988e-315 -7.63637757e-315  7.52986108e-315
 -7.78859388e-315]","[ 7.35085105e-315  7.73250161e-315 -7.32648937e-315  7.30708116e-315
 -7.52420575e-315]","[-7.36259811e-315  7.50171191e-315 -7.74277985e-315 -7.33409140e-315
  7.49059945e-315]","[ 7.41440375e-315 -7.47183283e-315  7.56874041e-315  7.67938067e-315
  7.38989206e-315]","[ 7.35491572e-315 -7.78080013e-315  7.69623197e-315  7.33421899e-315
  7.56202862e-315]","[-7.77867216e-315  7.37418295e-315  7.34653076e-315  7.36074885e-315
  7.32701943e-315]",[ 0.78635432 -0.96439743  0.09224257 -8.26321732 -2.70401942],"[ 7.42894813e-315 -7.56899085e-315  7.58689766e-315 -7.43779857e-315
  7.48650320e-315]",[ 3.57262306 -1.24216945 -4.79769665 -2.17230324 -0.97566188],"[-7.69314228e-315 -7.65216657e-315 -7.34199162e-315 -7.48347585e-315
 -7.61002337e-315]","[ 7.66921541e-315  7.65277764e-315 -7.72051063e-315  7.53859816e-315
 -7.56543625e-315]","[ 7.50038248e-315  7.30805589e-315 -7.46564296e-315  7.50051064e-315
 -7.76088198e-315]","[-7.70447321e-315  7.63855365e-315  7.48294766e-315 -7.48054656e-315
  7.65456792e-315]","[-7.41995176e-315  7.65988564e-315  7.39033184e-315 -7.47642543e-315
 -7.67312038e-315]","[-7.30190836e-315  7.60580001e-315 -7.32578660e-315  7.45341690e-315
 -7.51904006e-315]","[ 7.49678376e-315  7.33467004e-315  7.39265469e-315 -7.75396239e-315
  7.44168192e-315]","[-7.56656037e-315 -7.35903769e-315  7.30939905e-315  7.67366180e-315
  7.31485554e-315]","[ 7.59503560e-315 -7.42234054e-315  7.54181477e-315 -7.57801452e-315
 -7.62852096e-315]",[-0.0510168  -1.95453167  0.55512399 -1.69880929  0.17186476],"[-7.50389918e-315  7.32579999e-315 -7.53651562e-315  7.59035305e-315
 -7.70570311e-315]","[ 7.47377904e-315  7.33769315e-315  7.64853830e-315 -7.74569152e-315
  7.38212439e-315]","[ 7.34746639e-315 -7.33049131e-315 -7.61287715e-315  7.36932078e-315
 -7.70670292e-315]","[ 7.39996381e-315 -7.47203435e-315  7.51862330e-315 -7.40465315e-315
 -7.57152809e-315]","[ 7.69504014e-315 -7.36470429e-315 -7.46472675e-315  7.34262628e-315
 -7.70355848e-315]","[-7.64799468e-315  7.63622316e-315  7.38828147e-315  7.79375779e-315
  7.66381435e-315]",[-5.85901143 -4.25469398  5.61357134  7.44243394 -6.89394229],"[-7.30700762e-315  7.39653588e-315 -7.38245877e-315 -7.31782959e-315
  7.37353071e-315]","[ 7.62109435e-315 -7.39115586e-315  7.34322233e-315  7.50205771e-315
 -7.59117285e-315]","[ 7.30619018e-315  7.48574555e-315 -7.48663207e-315  7.56957561e-315
 -7.47775917e-315]","[ 7.34851855e-315  7.37877557e-315 -7.50228873e-315  7.57592969e-315
 -7.74217627e-315]","[ 7.39096722e-315  7.33449074e-315 -7.59082013e-315  7.33345566e-315
 -7.76728535e-315]",[-7.59598921 12.48599782 -8.76926734 -4.31561999 -0.15348809],"[ 7.76465481e-315 -7.50317031e-315  7.39961588e-315 -7.35450407e-315
  7.39835208e-315]","[-7.51006688e-315  7.59658657e-315  7.40516953e-315 -7.74435244e-315
 -7.42513431e-315]",[-2.28343399  2.49946895  0.93913699 -6.19413174  3.73194668],"[-7.46016109e-315  7.68419598e-315  7.54930280e-315  7.56812566e-315
  7.44404463e-315]","[-7.45860216e-315  7.75776976e-315  7.73035023e-315 -7.61259162e-315
  7.65665050e-315]",[ -6.55255099  -9.82847239 -13.67841518  -0.39324439   5.59341301],[ 0.06121194 -0.04710398 -0.05445272 -0.01799045  0.07671966],"[-7.45818597e-315  7.48497896e-315 -7.43626200e-315  7.31826708e-315
 -7.44431206e-315]","[-7.35588679e-315  7.39344662e-315  7.68011885e-315  7.31307282e-315
 -7.31478459e-315]","[-7.37438133e-315  7.65143660e-315 -7.33702054e-315 -7.71271827e-315
  7.33294692e-315]","[-7.41173737e-315  7.47677412e-315  7.68364025e-315 -7.76418072e-315
  7.33153196e-315]","[-7.50990505e-315  7.42024001e-315  7.77258099e-315 -7.59218324e-315
  7.58651239e-315]","[ 7.58701593e-315 -7.35195743e-315 -7.50164102e-315  7.73608570e-315
 -7.32757097e-315]","[ 7.72186573e-315 -7.38952356e-315  7.47803667e-315  7.62192600e-315
  7.37485402e-315]",[-1.52976025  2.15191701  0.4881059  -4.97655113  2.09902865],"[-7.50751883e-315 -7.76435944e-315 -7.43965839e-315  7.37568072e-315
  7.50582836e-315]","[ 7.79056722e-315 -7.63599668e-315  7.74053822e-315  7.79334259e-315
 -7.71147130e-315]","[ 7.71951494e-315  7.73116316e-315 -7.68652581e-315 -7.39425256e-315
 -7.46517440e-315]","[-7.68326129e-315 -7.31768157e-315 -7.36292623e-315 -7.45558096e-315
  7.71471130e-315]","[-7.62869947e-315 -7.35756091e-315  7.38216004e-315  7.34584492e-315
 -7.36678055e-315]",[ 3.96890095  5.69167458 -7.7538942   7.22567976 -7.42585879],"[ 7.50218023e-315  7.45317272e-315  7.71931071e-315 -7.78090912e-315
 -7.46472567e-315]","[ 7.38719012e-315  7.75865280e-315 -7.57314631e-315  7.47685306e-315
  7.38862508e-315]","[-7.68199876e-315  7.61630186e-315 -7.61008157e-315  7.35158270e-315
 -7.39439136e-315]","[-7.76724992e-315  7.71052924e-315 -7.40872116e-315 -7.69143251e-315
  7.31093318e-315]",[ 7.56738897 -5.04706923 -5.13311675 -6.34689601 -8.33544956],"[ 7.66981378e-315  7.65681578e-315 -7.66917762e-315 -7.40615924e-315
 -7.64585589e-315]","[ 7.39325818e-315 -7.76572692e-315  7.69673597e-315  7.44359000e-315
 -7.58637128e-315]","[-7.54310314e-315  7.73819508e-315  7.73175219e-315  7.48375344e-315
  7.67129273e-315]","[ 7.39172863e-315 -7.48061922e-315 -7.55640079e-315  7.46828340e-315
 -7.62912150e-315]","[-7.40881024e-315 -7.42266352e-315  7.44135033e-315 -7.57277019e-315
  7.61210137e-315]","[ 7.69542997e-315 -7.41574840e-315 -7.37289926e-315 -7.52903482e-315
  7.68550267e-315]","[-7.42105609e-315  7.74409869e-315 -7.76975094e-315  7.76126187e-315
  7.51891105e-315]","[-7.32820124e-315 -7.34879177e-315  7.73769833e-315  7.70500178e-315
 -7.57072426e-315]","[-7.40129559e-315 -7.51056243e-315  7.64590838e-315  7.30833476e-315
 -7.31297409e-315]","[ 7.68097876e-315 -7.47319362e-315 -7.61160992e-315 -7.65922934e-315
 -7.33955033e-315]","[-7.57409985e-315 -7.45823525e-315  7.48385509e-315 -7.31101730e-315
  7.32538643e-315]","[-7.39401170e-315  7.59920198e-315 -7.55075143e-315 -7.59952174e-315
 -7.74600209e-315]","[ 7.35116055e-315  7.73261962e-315  7.75177677e-315  7.58753508e-315
 -7.57975117e-315]","[-7.53969867e-315  7.49175051e-315 -7.37308873e-315 -7.55200513e-315
  7.30687358e-315]",[ 0.19701768  0.24759398 -1.11026428  0.29264549  0.40843204],"[ 7.58603154e-315  7.57627049e-315 -7.55317524e-315  7.53543790e-315
  7.40295001e-315]","[ 7.69137186e-315 -7.65492898e-315 -7.71414694e-315 -7.38152514e-315
 -7.78610176e-315]","[ 7.72905425e-315 -7.59248737e-315  7.57890853e-315 -7.76945713e-315
 -7.47241611e-315]","[ 7.66318980e-315 -7.72708852e-315 -7.41881238e-315 -7.45089014e-315
 -7.64112956e-315]","[ 7.66957623e-315 -7.64863569e-315 -7.38633480e-315 -7.48420551e-315
 -7.60200848e-315]","[-7.77632292e-315 -7.41789354e-315  7.62258135e-315  7.72595827e-315
 -7.49159228e-315]","[-7.47080408e-315  7.70678036e-315 -7.57048340e-315 -7.67162917e-315
  7.35802472e-315]","[ 7.78323110e-315 -7.62004517e-315  7.74325550e-315  7.52373668e-315
 -7.33787043e-315]","[ 7.33950949e-315  7.54964899e-315 -7.77880311e-315 -7.61733214e-315
 -7.67111064e-315]","[7.76108460e-315 7.52349235e-315 7.36994408e-315 7.41298806e-315
 7.75276740e-315]",[-0.89821667 -3.54045941  0.65513809 -7.151681    4.2915282 ],"[ 7.57252161e-315  7.33504631e-315  7.66062335e-315 -7.40387176e-315
  7.68709762e-315]","[ 7.63051613e-315 -7.55400447e-315  7.34191520e-315  7.54809452e-315
  7.71990287e-315]","[ 7.50284183e-315 -7.69173900e-315 -7.64003515e-315 -7.67921609e-315
  7.63682199e-315]"
