"[-7.62732274e-315  7.56825869e-315  7.60897305e-315  7.40210146e-315
  7.30753512e-315  7.63263593e-315  7.76973074e-315 -7.55820763e-315
 -7.63131596e-315 -7.76256839e-315  7.77618967e-315 -7.66278876e-315
  7.45822639e-315 -7.78486618e-315  7.58005701e-315  7.66248399e-315
  7.70061383e-315  7.76192241e-315 -7.55129332e-315 -7.77782432e-315
 -7.45993086e-315 -7.38055632e-315 -7.60755760e-315 -7.45215840e-315
 -7.34717889e-315 -7.35611948e-315  7.69975901e-315  7.40790343e-315
  7.72094129e-315 -7.47004356e-315 -7.43508407e-315 -7.41952841e-315]","[ 7.38561113e-315  7.57828243e-315 -7.74020722e-315 -7.73573994e-315
  7.78666513e-315  7.58351565e-315 -7.62675657e-315 -7.78301411e-315
  7.78423199e-315 -7.61594034e-315  7.68080879e-315 -7.71232722e-315
  7.43165486e-315  7.67278184e-315 -7.68101236e-315 -7.55631077e-315
 -7.50182946e-315 -7.69576888e-315 -7.42713195e-315  7.40908887e-315
 -7.49148782e-315  7.70391069e-315 -7.64515171e-315 -7.44428365e-315
  7.45964450e-315  7.57626228e-315  7.70924274e-315  7.62761715e-315
  7.68898519e-315 -7.66740906e-315  7.31350008e-315  7.54731403e-315]","[-7.35871374e-315  7.65902279e-315  7.35435649e-315  7.53909571e-315
  7.74323716e-315 -7.70653890e-315  7.31612351e-315 -7.76581879e-315
  7.61567255e-315 -7.57378299e-315 -7.58940850e-315 -7.39680309e-315
  7.52829432e-315  7.32073489e-315 -7.71401364e-315 -7.68765392e-315
 -7.33022102e-315  7.67683369e-315 -7.32738893e-315 -7.66665715e-315
 -7.51387847e-315  7.36179484e-315 -7.58439208e-315 -7.64600994e-315
  7.78547748e-315  7.45095064e-315  7.32779944e-315 -7.43224684e-315
 -7.71103591e-315 -7.41649877e-315 -7.54741502e-315  7.78983316e-315]","[ 4.48344558e-001  2.08581473e-002 -3.87370301e-001 -7.53816020e-315
  1.17795862e-001  1.65420633e-001 -7.68559538e-315  1.89937291e-001
 -7.12944208e-002 -2.22305213e-001  7.43896483e-315  3.43302625e-001
  7.40236847e-315 -3.97269341e-002  2.15776412e-001 -7.58474126e-315
  3.09546254e-001 -3.15650652e-001  1.91920898e-002  3.08909279e-001
 -7.54434807e-315 -1.97638636e-001  3.31492377e-001 -3.82456287e-298
  1.09510804e-001 -7.36732259e-315 -7.71017495e-315 -7.65035164e-315
 -7.53253685e-315 -7.76439690e-315  2.77381894e-001 -1.06244501e-001]","[ 7.52974169e-315 -7.79085657e-315 -7.33735162e-315 -7.42775612e-315
  7.69895167e-315 -7.35447214e-315 -7.47404328e-315  7.39615574e-315
 -7.64952343e-315 -7.41313937e-315  7.73454220e-315  7.64833157e-315
  7.32555660e-315  7.43877938e-315 -7.64632421e-315 -7.34457491e-315
  7.76990133e-315 -7.72699226e-315 -7.42698194e-315  7.77155829e-315
 -7.39269962e-315 -7.59574102e-315 -7.57004451e-315  7.33515137e-315
  7.40467694e-315 -7.48791719e-315 -7.39402194e-315  7.60311071e-315
  7.74772419e-315  7.78037753e-315  7.60430736e-315  7.33592977e-315]","[-7.48935801e-315  7.45806747e-315  7.42172284e-315 -7.54995682e-315
 -7.48323482e-315  7.38625970e-315 -7.46849172e-315 -7.43243040e-315
 -7.56382860e-315  7.39186588e-315 -7.35611627e-315 -7.62803165e-315
  7.65474045e-315  7.46968418e-315  7.35092811e-315 -7.74438265e-315
  7.51635344e-315  7.64947180e-315 -7.73896005e-315 -7.68396070e-315
 -7.60348781e-315  7.45353448e-315 -7.33508981e-315 -7.52631967e-315
 -7.76552705e-315 -7.72027602e-315  7.69638075e-315 -7.50577948e-315
 -7.41569933e-315  7.31609610e-315 -7.62074875e-315  7.62964857e-315]","[-3.04679036e-002 -5.65121597e-001 -1.11319726e-001 -7.44232761e-315
 -1.11396839e-001 -1.02754253e+000 -7.77129482e-315 -6.04857190e-003
  9.42952307e-002  3.23914154e-001 -7.76792932e-315  1.48664433e-001
 -7.32064110e-315  3.50350377e-001 -1.00089242e+000 -7.75326326e-315
 -3.51742905e-001  2.11491254e-001  3.75607823e-001  3.05831705e-001
  7.62880469e-315  4.05402964e-001 -3.70254153e-001 -5.00235610e-286
  3.44319557e-001 -7.63946142e-315  7.45472785e-315 -7.45437973e-315
 -7.54045995e-315 -7.41327738e-315 -3.73349024e-001  3.85417603e-001]","[ 7.69704839e-315  7.68314093e-315  7.50402045e-315 -7.30721821e-315
 -7.53351995e-315 -7.53698669e-315  7.31644519e-315 -7.35655947e-315
 -7.75738279e-315  7.56882309e-315 -7.36056148e-315 -7.66872123e-315
 -7.63465703e-315  7.61236202e-315 -7.53556598e-315  7.68535919e-315
 -7.57599831e-315 -7.40233840e-315 -7.76739523e-315  7.76051240e-315
 -7.54683758e-315 -7.33300799e-315  7.72034941e-315 -7.40769724e-315
 -7.43710470e-315  7.44436491e-315  7.71239690e-315  7.60858769e-315
 -7.56507442e-315  7.40252480e-315  7.38341999e-315 -7.35278766e-315]","[ 7.39036552e-315  7.41751524e-315 -7.53935563e-315 -7.73212299e-315
 -7.48000067e-315 -7.41276873e-315  7.79092008e-315  7.30293439e-315
  7.40136946e-315 -7.71420624e-315 -7.44241219e-315  7.74847780e-315
 -7.45242713e-315  7.73660146e-315 -7.43441648e-315  7.35413685e-315
  7.64037740e-315 -7.38455960e-315  7.38417763e-315  7.45970520e-315
  7.47867835e-315  7.38155065e-315 -7.68873012e-315  7.46159362e-315
 -7.61665608e-315  7.45251955e-315  7.33220217e-315  7.57239575e-315
  7.64732393e-315  7.55278808e-315  7.45260466e-315 -7.67362971e-315]","[ 7.43659912e-315 -7.54104078e-315 -7.47633112e-315 -7.31906387e-315
  7.52102954e-315 -7.66263714e-315 -7.77699392e-315  7.57378951e-315
  7.65735618e-315 -7.32276868e-315  7.32108479e-315  7.62906062e-315
  7.40108633e-315  7.42991709e-315 -7.48631666e-315 -7.36198168e-315
 -7.34829225e-315  7.71048001e-315  7.67867203e-315  7.56734535e-315
 -7.75220201e-315 -7.34086445e-315  7.59710381e-315  7.60569070e-315
  7.67396194e-315 -7.43623277e-315  7.42561534e-315 -7.53034189e-315
 -7.54897105e-315  7.44345358e-315  7.66057697e-315 -7.68122034e-315]","[-7.42653807e-315  7.36877435e-315  7.69069445e-315 -7.61536881e-315
 -7.77211554e-315  7.38320047e-315 -7.72097874e-315 -7.72858162e-315
 -7.59244806e-315  7.36383643e-315 -7.59365131e-315 -7.58918690e-315
  7.67007171e-315  7.31188679e-315  7.67167363e-315 -7.36842601e-315
  7.43655021e-315 -7.38937757e-315 -7.61832223e-315 -7.62156711e-315
  7.44856964e-315  7.45527527e-315 -7.59357156e-315 -7.37282550e-315
 -7.38038389e-315 -7.32061897e-315  7.49710288e-315 -7.41299591e-315
 -7.56080575e-315  7.57455195e-315 -7.53090347e-315  7.58764114e-315]","[ 7.59648449e-315  7.41036028e-315  7.67589691e-315 -7.71958755e-315
  7.66269135e-315 -7.50522139e-315 -7.75321818e-315 -7.62288312e-315
 -7.48095458e-315  7.70176496e-315 -7.65425789e-315  7.36170237e-315
  7.33845300e-315  7.31117786e-315  7.42038367e-315  7.32068923e-315
  7.64927587e-315  7.77742969e-315  7.35549808e-315  7.41564297e-315
  7.65586240e-315 -7.67413818e-315 -7.70898294e-315  7.56875078e-315
 -7.58032074e-315  7.58120250e-315 -7.39323907e-315  7.79121615e-315
 -7.31361198e-315 -7.52484745e-315 -7.73414734e-315  7.55219766e-315]","[-7.71977010e-315  7.37457918e-315  7.37690427e-315 -7.61449507e-315
 -7.36497802e-315 -7.39658758e-315  7.72130037e-315 -7.66874786e-315
 -7.54963376e-315  7.78920519e-315 -7.67634475e-315 -7.56543694e-315
 -7.67603065e-315 -7.64393633e-315 -7.63626602e-315 -7.56625543e-315
  7.48535342e-315 -7.44474220e-315 -7.48798381e-315 -7.66449219e-315
  7.55259551e-315  7.32133668e-315  7.45827406e-315 -7.59034049e-315
 -7.73144217e-315  7.63280812e-315 -7.31792522e-315 -7.66177981e-315
 -7.62728425e-315 -7.30320972e-315  7.58027361e-315  7.57645728e-315]","[ 7.34259901e-315 -7.60867688e-315 -7.56674608e-315  7.72290372e-315
 -7.45588537e-315  7.48343619e-315 -7.52812128e-315 -7.40726054e-315
  7.78494715e-315 -7.47237219e-315  7.44075618e-315  7.51758421e-315
 -7.53980084e-315 -7.38087260e-315 -7.62764544e-315 -7.72383103e-315
  7.42531033e-315  7.51326662e-315  7.53950101e-315  7.42621483e-315
  7.72950243e-315  7.41956575e-315 -7.38262416e-315  7.43260591e-315
 -7.50245333e-315 -7.55959186e-315 -7.51765007e-315  7.67117976e-315
  7.50993527e-315 -7.43927622e-315 -7.49706372e-315 -7.60091755e-315]","[ 7.44954117e-315  7.48513996e-315 -7.69689343e-315 -7.78512870e-315
 -7.59661100e-315 -7.60184826e-315 -7.75689316e-315 -7.31490992e-315
  7.59801831e-315  7.31174696e-315  7.49446148e-315 -7.65109687e-315
  7.59826228e-315  7.41586481e-315 -7.66025848e-315  7.78637529e-315
  7.69868815e-315 -7.75009258e-315  7.64238580e-315 -7.31502045e-315
  7.58165837e-315  7.53774724e-315 -7.67598941e-315 -7.36449350e-315
 -7.54153521e-315 -7.74671105e-315  7.58205971e-315  7.48631309e-315
 -7.79164513e-315  7.79363492e-315  7.38107009e-315  7.57833457e-315]","[-7.62407006e-315  7.52752674e-315  7.40832558e-315  7.54383996e-315
 -7.38480457e-315  7.54604137e-315  7.75518537e-315 -7.69905429e-315
 -7.67832267e-315  7.30492998e-315  7.43718683e-315 -7.44177584e-315
  7.63110194e-315  7.48861128e-315  7.38015824e-315 -7.74424416e-315
  7.42282154e-315  7.32363828e-315  7.77923186e-315 -7.46502210e-315
 -7.40938842e-315  7.48237051e-315 -7.31653261e-315 -7.34970096e-315
  7.78850959e-315 -7.33138930e-315  7.53421776e-315  7.43197121e-315
 -7.49493784e-315  7.56855478e-315 -7.44902041e-315  7.35890674e-315]"
